{"learner":{"attributes":{"best_iteration":"49","best_score":"0.03084913982762974","scikit_learn":"{\"_estimator_type\": \"regressor\"}"},"feature_names":["tmp","dtr","cld","tmx","tmn","wet","vap","spei","soi","dmi","pdo","nino4","nino34","nino3","pet","pre_lag_1","pre_lag_2","pre_lag_3","pre_lag_6","pre_lag_9","pre_lag_12","tmp_lag_1","tmp_lag_2","tmp_lag_3","tmp_lag_6","tmp_lag_9","tmp_lag_12","dtr_lag_1","dtr_lag_2","dtr_lag_3","dtr_lag_6","dtr_lag_9","dtr_lag_12","cld_lag_1","cld_lag_2","cld_lag_3","cld_lag_6","cld_lag_9","cld_lag_12","tmx_lag_1","tmx_lag_2","tmx_lag_3","tmx_lag_6","tmx_lag_9","tmx_lag_12","tmn_lag_1","tmn_lag_2","tmn_lag_3","tmn_lag_6","tmn_lag_9","tmn_lag_12","wet_lag_1","wet_lag_2","wet_lag_3","wet_lag_6","wet_lag_9","wet_lag_12","vap_lag_1","vap_lag_2","vap_lag_3","vap_lag_6","vap_lag_9","vap_lag_12","soi_lag_1","soi_lag_2","soi_lag_3","soi_lag_6","soi_lag_9","soi_lag_12","dmi_lag_1","dmi_lag_2","dmi_lag_3","dmi_lag_6","dmi_lag_9","dmi_lag_12","pdo_lag_1","pdo_lag_2","pdo_lag_3","pdo_lag_6","pdo_lag_9","pdo_lag_12","nino4_lag_1","nino4_lag_2","nino4_lag_3","nino4_lag_6","nino4_lag_9","nino4_lag_12","nino34_lag_1","nino34_lag_2","nino34_lag_3","nino34_lag_6","nino34_lag_9","nino34_lag_12","nino3_lag_1","nino3_lag_2","nino3_lag_3","nino3_lag_6","nino3_lag_9","nino3_lag_12","pet_lag_1","pet_lag_2","pet_lag_3","pet_lag_6","pet_lag_9","pet_lag_12","month","year"],"feature_types":["float","float","float","float","float","float","float","float","float","float","float","float","float","float","float","float","float","float","float","float","float","float","float","float","float","float","float","float","float","float","float","float","float","float","float","float","float","float","float","float","float","float","float","float","float","float","float","float","float","float","float","float","float","float","float","float","float","float","float","float","float","float","float","float","float","float","float","float","float","float","float","float","float","float","float","float","float","float","float","float","float","float","float","float","float","float","float","float","float","float","float","float","float","float","float","float","float","float","float","float","float","float","float","float","float","int","int"],"gradient_booster":{"model":{"gbtree_model_param":{"num_parallel_tree":"1","num_trees":"60"},"iteration_indptr":[0,1,2,3,4,5,6,7,8,9,10,11,12,13,14,15,16,17,18,19,20,21,22,23,24,25,26,27,28,29,30,31,32,33,34,35,36,37,38,39,40,41,42,43,44,45,46,47,48,49,50,51,52,53,54,55,56,57,58,59,60],"tree_info":[0,0,0,0,0,0,0,0,0,0,0,0,0,0,0,0,0,0,0,0,0,0,0,0,0,0,0,0,0,0,0,0,0,0,0,0,0,0,0,0,0,0,0,0,0,0,0,0,0,0,0,0,0,0,0,0,0,0,0,0],"trees":[{"base_weights":[-6.0589164E-3,-4.8718563E-1,4.9166936E-1,-5.9400445E-1,-2.3862444E-1,3.5502636E-1,9.847345E-1,-6.390442E-2,-4.984013E-1,-2.9173177E-1,-4.227647E-2,1.577273E-1,4.44841E-1,7.1620536E-1,1.2456758E0,-5.2289374E-2,-4.213831E-1,-3.302323E-1,-2.0653667E-1,-9.1450386E-2,1.53557E-1,8.344974E-2,2.669511E-1,3.6174294E-1,6.547354E-1,5.5011153E-1,8.6949855E-2,9.717229E-2,1.4464574E-1,-4.2817563E-2,-8.842618E-3,-3.784509E-2,-2.8404772E-2,-2.413304E-2,5.984439E-3,-1.3683167E-2,-2.6570845E-3,3.7511387E-3,1.6477618E-2,3.5694968E-3,1.7597897E-2,7.930251E-3,3.0688852E-2,3.2399E-2,6.0230773E-2,5.6280043E-2,7.769763E-2,1.6030924E-2,5.5751454E-2],"categories":[],"categories_nodes":[],"categories_segments":[],"categories_sizes":[],"default_left":[0,0,0,0,0,0,0,0,0,0,0,0,0,0,0,0,0,0,0,0,0,0,0,0,0,0,0,0,0,0,0,0,0,0,0,0,0,0,0,0,0,0,0,0,0,0,0,0,0],"id":0,"left_children":[1,3,5,7,9,11,13,-1,15,17,19,21,23,25,27,-1,29,31,33,35,37,39,41,43,45,47,-1,-1,-1,-1,-1,-1,-1,-1,-1,-1,-1,-1,-1,-1,-1,-1,-1,-1,-1,-1,-1,-1,-1],"loss_changes":[2.6844632E2,1.499234E1,3.6773422E1,1.3952637E0,1.7916279E0,7.6027412E0,7.446213E0,0E0,2.8663635E-2,3.7788296E-1,3.7997895E-1,1.0891871E0,4.9433746E0,1.0748043E0,1.8397217E0,0E0,4.5817852E-2,9.7382545E-2,4.3152E-1,8.763811E-2,4.234493E-3,3.604715E-1,3.878441E-1,1.7574959E0,4.954872E-1,2.9678345E-3,0E0,0E0,0E0,0E0,0E0,0E0,0E0,0E0,0E0,0E0,0E0,0E0,0E0,0E0,0E0,0E0,0E0,0E0,0E0,0E0,0E0,0E0,0E0],"parents":[2147483647,0,0,1,1,2,2,3,3,4,4,5,5,6,6,8,8,9,9,10,10,11,11,12,12,13,13,14,14,16,16,17,17,18,18,19,19,20,20,21,21,22,22,23,23,24,24,25,25],"right_children":[2,4,6,8,10,12,14,-1,16,18,20,22,24,26,28,-1,30,32,34,36,38,40,42,44,46,48,-1,-1,-1,-1,-1,-1,-1,-1,-1,-1,-1,-1,-1,-1,-1,-1,-1,-1,-1,-1,-1,-1,-1],"split_conditions":[2.7375543E-2,-3.3921844E-1,7.121602E-1,-4.987106E-1,-7.419162E-2,3.3842486E-1,9E0,-6.390442E-2,8.761911E-1,-1.8607421E-1,6.7693037E-1,2.344525E-1,4.7774997E-1,1.1862828E0,2.1338804E-1,-5.2289374E-2,7.23483E-1,1.532E1,1.085491E0,3.588835E-2,8.5895634E-1,2.9319578E-1,2.27E1,1.209E2,1.1520358E0,-5.206156E-1,8.6949855E-2,9.717229E-2,1.4464574E-1,-4.2817563E-2,-8.842618E-3,-3.784509E-2,-2.8404772E-2,-2.413304E-2,5.984439E-3,-1.3683167E-2,-2.6570845E-3,3.7511387E-3,1.6477618E-2,3.5694968E-3,1.7597897E-2,7.930251E-3,3.0688852E-2,3.2399E-2,6.0230773E-2,5.6280043E-2,7.769763E-2,1.6030924E-2,5.5751454E-2],"split_indices":[5,5,5,5,5,5,105,0,3,5,7,7,7,7,7,0,7,54,7,7,7,5,23,102,7,7,0,0,0,0,0,0,0,0,0,0,0,0,0,0,0,0,0,0,0,0,0,0,0],"split_type":[0,0,0,0,0,0,0,0,0,0,0,0,0,0,0,0,0,0,0,0,0,0,0,0,0,0,0,0,0,0,0,0,0,0,0,0,0,0,0,0,0,0,0,0,0,0,0,0,0],"sum_hessian":[1.119E3,5.69E2,5.5E2,3.97E2,1.72E2,4.32E2,1.18E2,2.66E2,1.31E2,1.35E2,3.7E1,1.36E2,2.96E2,6E1,5.8E1,9.5E1,3.6E1,9.1E1,4.4E1,3E1,7E0,8.2E1,5.4E1,2.14E2,8.2E1,3.1E1,2.9E1,2.7E1,3.1E1,3.5E1,1E0,4.1E1,5E1,3.9E1,5E0,1.7E1,1.3E1,1E0,6E0,5.5E1,2.7E1,1E1,4.4E1,1.87E2,2.7E1,5E1,3.2E1,1E0,3E1],"tree_param":{"num_deleted":"0","num_feature":"107","num_nodes":"49","size_leaf_vector":"1"}},{"base_weights":[7.1696064E-4,-4.3248323E-1,4.698796E-1,-5.351066E-1,-2.030345E-1,2.910176E-1,7.7319026E-1,-5.684764E-1,-4.333498E-2,-2.603662E-1,-4.991145E-2,1.6948812E-1,3.6254948E-1,5.990347E-1,1.0522164E0,-1.5562721E-2,-5.6935128E-2,-3.1596538E-1,-2.0502625E-1,1.3536254E-2,-7.3505506E-2,8.4810175E-2,2.3388919E-1,4.356268E-1,2.2797076E-1,5.4953325E-1,7.4053854E-1,8.287928E-2,1.2314737E-1,-2.6601532E-2,-3.727131E-2,-2.3921432E-2,-1.0426683E-2,-2.0200135E-3,-1.3346403E-2,-4.1833003E-3,1.1669702E-2,1.5104671E-2,3.1959873E-2,6.794676E-2,4.0407434E-2,6.970204E-3,2.5089478E-2,4.5293894E-2,6.3854575E-2,7.6541066E-2,2.6984284E-2],"categories":[],"categories_nodes":[],"categories_segments":[],"categories_sizes":[],"default_left":[0,0,0,0,0,0,0,0,0,0,0,0,0,0,0,0,0,0,0,0,0,0,0,0,0,0,0,0,0,0,0,0,0,0,0,0,0,0,0,0,0,0,0,0,0,0,0],"id":1,"left_children":[1,3,5,7,9,11,13,15,-1,17,19,21,23,25,27,-1,-1,29,31,-1,33,35,37,39,41,43,45,-1,-1,-1,-1,-1,-1,-1,-1,-1,-1,-1,-1,-1,-1,-1,-1,-1,-1,-1,-1],"loss_changes":[2.2437843E2,1.3407211E1,2.8527878E1,1.0983047E0,1.5584111E0,2.8507843E0,8.894104E0,1.7951965E-2,0E0,3.3520985E-1,2.2851813E-1,6.6728616E-1,1.9659691E0,4.5462418E-1,1.9430847E0,0E0,0E0,7.942915E-2,2.0930219E-1,0E0,1.4112897E-1,2.3102388E-1,4.5585346E-1,7.6410294E-1,2.582512E-1,5.275974E-1,1.3296986E-1,0E0,0E0,0E0,0E0,0E0,0E0,0E0,0E0,0E0,0E0,0E0,0E0,0E0,0E0,0E0,0E0,0E0,0E0,0E0,0E0],"parents":[2147483647,0,0,1,1,2,2,3,3,4,4,5,5,6,6,7,7,9,9,10,10,11,11,12,12,13,13,14,14,17,17,18,18,20,20,21,21,22,22,23,23,24,24,25,25,26,26],"right_children":[2,4,6,8,10,12,14,16,-1,18,20,22,24,26,28,-1,-1,30,32,-1,34,36,38,40,42,44,46,-1,-1,-1,-1,-1,-1,-1,-1,-1,-1,-1,-1,-1,-1,-1,-1,-1,-1,-1,-1],"split_conditions":[4.6419367E-2,-3.3921844E-1,6.105931E-1,-4.7411227E-1,-7.419162E-2,3.7016466E-1,1.29E2,2.79E1,-4.333498E-2,-2.3050985E-1,2.53E0,2.04E1,7.96E1,6.35E1,8.12934E-1,-1.5562721E-2,-5.6935128E-2,2.44E1,1.4299999E1,1.3536254E-2,9E-2,2.1940087E-1,1.844872E-1,2.71E1,4.3761155E-1,7.518349E-1,2.65E1,8.287928E-2,1.2314737E-1,-2.6601532E-2,-3.727131E-2,-2.3921432E-2,-1.0426683E-2,-2.0200135E-3,-1.3346403E-2,-4.1833003E-3,1.1669702E-2,1.5104671E-2,3.1959873E-2,6.794676E-2,4.0407434E-2,6.970204E-3,2.5089478E-2,4.5293894E-2,6.3854575E-2,7.6541066E-2,2.6984284E-2],"split_indices":[5,5,5,5,5,5,102,41,0,5,51,48,33,37,5,0,0,22,54,0,89,5,5,62,5,5,59,0,0,0,0,0,0,0,0,0,0,0,0,0,0,0,0,0,0,0,0],"split_type":[0,0,0,0,0,0,0,0,0,0,0,0,0,0,0,0,0,0,0,0,0,0,0,0,0,0,0,0,0,0,0,0,0,0,0,0,0,0,0,0,0,0,0,0,0,0,0],"sum_hessian":[1.102E3,5.73E2,5.29E2,3.95E2,1.78E2,3.34E2,1.95E2,2.94E2,1.01E2,1.29E2,4.9E1,1.25E2,2.09E2,1.22E2,7.3E1,1E0,2.93E2,6.2E1,6.7E1,5E0,4.4E1,5.5E1,7E1,1.34E2,7.5E1,9.4E1,2.8E1,3.5E1,3.8E1,3.6E1,2.6E1,4.9E1,1.8E1,2.4E1,2E1,1.1E1,4.4E1,3.7E1,3.3E1,1.3E1,1.21E2,1E1,6.5E1,4.8E1,4.6E1,2.6E1,2E0],"tree_param":{"num_deleted":"0","num_feature":"107","num_nodes":"47","size_leaf_vector":"1"}},{"base_weights":[-3.5785833E-5,-3.84678E-1,4.3510008E-1,-4.8251477E-1,-1.7661607E-1,3.0151185E-1,8.314902E-1,-5.25678E-2,-4.1145447E-1,-2.3848768E-1,-3.624664E-2,1.6521405E-1,3.950168E-1,5.958089E-1,1.0189464E0,-4.3620396E-2,-3.4719612E-2,-2.5823942E-1,-1.4878866E-1,9.0412356E-2,-6.394056E-2,8.485843E-2,2.1007451E-1,3.4079283E-1,4.9631482E-1,5.276265E-1,7.3723346E-2,8.4136374E-2,1.2209445E-1,-2.667212E-2,-1.20997615E-2,1.6895868E-3,-1.7968113E-2,-6.95562E-3,1.3368939E-2,3.2535342E-3,-8.951222E-3,1.335563E-2,-3.1132746E-4,1.5754512E-2,3.1513464E-2,2.8326204E-2,4.4102043E-2,5.098928E-2,1.1764879E-2,5.397054E-2,1.8264685E-2],"categories":[],"categories_nodes":[],"categories_segments":[],"categories_sizes":[],"default_left":[0,0,0,0,0,0,0,0,0,0,0,0,0,0,0,0,0,0,0,0,0,0,0,0,0,0,0,0,0,0,0,0,0,0,0,0,0,0,0,0,0,0,0,0,0,0,0],"id":2,"left_children":[1,3,5,7,9,11,13,-1,15,17,19,21,23,25,27,-1,-1,29,31,33,35,37,39,41,43,45,-1,-1,-1,-1,-1,-1,-1,-1,-1,-1,-1,-1,-1,-1,-1,-1,-1,-1,-1,-1,-1],"loss_changes":[1.8477826E2,1.184346E1,2.7178978E1,1.0044556E0,1.6327982E0,4.8923607E0,5.1362915E0,0E0,9.505844E-2,1.9367123E-1,2.127344E-1,5.5893993E-1,1.0941963E0,1.895752E-1,1.5196075E0,0E0,0E0,9.111738E-2,1.361143E-1,8.5451536E-2,1.2379767E-1,2.5317386E-1,5.132642E-1,7.572994E-1,3.410492E-1,8.47702E-2,0E0,0E0,0E0,0E0,0E0,0E0,0E0,0E0,0E0,0E0,0E0,0E0,0E0,0E0,0E0,0E0,0E0,0E0,0E0,0E0,0E0],"parents":[2147483647,0,0,1,1,2,2,3,3,4,4,5,5,6,6,8,8,9,9,10,10,11,11,12,12,13,13,14,14,17,17,18,18,19,19,20,20,21,21,22,22,23,23,24,24,25,25],"right_children":[2,4,6,8,10,12,14,-1,16,18,20,22,24,26,28,-1,-1,30,32,34,36,38,40,42,44,46,-1,-1,-1,-1,-1,-1,-1,-1,-1,-1,-1,-1,-1,-1,-1,-1,-1,-1,-1,-1,-1],"split_conditions":[7.181113E-2,-3.3921844E-1,7.193017E-1,-5.241024E-1,-7.419162E-2,4.2729613E-1,9E0,-5.25678E-2,-4.138068E-1,-1.2973619E-1,3.55E1,3.44E1,2.06E1,2.79E1,8.819678E-1,-4.3620396E-2,-3.4719612E-2,8.2E-1,2.0300001E1,-2.475305E-1,-6.3E-1,1.212E1,3.249355E-1,7.41E1,2.46E1,5.05E1,7.3723346E-2,8.4136374E-2,1.2209445E-1,-2.667212E-2,-1.20997615E-2,1.6895868E-3,-1.7968113E-2,-6.95562E-3,1.3368939E-2,3.2535342E-3,-8.951222E-3,1.335563E-2,-3.1132746E-4,1.5754512E-2,3.1513464E-2,2.8326204E-2,4.4102043E-2,5.098928E-2,1.1764879E-2,5.397054E-2,1.8264685E-2],"split_indices":[5,5,5,5,5,5,105,0,5,5,33,36,60,26,5,0,0,86,57,9,94,52,5,37,46,18,0,0,0,0,0,0,0,0,0,0,0,0,0,0,0,0,0,0,0,0,0],"split_type":[0,0,0,0,0,0,0,0,0,0,0,0,0,0,0,0,0,0,0,0,0,0,0,0,0,0,0,0,0,0,0,0,0,0,0,0,0,0,0,0,0,0,0,0,0,0,0],"sum_hessian":[1.102E3,5.85E2,5.17E2,3.97E2,1.88E2,3.88E2,1.29E2,2.43E2,1.54E2,1.3E2,5.8E1,1.59E2,2.29E2,5.9E1,7E1,1.07E2,4.7E1,1.05E2,2.5E1,1E1,4.8E1,5.8E1,1.01E2,1.52E2,7.7E1,4.3E1,1.6E1,4E1,3E1,9.8E1,7E0,4E0,2.1E1,2E0,8E0,1E1,3.8E1,3.7E1,2.1E1,6.9E1,3.2E1,9.9E1,5.3E1,7.4E1,3E0,4.1E1,2E0],"tree_param":{"num_deleted":"0","num_feature":"107","num_nodes":"47","size_leaf_vector":"1"}},{"base_weights":[3.9125793E-3,-3.542552E-1,3.9855316E-1,-4.471085E-1,-1.9509572E-1,2.9049748E-1,7.9536337E-1,-4.7926944E-2,-3.939659E-2,-2.6293704E-1,-9.3427375E-2,2.2664651E-1,4.991098E-1,5.600431E-1,9.741335E-1,-2.1618706E-1,-2.9889277E-1,-1.6261022E-1,3.099785E-2,1.0726661E-1,2.9591078E-1,5.4497993E-1,1.5373966E-1,4.0320817E-2,6.7052566E-2,7.4966186E-1,1.1387054E-1,-2.6384396E-2,-1.647529E-2,-9.216913E-3,-3.0348247E-2,-2.5192345E-2,-1.3383453E-2,-8.733949E-4,1.2325439E-2,7.5103126E-5,1.6117264E-2,4.775515E-2,2.5487794E-2,4.7892354E-2,6.984229E-2,3.9361357E-3,1.7095743E-2,3.1770304E-2,7.6916955E-2],"categories":[],"categories_nodes":[],"categories_segments":[],"categories_sizes":[],"default_left":[0,0,0,0,0,0,0,0,0,0,0,0,0,0,0,0,0,0,0,0,0,0,0,0,0,0,0,0,0,0,0,0,0,0,0,0,0,0,0,0,0,0,0,0,0],"id":3,"left_children":[1,3,5,7,9,11,13,-1,-1,15,17,19,21,23,25,27,29,31,33,35,37,39,41,-1,-1,43,-1,-1,-1,-1,-1,-1,-1,-1,-1,-1,-1,-1,-1,-1,-1,-1,-1,-1,-1],"loss_changes":[1.604293E2,8.7059555E0,2.2922852E1,4.521103E-1,1.4997406E0,5.561241E0,4.2922897E0,0E0,0E0,1.5726662E-1,7.7976876E-1,2.6804123E0,1.4845905E0,6.3066864E-1,1.5106277E0,1.0605359E-1,4.0341377E-2,1.1534691E-1,1.2203859E-1,7.003821E-1,1.4211006E0,5.4733086E-1,1.8872231E-2,0E0,0E0,8.426666E-3,0E0,0E0,0E0,0E0,0E0,0E0,0E0,0E0,0E0,0E0,0E0,0E0,0E0,0E0,0E0,0E0,0E0,0E0,0E0],"parents":[2147483647,0,0,1,1,2,2,3,3,4,4,5,5,6,6,9,9,10,10,11,11,12,12,13,13,14,14,15,15,16,16,17,17,18,18,19,19,20,20,21,21,22,22,25,25],"right_children":[2,4,6,8,10,12,14,-1,-1,16,18,20,22,24,26,28,30,32,34,36,38,40,42,-1,-1,44,-1,-1,-1,-1,-1,-1,-1,-1,-1,-1,-1,-1,-1,-1,-1,-1,-1,-1,-1],"split_conditions":[7.181113E-2,-3.9476296E-1,7.518349E-1,-5.5266815E-1,-1.7099784E-1,6.667857E-1,1.23E2,-4.7926944E-2,-3.939659E-2,1.71E1,-7.2154954E-2,4.1460025E-1,1.1900001E1,9.5277447E-1,5.199753E-1,5.0526977E-1,-2.3342354E0,-9.458782E-1,1.085491E0,-1.0723597E0,9.400001E0,1.4515573E0,8.9999996E-2,4.0320817E-2,6.7052566E-2,-7.090113E-1,1.1387054E-1,-2.6384396E-2,-1.647529E-2,-9.216913E-3,-3.0348247E-2,-2.5192345E-2,-1.3383453E-2,-8.733949E-4,1.2325439E-2,7.5103126E-5,1.6117264E-2,4.775515E-2,2.5487794E-2,4.7892354E-2,6.984229E-2,3.9361357E-3,1.7095743E-2,3.1770304E-2,7.6916955E-2],"split_indices":[5,5,5,5,5,7,102,0,0,46,7,5,32,7,7,7,79,7,7,7,29,7,53,0,0,7,0,0,0,0,0,0,0,0,0,0,0,0,0,0,0,0,0,0,0],"split_type":[0,0,0,0,0,0,0,0,0,0,0,0,0,0,0,0,0,0,0,0,0,0,0,0,0,0,0,0,0,0,0,0,0,0,0,0,0,0,0,0,0,0,0,0,0],"sum_hessian":[1.133E3,5.94E2,5.39E2,3.74E2,2.2E2,4.25E2,1.14E2,2.28E2,1.46E2,1.31E2,8.9E1,3.27E2,9.8E1,5.1E1,6.3E1,6E1,7.1E1,5.7E1,3.2E1,1.21E2,2.06E2,8.6E1,1.2E1,2.3E1,2.8E1,2.9E1,3.4E1,2.9E1,3.1E1,2E0,6.9E1,1.2E1,4.5E1,2.3E1,9E0,4.1E1,8E1,3.6E1,1.7E2,6.3E1,2.3E1,2E0,1E1,2E0,2.7E1],"tree_param":{"num_deleted":"0","num_feature":"107","num_nodes":"45","size_leaf_vector":"1"}},{"base_weights":[7.339412E-4,-2.902739E-1,3.254244E-1,-3.8403505E-1,-1.0783809E-1,9.846274E-2,4.6961287E-1,-3.950308E-1,-2.3429346E-1,-2.4281348E-1,3.9381023E-2,2.6170203E-1,5.5061813E-2,3.9737025E-1,7.2874343E-1,-4.1377213E-2,-3.314659E-1,-2.9791376E-2,-1.3307513E-1,-3.3480293E-1,-1.9404666E-1,2.870307E-1,-2.4623774E-2,5.4251764E-2,3.7089854E-1,8.594571E-2,-1.5933548E-1,3.431564E-1,6.7883545E-1,5.781726E-1,9.4155097E-1,-2.6799515E-2,-3.9308947E-2,-1.4801012E-2,2.3072292E-3,-5.371589E-3,-3.4149032E-2,-1.3556364E-2,-2.6513562E-2,1.4433781E-2,4.152898E-2,-9.437164E-3,7.8587895E-3,-1.6034473E-3,1.1070045E-2,4.075659E-3,4.2422403E-2,-3.2463898E-3,1.4009617E-2,-2.0631773E-2,-9.786821E-3,1.5718667E-2,3.73634E-2,7.70643E-2,3.263485E-2,5.880571E-2,8.151139E-3,1.1050143E-1,5.531618E-2],"categories":[],"categories_nodes":[],"categories_segments":[],"categories_sizes":[],"default_left":[0,0,0,0,0,0,0,0,0,0,0,0,0,0,0,0,0,0,0,0,0,0,0,0,0,0,0,0,0,0,0,0,0,0,0,0,0,0,0,0,0,0,0,0,0,0,0,0,0,0,0,0,0,0,0,0,0,0,0],"id":4,"left_children":[1,3,5,7,9,11,13,15,17,19,21,23,25,27,29,-1,31,-1,33,35,37,39,41,43,45,47,49,51,53,55,57,-1,-1,-1,-1,-1,-1,-1,-1,-1,-1,-1,-1,-1,-1,-1,-1,-1,-1,-1,-1,-1,-1,-1,-1,-1,-1,-1,-1],"loss_changes":[1.0535351E2,1.0016556E1,1.7199966E1,5.463028E-1,4.003625E0,1.4450461E0,5.7383575E0,2.917099E-1,1.4710152E-1,4.0606594E-1,1.5445923E0,9.539504E-1,1.0996077E0,3.6429214E0,1.6665573E0,0E0,2.3493671E-1,0E0,3.3731684E-2,4.7447205E-2,2.592399E-1,3.060912E-1,5.689223E-1,6.5256074E-2,4.7564888E-1,9.278667E-1,4.0453374E-2,1.1598682E0,1.0429382E0,1.6316414E-1,1.1029091E0,0E0,0E0,0E0,0E0,0E0,0E0,0E0,0E0,0E0,0E0,0E0,0E0,0E0,0E0,0E0,0E0,0E0,0E0,0E0,0E0,0E0,0E0,0E0,0E0,0E0,0E0,0E0,0E0],"parents":[2147483647,0,0,1,1,2,2,3,3,4,4,5,5,6,6,7,7,8,8,9,9,10,10,11,11,12,12,13,13,14,14,16,16,18,18,19,19,20,20,21,21,22,22,23,23,24,24,25,25,26,26,27,27,28,28,29,29,30,30],"right_children":[2,4,6,8,10,12,14,16,18,20,22,24,26,28,30,-1,32,-1,34,36,38,40,42,44,46,48,50,52,54,56,58,-1,-1,-1,-1,-1,-1,-1,-1,-1,-1,-1,-1,-1,-1,-1,-1,-1,-1,-1,-1,-1,-1,-1,-1,-1,-1,-1,-1],"split_conditions":[9.67E0,-3.6956543E-1,-2.913225E-1,1.209E2,-5.859461E-2,-3.3689845E-1,1.2393703E0,7.4369246E-1,1.3494658E-1,-1.0723597E0,4.84E1,2.7E1,6.5099998E0,2.242E2,7.88E1,-4.1377213E-2,1.247E2,-2.9791376E-2,2.76E1,1E-1,5.9E1,5.835235E-1,3.42E1,-5.507324E-1,-1.8001002E0,-1.1889111E0,-9.2712843E-1,1.3373873E-1,-3.315507E-1,4.4444446E-2,4.3600002E1,-2.6799515E-2,-3.9308947E-2,-1.4801012E-2,2.3072292E-3,-5.371589E-3,-3.4149032E-2,-1.3556364E-2,-2.6513562E-2,1.4433781E-2,4.152898E-2,-9.437164E-3,7.8587895E-3,-1.6034473E-3,1.1070045E-2,4.075659E-3,4.2422403E-2,-3.2463898E-3,1.4009617E-2,-2.0631773E-2,-9.786821E-3,1.5718667E-2,3.73634E-2,7.70643E-2,3.263485E-2,5.880571E-2,8.151139E-3,1.1050143E-1,5.531618E-2],"split_indices":[56,4,7,104,7,14,7,7,7,7,36,24,54,20,34,0,103,0,24,18,36,7,39,7,7,7,7,6,14,1,36,0,0,0,0,0,0,0,0,0,0,0,0,0,0,0,0,0,0,0,0,0,0,0,0,0,0,0,0],"split_type":[0,0,0,0,0,0,0,0,0,0,0,0,0,0,0,0,0,0,0,0,0,0,0,0,0,0,0,0,0,0,0,0,0,0,0,0,0,0,0,0,0,0,0,0,0,0,0,0,0,0,0,0,0,0,0,0,0,0,0],"sum_hessian":[1.113E3,5.87E2,5.26E2,3.87E2,2E2,2.05E2,3.21E2,3.59E2,2.8E1,1.04E2,9.6E1,4.2E1,1.63E2,2.53E2,6.8E1,2.73E2,8.6E1,1.6E1,1.2E1,3.4E1,7E1,1.9E1,7.7E1,1.5E1,2.7E1,1.43E2,2E1,2.14E2,3.9E1,4.2E1,2.6E1,4.5E1,4.1E1,1.1E1,1E0,1E0,3.3E1,4E1,3E1,1E1,9E0,4.6E1,3.1E1,7E0,8E0,4E0,2.3E1,4.5E1,9.8E1,1E1,1E1,3.1E1,1.83E2,3E1,9E0,4.1E1,1E0,1.7E1,9E0],"tree_param":{"num_deleted":"0","num_feature":"107","num_nodes":"59","size_leaf_vector":"1"}},{"base_weights":[3.761026E-3,-2.7372313E-1,3.3353302E-1,-3.4275246E-1,-8.053971E-2,2.1701412E-1,5.6599E-1,-3.751364E-1,-2.7304298E-1,-1.4967982E-1,-1.291008E-2,1.2212869E-1,3.264641E-1,4.272677E-1,7.374214E-1,-3.9035942E-2,-3.3515234E-2,-3.055402E-1,-2.4079175E-1,-2.1674751E-1,-1.10158265E-1,-1.07498705E-1,3.3781003E-2,2.1565608E-3,1.4580372E-1,1.6963188E-1,3.6405322E-1,3.6058152E-1,6.546131E-2,5.942443E-1,9.752523E-2,-3.0778741E-2,-7.5240955E-3,-2.6049403E-2,-1.8478677E-2,-6.392362E-3,-2.2570027E-2,-1.3605026E-2,-5.66647E-3,-1.3119637E-2,-1.7663393E-3,1.82762E-3,1.9137572E-2,1.4216432E-2,-2.903615E-3,3.529668E-2,1.2777797E-2,9.039561E-3,2.1661568E-2,3.151318E-2,4.6886854E-2,2.4245644E-2,4.1498147E-2,3.183568E-2,6.317526E-2],"categories":[],"categories_nodes":[],"categories_segments":[],"categories_sizes":[],"default_left":[0,0,0,0,0,0,0,0,0,0,0,0,0,0,0,0,0,0,0,0,0,0,0,0,0,0,0,0,0,0,0,0,0,0,0,0,0,0,0,0,0,0,0,0,0,0,0,0,0,0,0,0,0,0,0],"id":5,"left_children":[1,3,5,7,9,11,13,15,17,19,21,23,25,27,29,-1,-1,31,33,35,37,39,41,43,45,47,49,51,-1,53,-1,-1,-1,-1,-1,-1,-1,-1,-1,-1,-1,-1,-1,-1,-1,-1,-1,-1,-1,-1,-1,-1,-1,-1,-1],"loss_changes":[1.04134186E2,8.213623E0,1.3961697E1,9.2472076E-1,7.6491857E-1,3.5741806E0,3.799099E0,5.6640625E-2,8.154297E-2,1.9082367E-1,3.746128E-1,5.3366995E-1,8.8736916E-1,1.2497177E0,2.0084114E0,0E0,0E0,1.3069153E-2,3.9034843E-2,2.5250077E-2,6.569862E-2,5.7291478E-2,1.3578045E-1,1.4387898E-1,5.411792E-1,1.0327202E-1,5.1371956E-1,4.0061188E-1,0E0,3.1627846E-1,0E0,0E0,0E0,0E0,0E0,0E0,0E0,0E0,0E0,0E0,0E0,0E0,0E0,0E0,0E0,0E0,0E0,0E0,0E0,0E0,0E0,0E0,0E0,0E0,0E0],"parents":[2147483647,0,0,1,1,2,2,3,3,4,4,5,5,6,6,7,7,8,8,9,9,10,10,11,11,12,12,13,13,14,14,17,17,18,18,19,19,20,20,21,21,22,22,23,23,24,24,25,25,26,26,27,27,29,29],"right_children":[2,4,6,8,10,12,14,16,18,20,22,24,26,28,30,-1,-1,32,34,36,38,40,42,44,46,48,50,52,-1,54,-1,-1,-1,-1,-1,-1,-1,-1,-1,-1,-1,-1,-1,-1,-1,-1,-1,-1,-1,-1,-1,-1,-1,-1,-1],"split_conditions":[1.3846458E-1,-2.5748858E-1,6.597897E-1,-4.7411227E-1,-7.2154954E-2,9.168139E-2,1.2600001E2,-5.788534E-1,1.27E1,-9.458782E-1,-1.7099784E-1,-1.4219232E0,3.1144616E-1,1.6183574E0,6.1594105E-1,-3.9035942E-2,-3.3515234E-2,2.5E1,4.032038E-1,-8.3950615E-1,1.40199995E1,2.8E-1,1.092E2,2.35E1,1.023E2,4.480956E-1,9.2469686E-1,3.458235E-1,6.546131E-2,-6.882026E-1,9.752523E-2,-3.0778741E-2,-7.5240955E-3,-2.6049403E-2,-1.8478677E-2,-6.392362E-3,-2.2570027E-2,-1.3605026E-2,-5.66647E-3,-1.3119637E-2,-1.7663393E-3,1.82762E-3,1.9137572E-2,1.4216432E-2,-2.903615E-3,3.529668E-2,1.2777797E-2,9.039561E-3,2.1661568E-2,3.151318E-2,4.6886854E-2,2.4245644E-2,4.1498147E-2,3.183568E-2,6.317526E-2],"split_indices":[5,5,5,5,7,7,102,5,28,7,5,7,5,7,7,0,0,48,7,11,53,86,103,25,101,7,7,7,0,7,0,0,0,0,0,0,0,0,0,0,0,0,0,0,0,0,0,0,0,0,0,0,0,0,0],"split_type":[0,0,0,0,0,0,0,0,0,0,0,0,0,0,0,0,0,0,0,0,0,0,0,0,0,0,0,0,0,0,0,0,0,0,0,0,0,0,0,0,0,0,0,0,0,0,0,0,0,0,0,0,0,0,0],"sum_hessian":[1.136E3,6.17E2,5.19E2,4.54E2,1.63E2,3.47E2,1.72E2,3.07E2,1.47E2,8E1,8.3E1,1.87E2,1.6E2,9.7E1,7.5E1,2.16E2,9.1E1,6.9E1,7.8E1,2.8E1,5.2E1,2.7E1,5.6E1,3.1E1,1.56E2,3.2E1,1.28E2,7.7E1,2E1,4.9E1,2.6E1,6.8E1,1E0,5.5E1,2.3E1,2E0,2.6E1,3.4E1,1.8E1,2.1E1,6E0,5.2E1,4E0,5E0,2.6E1,1.1E1,1.45E2,1.3E1,1.9E1,9E1,3.8E1,2.6E1,5.1E1,7E0,4.2E1],"tree_param":{"num_deleted":"0","num_feature":"107","num_nodes":"55","size_leaf_vector":"1"}},{"base_weights":[7.9180775E-3,-2.54722E-1,2.855654E-1,-3.1834334E-1,-1.21694334E-1,1.7335552E-1,4.6774584E-1,-3.478002E-2,-2.7572897E-1,-1.7214288E-1,-4.7389355E-2,1.1931825E-1,2.4073598E-1,3.605334E-1,6.254752E-1,-9.39095E-3,-2.774043E-1,-1.7837971E-1,-6.954619E-3,6.0690593E-2,-6.632223E-2,1.4366642E-1,4.2698972E-2,3.1097007E-1,1.4259742E-1,3.2053703E-1,4.714727E-1,4.8294994E-1,7.5622123E-1,-2.8976995E-2,-2.2975316E-2,-1.5619512E-2,-2.0997021E-2,-6.181739E-3,9.137393E-3,-8.034698E-4,-9.148997E-3,8.055247E-3,1.6337415E-2,1.0597249E-2,-4.0213583E-4,4.9096134E-2,2.913337E-2,1.5058893E-2,-1.4922431E-3,2.9392524E-2,4.3356255E-2,4.886954E-2,1.4782927E-2,5.072224E-2,2.0188889E-2,1.6926548E-2,7.666635E-2],"categories":[],"categories_nodes":[],"categories_segments":[],"categories_sizes":[],"default_left":[0,0,0,0,0,0,0,0,0,0,0,0,0,0,0,0,0,0,0,0,0,0,0,0,0,0,0,0,0,0,0,0,0,0,0,0,0,0,0,0,0,0,0,0,0,0,0,0,0,0,0,0,0],"id":6,"left_children":[1,3,5,7,9,11,13,-1,15,17,19,21,23,25,27,-1,29,31,-1,33,35,37,39,41,43,45,47,49,51,-1,-1,-1,-1,-1,-1,-1,-1,-1,-1,-1,-1,-1,-1,-1,-1,-1,-1,-1,-1,-1,-1,-1,-1],"loss_changes":[8.13071E1,4.8107834E0,1.0998718E1,3.898964E-1,6.928265E-1,1.1983118E0,3.258072E0,0E0,2.3599625E-2,5.862093E-2,1.615875E-1,3.4645224E-1,9.826641E-1,4.035225E-1,1.1628227E0,0E0,2.8291702E-2,4.008937E-2,0E0,5.0755937E-2,9.6084625E-2,1.6470814E-1,1.3936564E-1,1.60923E-1,8.281171E-2,1.5830803E-1,1.0055065E-1,1.8412304E-1,1.2152672E-1,0E0,0E0,0E0,0E0,0E0,0E0,0E0,0E0,0E0,0E0,0E0,0E0,0E0,0E0,0E0,0E0,0E0,0E0,0E0,0E0,0E0,0E0,0E0,0E0],"parents":[2147483647,0,0,1,1,2,2,3,3,4,4,5,5,6,6,8,8,9,9,10,10,11,11,12,12,13,13,14,14,16,16,17,17,19,19,20,20,21,21,22,22,23,23,24,24,25,25,26,26,27,27,28,28],"right_children":[2,4,6,8,10,12,14,-1,16,18,20,22,24,26,28,-1,30,32,-1,34,36,38,40,42,44,46,48,50,52,-1,-1,-1,-1,-1,-1,-1,-1,-1,-1,-1,-1,-1,-1,-1,-1,-1,-1,-1,-1,-1,-1,-1,-1],"split_conditions":[7.181113E-2,-3.3921844E-1,6.105931E-1,-5.415592E-1,-1.2973619E-1,4.4078553E-1,9E0,-3.478002E-2,-1.56E0,2.13E-1,2.53E0,2.86E1,7.88E1,6.35E1,8.12934E-1,-9.39095E-3,-6.6667E-2,3.89E1,-6.954619E-3,-6.4721483E-1,5.92E1,1.844872E-1,6.14E0,2.37E1,2.96E1,8.819678E-1,2.56E-1,3.28E1,-2.476E0,-2.8976995E-2,-2.2975316E-2,-1.5619512E-2,-2.0997021E-2,-6.181739E-3,9.137393E-3,-8.034698E-4,-9.148997E-3,8.055247E-3,1.6337415E-2,1.0597249E-2,-4.0213583E-4,4.9096134E-2,2.913337E-2,1.5058893E-2,-1.4922431E-3,2.9392524E-2,4.3356255E-2,4.886954E-2,1.4782927E-2,5.072224E-2,2.0188889E-2,1.6926548E-2,7.666635E-2],"split_indices":[5,5,5,5,5,5,105,0,98,69,51,23,33,37,5,0,0,33,0,12,20,5,53,25,59,5,74,40,66,0,0,0,0,0,0,0,0,0,0,0,0,0,0,0,0,0,0,0,0,0,0,0,0],"split_type":[0,0,0,0,0,0,0,0,0,0,0,0,0,0,0,0,0,0,0,0,0,0,0,0,0,0,0,0,0,0,0,0,0,0,0,0,0,0,0,0,0,0,0,0,0,0,0,0,0,0,0,0,0],"sum_hessian":[1.113E3,5.72E2,5.41E2,3.86E2,1.86E2,3.36E2,2.05E2,2.24E2,1.62E2,1.1E2,7.6E1,1.88E2,1.48E2,1.24E2,8.1E1,2E0,1.6E2,1.03E2,7E0,1.1E1,6.5E1,1.42E2,4.6E1,8.5E1,6.3E1,9.4E1,3E1,4.1E1,4E1,1.23E2,3.7E1,6.4E1,3.9E1,2E0,9E0,2E1,4.5E1,3.5E1,1.07E2,1.9E1,2.7E1,6E0,7.9E1,6E1,3E0,7.9E1,1.5E1,2.8E1,2E0,3.7E1,4E0,1E0,3.9E1],"tree_param":{"num_deleted":"0","num_feature":"107","num_nodes":"53","size_leaf_vector":"1"}},{"base_weights":[-1.0699363E-3,-2.404919E-1,2.4354E-1,-2.9458442E-1,-1.318952E-1,1.4408943E-1,4.0329474E-1,-3.1576183E-2,-2.573136E-1,-1.6478342E-1,-6.457176E-2,6.1433364E-2,2.2495705E-1,3.148911E-1,5.6390023E-1,-2.7669147E-2,-2.2937353E-1,-2.403354E-2,-1.5172787E-1,-1.0528113E-1,3.7386276E-2,-4.0186323E-2,9.1761805E-2,9.246456E-2,2.7806404E-1,2.0827349E-1,4.1701028E-1,4.4172677E-1,7.3824786E-2,-2.3625696E-2,-1.2345761E-2,-2.1521913E-2,-1.3268788E-2,-1.629143E-2,-7.7640354E-3,6.215816E-3,-2.6645837E-3,-6.227066E-3,9.533667E-3,-1.203419E-3,1.072102E-2,4.003339E-3,1.4539163E-2,2.4973616E-2,4.2943586E-2,9.403112E-3,2.214978E-2,3.6532655E-2,5.5665206E-2,2.718342E-2,4.9369376E-2],"categories":[],"categories_nodes":[],"categories_segments":[],"categories_sizes":[],"default_left":[0,0,0,0,0,0,0,0,0,0,0,0,0,0,0,0,0,0,0,0,0,0,0,0,0,0,0,0,0,0,0,0,0,0,0,0,0,0,0,0,0,0,0,0,0,0,0,0,0,0,0],"id":7,"left_children":[1,3,5,7,9,11,13,-1,15,17,19,21,23,25,27,-1,29,-1,31,33,35,37,39,41,43,45,47,49,-1,-1,-1,-1,-1,-1,-1,-1,-1,-1,-1,-1,-1,-1,-1,-1,-1,-1,-1,-1,-1,-1,-1],"loss_changes":[6.559279E1,3.285984E0,8.743671E0,2.1632004E-1,4.10048E-1,2.27886E0,2.8324356E0,0E0,1.3415337E-2,8.880377E-2,2.695775E-1,5.3070384E-1,1.1915646E0,1.4265375E0,1.250145E0,0E0,1.7492533E-2,0E0,1.05627775E-1,6.063044E-2,3.179398E-2,1.2565406E-1,2.1294975E-1,1.3570592E-1,4.2018414E-1,8.4926605E-2,3.018446E-1,2.7192116E-1,0E0,0E0,0E0,0E0,0E0,0E0,0E0,0E0,0E0,0E0,0E0,0E0,0E0,0E0,0E0,0E0,0E0,0E0,0E0,0E0,0E0,0E0,0E0],"parents":[2147483647,0,0,1,1,2,2,3,3,4,4,5,5,6,6,8,8,9,9,10,10,11,11,12,12,13,13,14,14,16,16,18,18,19,19,20,20,21,21,22,22,23,23,24,24,25,25,26,26,27,27],"right_children":[2,4,6,8,10,12,14,-1,16,18,20,22,24,26,28,-1,30,-1,32,34,36,38,40,42,44,46,48,50,-1,-1,-1,-1,-1,-1,-1,-1,-1,-1,-1,-1,-1,-1,-1,-1,-1,-1,-1,-1,-1,-1,-1],"split_conditions":[2.7375543E-2,-3.788931E-1,5.828209E-1,-5.5266815E-1,-1.2973619E-1,-4.320433E-2,9E0,-3.1576183E-2,1.2469999E1,-1.4219232E0,3.5918203E-1,-1.393921E0,2.3289026E-1,7.4369246E-1,2.1338804E-1,-2.7669147E-2,6.51E1,-2.403354E-2,-6.333337E-1,-9.2712843E-1,1.04E-1,2.6030002E2,2.6463005E-1,7.059116E-1,1.3016163E0,-5.103608E-1,1.7593217E0,-6.695611E-1,7.3824786E-2,-2.3625696E-2,-1.2345761E-2,-2.1521913E-2,-1.3268788E-2,-1.629143E-2,-7.7640354E-3,6.215816E-3,-2.6645837E-3,-6.227066E-3,9.533667E-3,-1.203419E-3,1.072102E-2,4.003339E-3,1.4539163E-2,2.4973616E-2,4.2943586E-2,9.403112E-3,2.214978E-2,3.6532655E-2,5.5665206E-2,2.718342E-2,4.9369376E-2],"split_indices":[5,5,5,5,5,7,105,0,55,7,7,7,5,7,7,0,20,0,0,7,69,20,5,7,7,7,7,7,0,0,0,0,0,0,0,0,0,0,0,0,0,0,0,0,0,0,0,0,0,0,0],"split_type":[0,0,0,0,0,0,0,0,0,0,0,0,0,0,0,0,0,0,0,0,0,0,0,0,0,0,0,0,0,0,0,0,0,0,0,0,0,0,0,0,0,0,0,0,0,0,0,0,0,0,0],"sum_hessian":[1.118E3,5.65E2,5.53E2,3.76E2,1.89E2,3.42E2,2.11E2,2.35E2,1.41E2,1.26E2,6.3E1,1.7E2,1.72E2,1.38E2,7.3E1,7.8E1,6.3E1,1.6E1,1.1E2,4.5E1,1.8E1,3.9E1,1.31E2,5E1,1.22E2,6.9E1,6.9E1,4.5E1,2.8E1,5.8E1,5E0,2.3E1,8.7E1,1.3E1,3.2E1,1.3E1,5E0,3.4E1,5E0,1.7E1,1.14E2,2.6E1,2.4E1,1.05E2,1.7E1,8E0,6.1E1,5.3E1,1.6E1,1.2E1,3.3E1],"tree_param":{"num_deleted":"0","num_feature":"107","num_nodes":"51","size_leaf_vector":"1"}},{"base_weights":[1.7361504E-5,-2.1294113E-1,2.2631024E-1,-2.647712E-1,-1.16875514E-1,1.615943E-1,4.6056148E-1,-2.8304866E-2,-2.3070437E-1,-1.444751E-1,-2.4166964E-2,1.1619677E-1,2.8230497E-1,3.209352E-1,5.834817E-1,-1.4163646E-1,-2.3443956E-2,-1.505171E-1,-2.8393429E-2,-7.4975565E-2,7.289435E-2,6.8172865E-2,1.8031785E-1,3.090421E-1,9.588265E-2,1.6745171E-1,3.874801E-1,4.8124078E-1,8.0098845E-2,1.078957E-3,-1.6495299E-2,-2.1953678E-2,-1.4056334E-2,-9.6027125E-3,8.015546E-3,-1.148267E-2,-3.760098E-3,1.6096944E-2,3.3412054E-3,-4.2260866E-4,1.0624881E-2,3.2345172E-2,1.4903501E-2,2.7539736E-2,4.590869E-2,4.5947223E-3,1.5352145E-2,9.714701E-3,1.9242717E-2,3.1752642E-2,4.897169E-2,3.4383655E-2,5.220225E-2],"categories":[],"categories_nodes":[],"categories_segments":[],"categories_sizes":[],"default_left":[0,0,0,0,0,0,0,0,0,0,0,0,0,0,0,0,0,0,0,0,0,0,0,0,0,0,0,0,0,0,0,0,0,0,0,0,0,0,0,0,0,0,0,0,0,0,0,0,0,0,0,0,0],"id":8,"left_children":[1,3,5,7,9,11,13,-1,15,17,19,21,23,25,27,29,-1,31,33,35,37,39,41,43,45,47,49,51,-1,-1,-1,-1,-1,-1,-1,-1,-1,-1,-1,-1,-1,-1,-1,-1,-1,-1,-1,-1,-1,-1,-1,-1,-1],"loss_changes":[5.3973907E1,2.8419876E0,8.157339E0,1.6757393E-1,5.1848674E-1,2.3071432E0,1.8207989E0,0E0,1.2040138E-2,1.0584116E-1,2.421797E-1,9.4846296E-1,5.4855824E-1,5.1728773E-1,9.71056E-1,3.0212134E-2,0E0,7.150507E-2,7.377116E-2,4.3343827E-2,5.3737596E-2,4.966476E-1,5.473194E-1,3.834381E-1,3.8997605E-2,1.4668226E-2,1.2342405E-1,6.706715E-2,0E0,0E0,0E0,0E0,0E0,0E0,0E0,0E0,0E0,0E0,0E0,0E0,0E0,0E0,0E0,0E0,0E0,0E0,0E0,0E0,0E0,0E0,0E0,0E0,0E0],"parents":[2147483647,0,0,1,1,2,2,3,3,4,4,5,5,6,6,8,8,9,9,10,10,11,11,12,12,13,13,14,14,15,15,17,17,18,18,19,19,20,20,21,21,22,22,23,23,24,24,25,25,26,26,27,27],"right_children":[2,4,6,8,10,12,14,-1,16,18,20,22,24,26,28,30,-1,32,34,36,38,40,42,44,46,48,50,52,-1,-1,-1,-1,-1,-1,-1,-1,-1,-1,-1,-1,-1,-1,-1,-1,-1,-1,-1,-1,-1,-1,-1,-1,-1],"split_conditions":[4.6419367E-2,-3.788931E-1,7.288237E-1,-5.415592E-1,-7.419162E-2,5.0526977E-1,9E0,-2.8304866E-2,2.2E1,2.47E1,3.333497E-1,4.7728622E-1,1.4278077E0,7.059116E-1,9.675715E-1,-5.714286E-1,-2.3443956E-2,-1.4219232E0,-2.1225949E-1,-6.4713794E-1,1.29E2,-9.3595487E-1,9E0,1.4708827E0,1.3234422E0,-4.8E-1,1.6683056E0,-1.0543251E-1,8.0098845E-2,1.078957E-3,-1.6495299E-2,-2.1953678E-2,-1.4056334E-2,-9.6027125E-3,8.015546E-3,-1.148267E-2,-3.760098E-3,1.6096944E-2,3.3412054E-3,-4.2260866E-4,1.0624881E-2,3.2345172E-2,1.4903501E-2,2.7539736E-2,4.590869E-2,4.5947223E-3,1.5352145E-2,9.714701E-3,1.9242717E-2,3.1752642E-2,4.897169E-2,3.4383655E-2,5.220225E-2],"split_indices":[5,5,5,5,5,7,105,0,23,49,7,5,14,7,7,6,0,7,5,7,99,7,29,7,7,89,7,7,0,0,0,0,0,0,0,0,0,0,0,0,0,0,0,0,0,0,0,0,0,0,0,0,0],"split_type":[0,0,0,0,0,0,0,0,0,0,0,0,0,0,0,0,0,0,0,0,0,0,0,0,0,0,0,0,0,0,0,0,0,0,0,0,0,0,0,0,0,0,0,0,0,0,0,0,0,0,0,0,0],"sum_hessian":[1.118E3,5.76E2,5.42E2,3.73E2,2.03E2,4.26E2,1.16E2,2.38E2,1.35E2,1.56E2,4.7E1,3.11E2,1.15E2,5.6E1,6E1,7E0,1.28E2,1.48E2,8E0,3.1E1,1.6E1,1.79E2,1.32E2,1E2,1.5E1,1.8E1,3.8E1,4.3E1,1.7E1,1E0,6E0,1.6E1,1.32E2,5E0,3E0,1.4E1,1.7E1,4E0,1.2E1,6.2E1,1.17E2,2.2E1,1.1E2,8.4E1,1.6E1,9E0,6E0,6E0,1.2E1,2.5E1,1.3E1,1.2E1,3.1E1],"tree_param":{"num_deleted":"0","num_feature":"107","num_nodes":"53","size_leaf_vector":"1"}},{"base_weights":[-2.0911754E-3,-1.9243616E-1,1.9526853E-1,-2.3303525E-1,-8.961709E-2,1.2783815E-1,3.632372E-1,-2.6019743E-1,-2.0605947E-1,-1.7467652E-1,-6.632304E-2,6.2101785E-2,2.0382036E-1,2.598883E-1,4.8184875E-1,-2.6085103E-1,-6.604609E-3,-2.279882E-1,-1.8125059E-1,-8.22544E-3,-1.8425767E-1,-1.1452518E-1,-3.880953E-2,-2.734929E-2,8.014829E-2,9.64508E-2,2.55377E-1,1.7479138E-1,3.249711E-1,3.9517948E-1,6.693861E-2,-7.0232376E-3,-2.6146842E-2,-1.9350601E-2,-2.4759362E-2,-1.9963507E-2,-1.4200029E-2,-1.8972619E-2,-7.1798973E-3,-1.5460196E-2,-8.57008E-3,-5.9820116E-3,6.042647E-3,5.7167136E-3,-5.3538526E-3,9.205754E-3,-1.6751288E-3,-1.5033779E-3,1.1389139E-2,2.1286799E-2,3.2753598E-2,1.00519555E-2,1.878971E-2,2.815787E-2,4.16799E-2,2.4275787E-2,4.3102648E-2],"categories":[],"categories_nodes":[],"categories_segments":[],"categories_sizes":[],"default_left":[0,0,0,0,0,0,0,0,0,0,0,0,0,0,0,0,0,0,0,0,0,0,0,0,0,0,0,0,0,0,0,0,0,0,0,0,0,0,0,0,0,0,0,0,0,0,0,0,0,0,0,0,0,0,0,0,0],"id":9,"left_children":[1,3,5,7,9,11,13,15,17,19,21,23,25,27,29,31,-1,33,35,-1,37,39,41,43,45,47,49,51,53,55,-1,-1,-1,-1,-1,-1,-1,-1,-1,-1,-1,-1,-1,-1,-1,-1,-1,-1,-1,-1,-1,-1,-1,-1,-1,-1,-1],"loss_changes":[4.154848E1,2.3292809E0,6.1036854E0,2.4167061E-1,3.074168E-1,1.9303174E0,1.7748222E0,7.7705383E-3,7.1290016E-2,1.4951348E-2,1.653102E-1,3.4119052E-1,9.7177935E-1,4.1395712E-1,8.894882E-1,4.7016144E-3,0E0,2.3748875E-2,4.5254707E-2,0E0,4.82738E-3,3.9889157E-2,1.7667027E-1,8.274377E-2,2.0349228E-1,1.1837363E-1,3.0143452E-1,1.9074678E-2,6.991625E-2,1.7402172E-1,0E0,0E0,0E0,0E0,0E0,0E0,0E0,0E0,0E0,0E0,0E0,0E0,0E0,0E0,0E0,0E0,0E0,0E0,0E0,0E0,0E0,0E0,0E0,0E0,0E0,0E0,0E0],"parents":[2147483647,0,0,1,1,2,2,3,3,4,4,5,5,6,6,7,7,8,8,9,9,10,10,11,11,12,12,13,13,14,14,15,15,17,17,18,18,20,20,21,21,22,22,23,23,24,24,25,25,26,26,27,27,28,28,29,29],"right_children":[2,4,6,8,10,12,14,16,18,20,22,24,26,28,30,32,-1,34,36,-1,38,40,42,44,46,48,50,52,54,56,-1,-1,-1,-1,-1,-1,-1,-1,-1,-1,-1,-1,-1,-1,-1,-1,-1,-1,-1,-1,-1,-1,-1,-1,-1,-1,-1],"split_conditions":[2.7375543E-2,-3.2652253E-1,6.597897E-1,-5.9392977E-1,-9.458782E-1,9.168139E-2,9E0,2.72E1,6.14E1,-6.3E-1,-2.2257492E-1,-1.393921E0,3.1144616E-1,6.848529E-1,9.0313685E-1,2.36E1,-6.604609E-3,3.37E1,1.6543286E-1,-8.22544E-3,3.127E2,5.0526977E-1,1.085491E0,1.521737E-1,2.47E1,2E-1,8.3727133E-1,-5.555556E-1,1.6683056E0,-5.284446E-1,6.693861E-2,-7.0232376E-3,-2.6146842E-2,-1.9350601E-2,-2.4759362E-2,-1.9963507E-2,-1.4200029E-2,-1.8972619E-2,-7.1798973E-3,-1.5460196E-2,-8.57008E-3,-5.9820116E-3,6.042647E-3,5.7167136E-3,-5.3538526E-3,9.205754E-3,-1.6751288E-3,-1.5033779E-3,1.1389139E-2,2.1286799E-2,3.2753598E-2,1.00519555E-2,1.878971E-2,2.815787E-2,4.16799E-2,2.4275787E-2,4.3102648E-2],"split_indices":[5,5,5,5,7,7,105,21,37,82,5,7,5,7,7,25,0,37,7,0,15,7,7,4,60,17,7,1,7,7,0,0,0,0,0,0,0,0,0,0,0,0,0,0,0,0,0,0,0,0,0,0,0,0,0,0,0],"split_type":[0,0,0,0,0,0,0,0,0,0,0,0,0,0,0,0,0,0,0,0,0,0,0,0,0,0,0,0,0,0,0,0,0,0,0,0,0,0,0,0,0,0,0,0,0,0,0,0,0,0,0,0,0,0,0,0,0],"sum_hessian":[1.104E3,5.62E2,5.42E2,4.02E2,1.6E2,3.88E2,1.54E2,1.96E2,2.06E2,3.3E1,1.27E2,2.09E2,1.79E2,8.4E1,7E1,1.95E2,1E0,1.05E2,1.01E2,4E0,2.9E1,4.5E1,8.2E1,3.5E1,1.74E2,5.9E1,1.2E2,3.8E1,4.6E1,5E1,2E1,1E0,1.94E2,4.2E1,6.3E1,6.6E1,3.5E1,2.7E1,2E0,1.7E1,2.8E1,6.8E1,1.4E1,8E0,2.7E1,1.55E2,1.9E1,8E0,5.1E1,7.8E1,4.2E1,7E0,3.1E1,3.4E1,1.2E1,1.1E1,3.9E1],"tree_param":{"num_deleted":"0","num_feature":"107","num_nodes":"57","size_leaf_vector":"1"}},{"base_weights":[-7.8071724E-5,-1.6335481E-1,1.9572535E-1,-2.0441231E-1,-5.549294E-2,1.419026E-1,3.8427967E-1,-2.2471856E-1,-1.6405983E-1,-1.13749914E-1,-1.6110912E-2,7.043003E-2,1.9590873E-1,2.7573776E-1,4.7050753E-1,-2.4183093E-2,-2.0990199E-1,-1.8451399E-1,-1.3638029E-1,-1.4076248E-1,-8.582868E-2,-4.1986387E-2,3.0480772E-2,3.60704E-2,2.088288E-1,8.431832E-2,2.1464917E-1,1.3137425E-1,3.3071285E-1,3.9348465E-1,6.4671464E-2,-2.1163015E-2,-8.830065E-3,-6.6617443E-3,-1.880581E-2,-1.6883617E-2,-9.219627E-3,-1.4898722E-2,-8.852621E-4,-9.458597E-3,-3.6036186E-3,-8.290736E-3,-5.582603E-4,-4.1314713E-3,7.597867E-3,-9.436693E-4,7.1780267E-3,4.367776E-3,2.2939304E-2,3.4908336E-3,1.26298955E-2,1.8625118E-2,3.00733E-2,1.3997264E-2,4.745705E-3,2.6804088E-2,4.3894272E-2,2.8900445E-2,4.2689838E-2],"categories":[],"categories_nodes":[],"categories_segments":[],"categories_sizes":[],"default_left":[0,0,0,0,0,0,0,0,0,0,0,0,0,0,0,0,0,0,0,0,0,0,0,0,0,0,0,0,0,0,0,0,0,0,0,0,0,0,0,0,0,0,0,0,0,0,0,0,0,0,0,0,0,0,0,0,0,0,0],"id":10,"left_children":[1,3,5,7,9,11,13,15,17,19,21,23,25,27,29,-1,31,33,35,37,39,41,43,45,47,49,51,53,55,57,-1,-1,-1,-1,-1,-1,-1,-1,-1,-1,-1,-1,-1,-1,-1,-1,-1,-1,-1,-1,-1,-1,-1,-1,-1,-1,-1,-1,-1],"loss_changes":[3.5646713E1,2.6812096E0,5.090765E0,3.2367134E-1,3.8590026E-1,1.5147448E0,9.185066E-1,2.276802E-2,6.03261E-2,3.920585E-2,1.2424914E-1,8.103844E-1,4.524336E-1,3.6924577E-1,5.734196E-1,0E0,1.5566826E-2,2.2570133E-2,8.194816E-2,3.4483492E-2,1.2289166E-2,9.785591E-2,1.2400112E-1,2.2655962E-1,1.05451465E-1,6.611605E-2,4.1335392E-1,4.902154E-3,1.3331556E-1,3.37224E-2,0E0,0E0,0E0,0E0,0E0,0E0,0E0,0E0,0E0,0E0,0E0,0E0,0E0,0E0,0E0,0E0,0E0,0E0,0E0,0E0,0E0,0E0,0E0,0E0,0E0,0E0,0E0,0E0,0E0],"parents":[2147483647,0,0,1,1,2,2,3,3,4,4,5,5,6,6,7,7,8,8,9,9,10,10,11,11,12,12,13,13,14,14,16,16,17,17,18,18,19,19,20,20,21,21,22,22,23,23,24,24,25,25,26,26,27,27,28,28,29,29],"right_children":[2,4,6,8,10,12,14,16,18,20,22,24,26,28,30,-1,32,34,36,38,40,42,44,46,48,50,52,54,56,58,-1,-1,-1,-1,-1,-1,-1,-1,-1,-1,-1,-1,-1,-1,-1,-1,-1,-1,-1,-1,-1,-1,-1,-1,-1,-1,-1,-1,-1],"split_conditions":[1.4639954E-1,-2.6621702E-1,7.288237E-1,-4.8046026E-1,-4.2006063E-1,-1.8401314E-1,9E0,-6.415394E-1,7.326204E-1,-1.0267146E0,6.943825E-1,2.7E1,2.5748858E-1,6.848529E-1,9.950528E-1,-2.4183093E-2,2.0690001E2,-1.6936185E0,-5.859461E-2,6.595387E-1,1.4540001E2,9.7999996E-1,-2.173913E-1,-9.3595487E-1,4.7331882E-1,4.480956E-1,1.0243416E0,1.935E1,1.7593217E0,-8.399258E-2,6.4671464E-2,-2.1163015E-2,-8.830065E-3,-6.6617443E-3,-1.880581E-2,-1.6883617E-2,-9.219627E-3,-1.4898722E-2,-8.852621E-4,-9.458597E-3,-3.6036186E-3,-8.290736E-3,-5.582603E-4,-4.1314713E-3,7.597867E-3,-9.436693E-4,7.1780267E-3,4.367776E-3,2.2939304E-2,3.4908336E-3,1.26298955E-2,1.8625118E-2,3.00733E-2,1.3997264E-2,4.745705E-3,2.6804088E-2,4.3894272E-2,2.8900445E-2,4.2689838E-2],"split_indices":[5,5,5,5,7,7,105,5,14,7,7,24,5,7,7,0,19,75,7,2,17,53,4,7,5,7,7,56,7,7,0,0,0,0,0,0,0,0,0,0,0,0,0,0,0,0,0,0,0,0,0,0,0,0,0,0,0,0,0],"split_type":[0,0,0,0,0,0,0,0,0,0,0,0,0,0,0,0,0,0,0,0,0,0,0,0,0,0,0,0,0,0,0,0,0,0,0,0,0,0,0,0,0,0,0,0,0,0,0,0,0,0,0,0,0,0,0,0,0,0,0],"sum_hessian":[1.113E3,6.07E2,5.06E2,4.39E2,1.68E2,3.95E2,1.11E2,2.89E2,1.5E2,6.7E1,1.01E2,1.71E2,2.24E2,5.1E1,6E1,1.27E2,1.62E2,8.3E1,6.7E1,3.2E1,3.5E1,6.5E1,3.6E1,1.38E2,3.3E1,3.3E1,1.91E2,1.5E1,3.6E1,4.4E1,1.6E1,1.59E2,3E0,3E0,8E1,3.7E1,3E1,3E1,2E0,2.9E1,6E0,3E1,3.5E1,1.4E1,2.2E1,6.1E1,7.7E1,4E0,2.9E1,1.6E1,1.7E1,1.46E2,4.5E1,1.3E1,2E0,2.5E1,1.1E1,1.3E1,3.1E1],"tree_param":{"num_deleted":"0","num_feature":"107","num_nodes":"59","size_leaf_vector":"1"}},{"base_weights":[1.030186E-3,-1.4822453E-1,1.7284466E-1,-1.8275169E-1,-4.1026443E-2,1.2342945E-1,3.3488628E-1,-2.017315E-1,-1.450843E-1,-6.2384035E-2,5.994644E-2,4.9319763E-2,1.7273247E-1,2.3589687E-1,4.3663535E-1,-2.1467404E-1,-1.867729E-2,-2.0535043E-1,-1.3660888E-1,-9.746584E-2,-3.167244E-2,9.555756E-2,2.6987614E-3,2.3982339E-2,1.6791111E-1,1.4064687E-1,2.355295E-1,1.5940757E-1,3.0060205E-1,3.6440113E-1,6.376285E-2,-2.1616094E-2,-6.8771443E-3,-2.1224285E-2,-4.753587E-3,-1.4764704E-2,-1.0367568E-2,-5.360829E-3,-1.1520867E-2,2.225175E-3,-5.0834953E-3,1.2664151E-2,4.8643425E-3,-2.6870815E-3,3.1818543E-3,-1.4973667E-3,5.821116E-3,1.8328011E-2,-2.1257347E-3,1.5649503E-2,4.8807017E-3,2.5318066E-2,8.841837E-3,1.044276E-2,1.8863559E-2,2.524288E-2,3.861577E-2,2.6270453E-2,3.8957637E-2],"categories":[],"categories_nodes":[],"categories_segments":[],"categories_sizes":[],"default_left":[0,0,0,0,0,0,0,0,0,0,0,0,0,0,0,0,0,0,0,0,0,0,0,0,0,0,0,0,0,0,0,0,0,0,0,0,0,0,0,0,0,0,0,0,0,0,0,0,0,0,0,0,0,0,0,0,0,0,0],"id":11,"left_children":[1,3,5,7,9,11,13,15,17,19,21,23,25,27,29,31,-1,33,35,37,39,41,43,45,47,49,51,53,55,57,-1,-1,-1,-1,-1,-1,-1,-1,-1,-1,-1,-1,-1,-1,-1,-1,-1,-1,-1,-1,-1,-1,-1,-1,-1,-1,-1,-1,-1],"loss_changes":[2.8464949E1,2.191043E0,4.0904417E0,2.9172993E-1,3.1859422E-1,1.4420519E0,1.105649E0,1.7211914E-2,5.0607443E-2,1.2728062E-1,5.2747123E-2,4.7674096E-1,4.4641542E-1,2.6388478E-1,6.09725E-1,1.8108845E-2,0E0,8.402169E-3,3.4858465E-2,3.7400663E-2,6.933048E-2,1.7172173E-2,1.0326646E-2,1.7821622E-1,8.530134E-2,2.252407E-1,1.8275213E-1,3.0116796E-2,3.853178E-2,1.2866974E-2,0E0,0E0,0E0,0E0,0E0,0E0,0E0,0E0,0E0,0E0,0E0,0E0,0E0,0E0,0E0,0E0,0E0,0E0,0E0,0E0,0E0,0E0,0E0,0E0,0E0,0E0,0E0,0E0,0E0],"parents":[2147483647,0,0,1,1,2,2,3,3,4,4,5,5,6,6,7,7,8,8,9,9,10,10,11,11,12,12,13,13,14,14,15,15,17,17,18,18,19,19,20,20,21,21,22,22,23,23,24,24,25,25,26,26,27,27,28,28,29,29],"right_children":[2,4,6,8,10,12,14,16,18,20,22,24,26,28,30,32,-1,34,36,38,40,42,44,46,48,50,52,54,56,58,-1,-1,-1,-1,-1,-1,-1,-1,-1,-1,-1,-1,-1,-1,-1,-1,-1,-1,-1,-1,-1,-1,-1,-1,-1,-1,-1,-1,-1],"split_conditions":[1.3846458E-1,-2.487602E-1,7.288237E-1,-4.7411227E-1,8.67703E-1,-3.624953E-1,9E0,-6.201151E-1,1.7300001E1,-4.2006063E-1,2.3800001E1,1.17E2,7.6153415E-1,1.0447167E0,1.1520358E0,3E1,-1.867729E-2,-3.2652253E-1,8.086216E-1,3.16E1,2.71E1,1.3900001E1,2.91E1,-9.3595487E-1,4.0121582E-1,2.2800001E1,1.35E2,3.1700602E-1,1.8033068E0,-1.0543251E-1,6.376285E-2,-2.1616094E-2,-6.8771443E-3,-2.1224285E-2,-4.753587E-3,-1.4764704E-2,-1.0367568E-2,-5.360829E-3,-1.1520867E-2,2.225175E-3,-5.0834953E-3,1.2664151E-2,4.8643425E-3,-2.6870815E-3,3.1818543E-3,-1.4973667E-3,5.821116E-3,1.8328011E-2,-2.1257347E-3,1.5649503E-2,4.8807017E-3,2.5318066E-2,8.841837E-3,1.044276E-2,1.8863559E-2,2.524288E-2,3.861577E-2,2.6270453E-2,3.8957637E-2],"split_indices":[5,5,5,5,7,7,105,5,50,7,23,102,7,7,7,61,0,5,7,44,25,29,26,7,6,48,104,7,7,7,0,0,0,0,0,0,0,0,0,0,0,0,0,0,0,0,0,0,0,0,0,0,0,0,0,0,0,0,0],"split_type":[0,0,0,0,0,0,0,0,0,0,0,0,0,0,0,0,0,0,0,0,0,0,0,0,0,0,0,0,0,0,0,0,0,0,0,0,0,0,0,0,0,0,0,0,0,0,0,0,0,0,0,0,0,0,0,0,0,0,0],"sum_hessian":[1.108E3,5.93E2,5.15E2,4.48E2,1.45E2,3.96E2,1.19E2,2.95E2,1.53E2,1.2E2,2.5E1,1.59E2,2.37E2,6.2E1,5.7E1,1.51E2,1.44E2,1.6E1,1.37E2,5.5E1,6.5E1,1.5E1,1E1,1.32E2,2.7E1,1.59E2,7.8E1,3E1,3.2E1,4.4E1,1.3E1,1.49E2,2E0,1.5E1,1E0,1E2,3.7E1,1.7E1,3.8E1,1.7E1,4.8E1,8E0,7E0,5E0,5E0,6.2E1,7E1,2.5E1,2E0,1.35E2,2.4E1,6.9E1,9E0,1.2E1,1.8E1,2.3E1,9E0,1.1E1,3.3E1],"tree_param":{"num_deleted":"0","num_feature":"107","num_nodes":"59","size_leaf_vector":"1"}},{"base_weights":[4.1149417E-3,-1.3236357E-1,1.6196801E-1,-1.6631621E-1,-4.0733404E-2,9.8244935E-2,2.675572E-1,-1.448294E-1,-1.9286804E-1,-8.249091E-2,-4.794229E-4,4.3207917E-2,1.6504893E-1,1.972584E-1,3.718131E-1,-1.7259589E-1,-1.23125084E-1,-7.865428E-3,-1.9365631E-1,-1.05490774E-1,-4.469454E-2,-5.6646746E-2,2.1627055E-2,-3.246824E-2,5.570384E-2,1.3705039E-1,2.4382703E-1,1.5045753E-1,2.8475863E-1,3.2619962E-1,6.448034E-2,-1.7524464E-2,-6.1903717E-3,-1.4015776E-2,-8.104694E-3,-1.9408025E-2,-5.6766286E-3,-1.2980143E-2,-7.47588E-3,-6.953762E-3,-1.5505363E-3,-6.596745E-3,7.886472E-3,-6.804452E-4,6.016195E-3,-5.2844696E-3,6.368182E-3,2.0323308E-2,4.8349733E-3,9.19958E-3,1.773293E-2,2.7002389E-2,1.15110455E-2,1.1594965E-2,1.7961241E-2,2.3727387E-2,3.65129E-2,1.3563909E-2,3.4934703E-2],"categories":[],"categories_nodes":[],"categories_segments":[],"categories_sizes":[],"default_left":[0,0,0,0,0,0,0,0,0,0,0,0,0,0,0,0,0,0,0,0,0,0,0,0,0,0,0,0,0,0,0,0,0,0,0,0,0,0,0,0,0,0,0,0,0,0,0,0,0,0,0,0,0,0,0,0,0,0,0],"id":12,"left_children":[1,3,5,7,9,11,13,15,17,19,21,23,25,27,29,31,33,-1,35,37,39,41,43,45,47,49,51,53,55,57,-1,-1,-1,-1,-1,-1,-1,-1,-1,-1,-1,-1,-1,-1,-1,-1,-1,-1,-1,-1,-1,-1,-1,-1,-1,-1,-1,-1,-1],"loss_changes":[2.4020954E1,1.8536558E0,3.4523306E0,2.2081089E-1,2.7394813E-1,1.1841171E0,1.3484955E0,1.2639856E-1,2.0542145E-3,6.4830065E-2,1.055247E-1,1.7107877E-1,2.8861094E-1,4.4037628E-1,7.4847317E-1,1.9937277E-2,8.969569E-2,0E0,9.059906E-6,2.6904762E-2,2.2126563E-2,3.5516E-2,6.724128E-2,5.430438E-2,1.5725556E-1,1.8330884E-1,9.368038E-2,5.8653712E-2,6.60193E-2,2.5256157E-1,0E0,0E0,0E0,0E0,0E0,0E0,0E0,0E0,0E0,0E0,0E0,0E0,0E0,0E0,0E0,0E0,0E0,0E0,0E0,0E0,0E0,0E0,0E0,0E0,0E0,0E0,0E0,0E0,0E0],"parents":[2147483647,0,0,1,1,2,2,3,3,4,4,5,5,6,6,7,7,8,8,9,9,10,10,11,11,12,12,13,13,14,14,15,15,16,16,18,18,19,19,20,20,21,21,22,22,23,23,24,24,25,25,26,26,27,27,28,28,29,29],"right_children":[2,4,6,8,10,12,14,16,18,20,22,24,26,28,30,32,34,-1,36,38,40,42,44,46,48,50,52,54,56,58,-1,-1,-1,-1,-1,-1,-1,-1,-1,-1,-1,-1,-1,-1,-1,-1,-1,-1,-1,-1,-1,-1,-1,-1,-1,-1,-1,-1,-1],"split_conditions":[1.4639954E-1,-2.6621702E-1,6.105931E-1,1.3020001E2,-1.1590245E-1,-2.2063695E-2,1.32E2,-3.5476303E-1,2.47E1,1.264E2,-1.9718312E-1,-1.4541678E0,1.0243416E0,1.2002274E0,1.3016163E0,3.3E1,4.9523863E-1,-7.865428E-3,1.59E0,-7.6572907E-1,-8.30774E-1,1.064E2,7.059116E-1,2.6030002E2,2.6E1,1.333E2,4.99E1,3.458235E-1,1.8033068E0,-7.090113E-1,6.448034E-2,-1.7524464E-2,-6.1903717E-3,-1.4015776E-2,-8.104694E-3,-1.9408025E-2,-5.6766286E-3,-1.2980143E-2,-7.47588E-3,-6.953762E-3,-1.5505363E-3,-6.596745E-3,7.886472E-3,-6.804452E-4,6.016195E-3,-5.2844696E-3,6.368182E-3,2.0323308E-2,4.8349733E-3,9.19958E-3,1.773293E-2,2.7002389E-2,1.15110455E-2,1.1594965E-2,1.7961241E-2,2.3727387E-2,3.65129E-2,1.3563909E-2,3.4934703E-2],"split_indices":[5,5,5,103,7,7,102,7,23,16,5,7,7,7,7,40,3,0,82,7,7,100,7,20,37,100,36,7,7,7,0,0,0,0,0,0,0,0,0,0,0,0,0,0,0,0,0,0,0,0,0,0,0,0,0,0,0,0,0],"split_type":[0,0,0,0,0,0,0,0,0,0,0,0,0,0,0,0,0,0,0,0,0,0,0,0,0,0,0,0,0,0,0,0,0,0,0,0,0,0,0,0,0,0,0,0,0,0,0,0,0,0,0,0,0,0,0,0,0,0,0],"sum_hessian":[1.113E3,5.97E2,5.16E2,4.35E2,1.62E2,3.23E2,1.93E2,2.44E2,1.91E2,7.9E1,8.3E1,1.78E2,1.45E2,1.17E2,7.6E1,1.04E2,1.4E2,2E0,1.89E2,4.8E1,3.1E1,2.3E1,6E1,2.5E1,1.53E2,1.09E2,3.6E1,7.8E1,3.9E1,6.7E1,9E0,1.01E2,3E0,9.8E1,4.2E1,1.88E2,1E0,2.5E1,2.3E1,1.6E1,1.5E1,2.2E1,1E0,3.5E1,2.5E1,2.1E1,4E0,6E0,1.47E2,5.3E1,5.6E1,2.9E1,7E0,3.8E1,4E1,2.7E1,1.2E1,8E0,5.9E1],"tree_param":{"num_deleted":"0","num_feature":"107","num_nodes":"59","size_leaf_vector":"1"}},{"base_weights":[6.237059E-4,-1.2036663E-1,1.2467043E-1,-1.5780127E-1,-5.817021E-2,6.718205E-2,2.408508E-1,-1.3849594E-1,-1.7392236E-1,-8.514556E-2,4.2785887E-2,3.4129166E-3,1.014241E-1,2.0135564E-1,3.6104336E-1,-1.5571158E-1,-1.1073385E-1,-4.321772E-3,-1.7438771E-2,-1.470143E-1,-7.083788E-2,-4.541766E-2,8.279424E-2,8.32232E-2,-1.8107284E-2,1.22167304E-1,-1.3149118E-2,1.8350527E-1,3.4890156E-2,1.8142872E-1,4.227292E-1,-1.5658297E-2,-3.472197E-3,-5.5765547E-3,-1.17242E-2,-5.9900186E-3,-1.5095665E-2,-9.733685E-3,-3.8764644E-3,-7.4690916E-3,2.8067036E-3,1.38521E-2,4.243213E-3,-2.4563994E-3,1.1373625E-2,8.3698214E-5,-7.8004645E-3,9.474369E-3,2.3292115E-2,-8.1890235E-3,7.911521E-4,1.953063E-2,6.4995633E-3,2.1178525E-2,6.01802E-3,1.8340005E-2,4.411633E-2],"categories":[],"categories_nodes":[],"categories_segments":[],"categories_sizes":[],"default_left":[0,0,0,0,0,0,0,0,0,0,0,0,0,0,0,0,0,0,0,0,0,0,0,0,0,0,0,0,0,0,0,0,0,0,0,0,0,0,0,0,0,0,0,0,0,0,0,0,0,0,0,0,0,0,0,0,0],"id":13,"left_children":[1,3,5,7,9,11,13,15,17,19,21,23,25,27,29,31,33,-1,-1,35,37,39,41,43,45,47,49,51,-1,53,55,-1,-1,-1,-1,-1,-1,-1,-1,-1,-1,-1,-1,-1,-1,-1,-1,-1,-1,-1,-1,-1,-1,-1,-1,-1,-1],"loss_changes":[1.6839483E1,1.3132954E0,3.6839972E0,8.608627E-2,5.8915824E-1,8.119477E-1,7.9600716E-1,6.2095642E-2,3.958702E-3,1.400696E-1,1.6608873E-1,2.265038E-1,5.767474E-1,3.0469942E-1,4.1081047E-1,5.1059723E-3,1.7430604E-2,0E0,0E0,1.6041398E-3,1.1521381E-1,3.436339E-2,6.609824E-2,9.488347E-2,1.180753E-1,6.005728E-1,5.5661686E-2,1.6492033E-1,0E0,3.510362E-2,6.0268402E-2,0E0,0E0,0E0,0E0,0E0,0E0,0E0,0E0,0E0,0E0,0E0,0E0,0E0,0E0,0E0,0E0,0E0,0E0,0E0,0E0,0E0,0E0,0E0,0E0,0E0,0E0],"parents":[2147483647,0,0,1,1,2,2,3,3,4,4,5,5,6,6,7,7,8,8,9,9,10,10,11,11,12,12,13,13,14,14,15,15,16,16,19,19,20,20,21,21,22,22,23,23,24,24,25,25,26,26,27,27,29,29,30,30],"right_children":[2,4,6,8,10,12,14,16,18,20,22,24,26,28,30,32,34,-1,-1,36,38,40,42,44,46,48,50,52,-1,54,56,-1,-1,-1,-1,-1,-1,-1,-1,-1,-1,-1,-1,-1,-1,-1,-1,-1,-1,-1,-1,-1,-1,-1,-1,-1,-1],"split_conditions":[5.38E1,-5.4347825E-1,4.5318756E-1,1.29E2,8.86823E-1,-7.3673517E-1,1.364E2,2.9442826E-1,2.9999998E-1,-1.0267146E0,-2.173913E-1,-3.315507E-1,2.52E1,1.9003941E0,2.65E1,2.614E2,1.61E1,-4.321772E-3,-1.7438771E-2,-1.0204082E0,-2.18845E-1,4E-1,1.7486634E0,2.6800001E1,2.34E1,1.32E2,3.17E1,2.3E1,3.4890156E-2,1.488E2,7.5E1,-1.5658297E-2,-3.472197E-3,-5.5765547E-3,-1.17242E-2,-5.9900186E-3,-1.5095665E-2,-9.733685E-3,-3.8764644E-3,-7.4690916E-3,2.8067036E-3,1.38521E-2,4.243213E-3,-2.4563994E-3,1.1373625E-2,8.3698214E-5,-7.8004645E-3,9.474369E-3,2.3292115E-2,-8.1890235E-3,7.911521E-4,1.953063E-2,6.4995633E-3,2.1178525E-2,6.01802E-3,1.8340005E-2,4.411633E-2],"split_indices":[38,4,7,103,7,7,102,7,53,7,4,14,60,7,62,18,58,0,0,13,6,1,14,24,60,102,41,60,0,102,33,0,0,0,0,0,0,0,0,0,0,0,0,0,0,0,0,0,0,0,0,0,0,0,0,0,0],"split_type":[0,0,0,0,0,0,0,0,0,0,0,0,0,0,0,0,0,0,0,0,0,0,0,0,0,0,0,0,0,0,0,0,0,0,0,0,0,0,0,0,0,0,0,0,0,0,0,0,0,0,0,0,0,0,0,0,0],"sum_hessian":[1.12E3,5.67E2,5.53E2,3.53E2,2.14E2,3.71E2,1.82E2,1.65E2,1.88E2,1.69E2,4.5E1,1.3E2,2.41E2,1.39E2,4.3E1,9.9E1,6.6E1,1E0,1.87E2,3E1,1.39E2,1.4E1,3.1E1,2.7E1,1.03E2,2.04E2,3.7E1,1.26E2,1.3E1,1.2E1,3.1E1,9.8E1,1E0,8E0,5.8E1,2E0,2.8E1,7.5E1,6.4E1,1E1,4E0,1.2E1,1.9E1,6E0,2.1E1,7.9E1,2.4E1,1.65E2,3.9E1,8E0,2.9E1,1.14E2,1.2E1,9E0,3E0,3E0,2.8E1],"tree_param":{"num_deleted":"0","num_feature":"107","num_nodes":"57","size_leaf_vector":"1"}},{"base_weights":[2.7091652E-3,-1.1367425E-1,1.2896909E-1,-1.3706833E-1,-4.270264E-2,8.4183924E-2,2.2581238E-1,-1.08753406E-1,-1.4916438E-1,-6.619909E-2,2.7946613E-3,4.5585945E-2,1.408518E-1,1.6599923E-1,3.0632487E-1,-1.2559058E-1,-7.527284E-2,9.704381E-4,-1.4972816E-1,-1.00586645E-1,-4.7135778E-2,-3.3081632E-2,4.6348643E-2,-3.026992E-2,5.6467507E-2,8.107584E-2,1.656E-1,1.2830909E-1,2.709221E-1,2.2261775E-1,3.987703E-1,-3.292836E-3,-1.2738347E-2,-2.3892715E-3,-8.851361E-3,-1.3348763E-2,-1.5663682E-2,-5.0723366E-3,-1.1206049E-2,-5.2920175E-3,5.1414133E-3,8.212924E-4,-5.307447E-3,1.0015288E-2,4.6064262E-4,5.161231E-3,-4.216028E-3,1.4967906E-2,4.8249196E-3,-2.2883092E-3,1.0082836E-2,1.4613012E-2,2.7008131E-2,6.948784E-3,1.4208588E-2,1.1453137E-2,2.8704211E-2,6.9505335E-3,2.3344642E-2,3.3626452E-2,5.4425456E-2],"categories":[],"categories_nodes":[],"categories_segments":[],"categories_sizes":[],"default_left":[0,0,0,0,0,0,0,0,0,0,0,0,0,0,0,0,0,0,0,0,0,0,0,0,0,0,0,0,0,0,0,0,0,0,0,0,0,0,0,0,0,0,0,0,0,0,0,0,0,0,0,0,0,0,0,0,0,0,0,0,0],"id":14,"left_children":[1,3,5,7,9,11,13,15,17,19,21,23,25,27,29,31,33,-1,35,37,39,41,43,45,47,49,51,53,55,57,59,-1,-1,-1,-1,-1,-1,-1,-1,-1,-1,-1,-1,-1,-1,-1,-1,-1,-1,-1,-1,-1,-1,-1,-1,-1,-1,-1,-1,-1,-1],"loss_changes":[1.6237457E1,9.488282E-1,2.2796755E0,1.3173676E-1,1.5412459E-1,7.8974366E-1,7.533722E-1,6.5521E-2,2.832365E-2,5.753514E-2,7.9661064E-2,1.8165311E-1,2.0403767E-1,3.5278463E-1,4.5291042E-1,1.0259151E-2,2.985984E-2,0E0,1.2639046E-2,1.3195962E-2,3.8634107E-2,2.3552561E-2,5.1194534E-2,2.9437046E-2,1.3909197E-1,9.4712526E-2,1.7005968E-1,5.009401E-2,3.0150414E-2,4.8436403E-2,1.0798168E-1,0E0,0E0,0E0,0E0,0E0,0E0,0E0,0E0,0E0,0E0,0E0,0E0,0E0,0E0,0E0,0E0,0E0,0E0,0E0,0E0,0E0,0E0,0E0,0E0,0E0,0E0,0E0,0E0,0E0,0E0],"parents":[2147483647,0,0,1,1,2,2,3,3,4,4,5,5,6,6,7,7,8,8,9,9,10,10,11,11,12,12,13,13,14,14,15,15,16,16,18,18,19,19,20,20,21,21,22,22,23,23,24,24,25,25,26,26,27,27,28,28,29,29,30,30],"right_children":[2,4,6,8,10,12,14,16,18,20,22,24,26,28,30,32,34,-1,36,38,40,42,44,46,48,50,52,54,56,58,60,-1,-1,-1,-1,-1,-1,-1,-1,-1,-1,-1,-1,-1,-1,-1,-1,-1,-1,-1,-1,-1,-1,-1,-1,-1,-1,-1,-1,-1,-1],"split_conditions":[7.181113E-2,-2.7811944E-1,6.597897E-1,2.55E1,4.3214208E-1,2.5403243E-1,9E0,1.1505363E-1,-2.5848846E0,-9.458782E-1,-1.7099784E-1,-1.4541678E0,3.5746878E-1,1.4415796E0,4.700343E-1,-2.476E0,7.81E1,9.704381E-4,1.189E2,1E0,2.35E1,-5.3E-1,6.4E-2,4E-1,1.023E2,2.45E0,1.4415796E0,-8.399258E-2,-1.264E0,-1.1889111E0,1.3760014E0,-3.292836E-3,-1.2738347E-2,-2.3892715E-3,-8.851361E-3,-1.3348763E-2,-1.5663682E-2,-5.0723366E-3,-1.1206049E-2,-5.2920175E-3,5.1414133E-3,8.212924E-4,-5.307447E-3,1.0015288E-2,4.6064262E-4,5.161231E-3,-4.216028E-3,1.4967906E-2,4.8249196E-3,-2.2883092E-3,1.0082836E-2,1.4613012E-2,2.7008131E-2,6.948784E-3,1.4208588E-2,1.1453137E-2,2.8704211E-2,6.9505335E-3,2.3344642E-2,3.3626452E-2,5.4425456E-2],"split_indices":[5,5,5,23,7,7,105,7,79,7,5,7,5,7,7,67,36,0,103,19,45,88,66,19,101,52,7,7,63,7,7,0,0,0,0,0,0,0,0,0,0,0,0,0,0,0,0,0,0,0,0,0,0,0,0,0,0,0,0,0,0],"split_type":[0,0,0,0,0,0,0,0,0,0,0,0,0,0,0,0,0,0,0,0,0,0,0,0,0,0,0,0,0,0,0,0,0,0,0,0,0,0,0,0,0,0,0,0,0,0,0,0,0,0,0,0,0,0,0,0,0,0,0,0,0],"sum_hessian":[1.103E3,5.74E2,5.29E2,4.31E2,1.43E2,3.63E2,1.66E2,1.32E2,2.99E2,9.4E1,4.9E1,2.17E2,1.46E2,9.7E1,6.9E1,8.6E1,4.6E1,1E0,2.98E2,3.2E1,6.2E1,2.7E1,2.2E1,2.7E1,1.9E2,4.4E1,1.02E2,7.3E1,2.4E1,3.8E1,3.1E1,2E0,8.4E1,1E1,3.6E1,9.5E1,2.03E2,7E0,2.5E1,5.9E1,3E0,9E0,1.8E1,9E0,1.3E1,3E0,2.4E1,1.4E1,1.76E2,7E0,3.7E1,8.8E1,1.4E1,1.5E1,5.8E1,3E0,2.1E1,3E0,3.5E1,2.4E1,7E0],"tree_param":{"num_deleted":"0","num_feature":"107","num_nodes":"61","size_leaf_vector":"1"}},{"base_weights":[1.1569832E-3,-9.764705E-2,1.03378356E-1,-1.2581256E-1,-4.939635E-2,6.0686782E-2,1.9128448E-1,-1.1007729E-1,-1.4145881E-1,-8.197682E-2,7.208516E-3,2.1505381E-3,9.006469E-2,1.6458142E-1,3.1346095E-1,-1.1863299E-1,-6.429993E-2,-1.418485E-2,-3.6631152E-3,-1.187993E-1,-6.202389E-2,5.9817E-2,-2.3448577E-2,7.7587225E-2,-1.7484505E-2,6.92484E-2,1.9001926E-1,1.7797501E-1,1.0773405E-2,4.8246747E-1,2.536007E-1,-1.2103105E-2,-5.1326132E-3,-1.108261E-2,-4.870061E-3,-3.0419643E-3,-1.221252E-2,-3.5877153E-3,-8.9160465E-3,3.2973414E-5,8.656979E-3,-3.7317497E-3,6.707729E-3,1.114484E-3,1.2556865E-2,-3.723922E-5,-5.740036E-3,8.391932E-3,-2.3620183E-4,2.1096986E-2,8.975938E-3,2.3184402E-2,1.4910601E-2,-4.5729685E-3,4.0966966E-3,5.1761385E-2,1.357947E-2,1.0708488E-2,2.616853E-2],"categories":[],"categories_nodes":[],"categories_segments":[],"categories_sizes":[],"default_left":[0,0,0,0,0,0,0,0,0,0,0,0,0,0,0,0,0,0,0,0,0,0,0,0,0,0,0,0,0,0,0,0,0,0,0,0,0,0,0,0,0,0,0,0,0,0,0,0,0,0,0,0,0,0,0,0,0,0,0],"id":15,"left_children":[1,3,5,7,9,11,13,15,17,19,21,23,25,27,29,31,33,-1,-1,35,37,39,41,43,45,47,49,51,53,55,57,-1,-1,-1,-1,-1,-1,-1,-1,-1,-1,-1,-1,-1,-1,-1,-1,-1,-1,-1,-1,-1,-1,-1,-1,-1,-1,-1,-1],"loss_changes":[1.1281566E1,7.6570034E-1,2.0487065E0,7.256746E-2,3.8971996E-1,6.3780487E-1,5.3239536E-1,6.404495E-2,1.9936562E-3,9.108353E-2,1.2720284E-1,1.8650688E-1,5.0077057E-1,3.0502844E-1,1.9126606E-1,1.8482924E-2,1.7101794E-2,0E0,0E0,9.806395E-3,5.9949547E-2,4.6123512E-2,6.527796E-2,8.148858E-2,6.828308E-2,2.1661985E-1,6.928468E-2,1.784854E-1,2.4051787E-2,1.5000701E-2,1.5907288E-3,0E0,0E0,0E0,0E0,0E0,0E0,0E0,0E0,0E0,0E0,0E0,0E0,0E0,0E0,0E0,0E0,0E0,0E0,0E0,0E0,0E0,0E0,0E0,0E0,0E0,0E0,0E0,0E0],"parents":[2147483647,0,0,1,1,2,2,3,3,4,4,5,5,6,6,7,7,8,8,9,9,10,10,11,11,12,12,13,13,14,14,15,15,16,16,19,19,20,20,21,21,22,22,23,23,24,24,25,25,26,26,27,27,28,28,29,29,30,30],"right_children":[2,4,6,8,10,12,14,16,18,20,22,24,26,28,30,32,34,-1,-1,36,38,40,42,44,46,48,50,52,54,56,58,-1,-1,-1,-1,-1,-1,-1,-1,-1,-1,-1,-1,-1,-1,-1,-1,-1,-1,-1,-1,-1,-1,-1,-1,-1,-1,-1,-1],"split_conditions":[3.3764772E-2,-4.7826108E-1,4.7774997E-1,1.3020001E2,2.9824495E-1,-7.51158E-1,1.6183574E0,1.085491E0,2.6030002E2,-1.0267146E0,2.74E1,-3.315507E-1,2.2040001E2,5.83E1,5E-1,3.48E1,-4.9732614E-1,-1.418485E-2,-3.6631152E-3,-8.29E-1,2.7300001E1,1.9499999E0,1.9003941E0,4.0600002E1,3.87E1,2.4300001E1,9.6100006E1,9.6E1,-8.4E-1,6.0376704E-1,9.0000004E-1,-1.2103105E-2,-5.1326132E-3,-1.108261E-2,-4.870061E-3,-3.0419643E-3,-1.221252E-2,-3.5877153E-3,-8.9160465E-3,3.2973414E-5,8.656979E-3,-3.7317497E-3,6.707729E-3,1.114484E-3,1.2556865E-2,-3.723922E-5,-5.740036E-3,8.391932E-3,-2.3620183E-4,2.1096986E-2,8.975938E-3,2.3184402E-2,1.4910601E-2,-4.5729685E-3,4.0966966E-3,5.1761385E-2,1.357947E-2,1.0708488E-2,2.616853E-2],"split_indices":[2,4,7,103,7,7,7,7,18,7,60,14,20,36,19,44,14,0,0,74,60,52,7,18,36,60,104,104,92,8,19,0,0,0,0,0,0,0,0,0,0,0,0,0,0,0,0,0,0,0,0,0,0,0,0,0,0,0,0],"split_type":[0,0,0,0,0,0,0,0,0,0,0,0,0,0,0,0,0,0,0,0,0,0,0,0,0,0,0,0,0,0,0,0,0,0,0,0,0,0,0,0,0,0,0,0,0,0,0,0,0,0,0,0,0,0,0,0,0,0,0],"sum_hessian":[1.115E3,5.67E2,5.48E2,3.57E2,2.1E2,3.7E2,1.78E2,1.82E2,1.75E2,1.33E2,7.7E1,1.24E2,2.46E2,1.48E2,3E1,1.52E2,3E1,1.74E2,1E0,4.5E1,8.8E1,2.8E1,4.9E1,2.5E1,9.9E1,2.05E2,4.1E1,1.36E2,1.2E1,6E0,2.4E1,1.46E2,6E0,6E0,2.4E1,2E0,4.3E1,4.6E1,4.2E1,9E0,1.9E1,4.3E1,6E0,1.1E1,1.4E1,7E1,2.9E1,1.7E2,3.5E1,3.3E1,8E0,4.5E1,9.1E1,4E0,8E0,5E0,1E0,2E0,2.2E1],"tree_param":{"num_deleted":"0","num_feature":"107","num_nodes":"59","size_leaf_vector":"1"}},{"base_weights":[-2.6433745E-3,-8.9236155E-2,1.0096395E-1,-1.13932185E-1,-4.2476762E-2,6.089646E-2,1.8517496E-1,-9.191398E-2,-1.23822E-1,-6.2486887E-2,-4.8569776E-3,7.937094E-2,3.321182E-2,1.2773483E-1,2.501024E-1,-5.5995416E-2,-9.7381935E-2,-6.520138E-2,-1.2513934E-1,-5.204817E-2,-7.854925E-2,-4.9175937E-2,1.0266543E-2,5.8192376E-2,1.1455308E-1,1.4521718E-2,7.0682645E-2,8.510229E-2,1.4424036E-1,2.2233747E-1,4.290076E-2,-7.1494826E-3,2.0001086E-3,-9.883276E-3,-1.3658897E-3,-8.349431E-3,-2.6034878E-3,-1.2538674E-2,-3.0284317E-3,-3.4767657E-3,-6.6318884E-3,-3.733049E-4,-8.146725E-3,-8.2999823E-4,-8.51343E-3,3.0947986E-4,1.3593577E-2,4.9971514E-3,1.3486654E-2,1.2163523E-2,2.736694E-3,2.620885E-3,-2.491839E-3,5.698768E-3,2.4798121E-2,2.5643387E-3,1.0086943E-2,1.2231293E-2,1.9104559E-2,2.2729456E-2,4.08213E-3],"categories":[],"categories_nodes":[],"categories_segments":[],"categories_sizes":[],"default_left":[0,0,0,0,0,0,0,0,0,0,0,0,0,0,0,0,0,0,0,0,0,0,0,0,0,0,0,0,0,0,0,0,0,0,0,0,0,0,0,0,0,0,0,0,0,0,0,0,0,0,0,0,0,0,0,0,0,0,0,0,0],"id":16,"left_children":[1,3,5,7,9,11,13,15,17,19,21,23,25,27,29,31,33,35,37,39,41,43,45,47,49,51,53,55,57,59,-1,-1,-1,-1,-1,-1,-1,-1,-1,-1,-1,-1,-1,-1,-1,-1,-1,-1,-1,-1,-1,-1,-1,-1,-1,-1,-1,-1,-1,-1,-1],"loss_changes":[9.931651E0,6.914878E-1,1.6892815E0,7.441521E-2,1.577796E-1,1.7279434E-1,5.722232E-1,1.9293547E-2,1.2613773E-2,1.8882513E-2,5.010401E-2,1.4608097E-1,9.6319914E-2,4.9648046E-2,2.7716208E-1,2.3810096E-2,1.17685795E-2,3.557995E-3,2.351284E-3,1.8902302E-2,1.1048138E-2,2.72202E-2,5.0050292E-2,7.520312E-2,4.3598652E-2,4.398161E-2,9.756063E-2,2.2725776E-2,4.0264368E-2,5.1007748E-2,0E0,0E0,0E0,0E0,0E0,0E0,0E0,0E0,0E0,0E0,0E0,0E0,0E0,0E0,0E0,0E0,0E0,0E0,0E0,0E0,0E0,0E0,0E0,0E0,0E0,0E0,0E0,0E0,0E0,0E0,0E0],"parents":[2147483647,0,0,1,1,2,2,3,3,4,4,5,5,6,6,7,7,8,8,9,9,10,10,11,11,12,12,13,13,14,14,15,15,16,16,17,17,18,18,19,19,20,20,21,21,22,22,23,23,24,24,25,25,26,26,27,27,28,28,29,29],"right_children":[2,4,6,8,10,12,14,16,18,20,22,24,26,28,30,32,34,36,38,40,42,44,46,48,50,52,54,56,58,60,-1,-1,-1,-1,-1,-1,-1,-1,-1,-1,-1,-1,-1,-1,-1,-1,-1,-1,-1,-1,-1,-1,-1,-1,-1,-1,-1,-1,-1,-1,-1],"split_conditions":[1.4639954E-1,-3.3921844E-1,6.597897E-1,2.1E1,-6.070227E-2,7.81E1,9E0,-1.0176241E0,-6.95E-1,-4.8E-2,-8.014515E-1,4.6459034E-1,5.550486E-1,1.255E2,1.0279706E0,-1.0642973E0,1.224E2,-2.37E-1,1.59E0,5.05E1,-8.2653064E-1,2.3E1,1.57E1,8.15E1,1.47E1,8.6E0,1.33E1,-2.6E-1,8.400001E0,1.092E2,4.290076E-2,-7.1494826E-3,2.0001086E-3,-9.883276E-3,-1.3658897E-3,-8.349431E-3,-2.6034878E-3,-1.2538674E-2,-3.0284317E-3,-3.4767657E-3,-6.6318884E-3,-3.733049E-4,-8.146725E-3,-8.2999823E-4,-8.51343E-3,3.0947986E-4,1.3593577E-2,4.9971514E-3,1.3486654E-2,1.2163523E-2,2.736694E-3,2.620885E-3,-2.491839E-3,5.698768E-3,2.4798121E-2,2.5643387E-3,1.0086943E-2,1.2231293E-2,1.9104559E-2,2.2729456E-2,4.08213E-3],"split_indices":[5,5,5,47,5,33,105,80,74,74,8,5,5,15,5,80,20,69,82,20,13,45,31,35,30,27,31,72,32,100,0,0,0,0,0,0,0,0,0,0,0,0,0,0,0,0,0,0,0,0,0,0,0,0,0,0,0,0,0,0,0],"split_type":[0,0,0,0,0,0,0,0,0,0,0,0,0,0,0,0,0,0,0,0,0,0,0,0,0,0,0,0,0,0,0,0,0,0,0,0,0,0,0,0,0,0,0,0,0,0,0,0,0,0,0,0,0,0,0,0,0,0,0,0,0],"sum_hessian":[1.105E3,6.02E2,5.03E2,3.93E2,2.09E2,3.42E2,1.61E2,1.25E2,2.68E2,1.36E2,7.3E1,2.04E2,1.38E2,8.7E1,7.4E1,1.8E1,1.07E2,7E0,2.61E2,8.5E1,5.1E1,1.8E1,5.5E1,1.29E2,7.5E1,9.3E1,4.5E1,2.6E1,6.1E1,6.6E1,8E0,1.5E1,3E0,1.05E2,2E0,4E0,3E0,2.6E2,1E0,4E1,4.5E1,2E0,4.9E1,9E0,9E0,5.3E1,2E0,1.18E2,1.1E1,6.9E1,6E0,7.2E1,2.1E1,4.3E1,2E0,6E0,2E1,4.4E1,1.7E1,6.4E1,2E0],"tree_param":{"num_deleted":"0","num_feature":"107","num_nodes":"61","size_leaf_vector":"1"}},{"base_weights":[5.4947985E-4,-8.4753014E-2,9.137982E-2,-1.05519414E-1,-4.7325216E-2,4.7351897E-2,1.5471718E-1,-1.1960529E-1,-9.48737E-2,-6.5121055E-2,-2.2999039E-2,5.868112E-2,7.513999E-3,1.10661775E-1,2.2949612E-1,-2.4037987E-3,-1.2006976E-2,-3.384528E-2,-9.646377E-2,-5.1236287E-2,-9.126256E-2,-2.9237475E-2,6.8172246E-2,2.9525219E-2,8.268914E-2,4.280444E-2,-1.21682435E-2,1.6315599E-1,9.7374775E-2,2.0297708E-1,4.1909552E-1,1.6381609E-3,-5.721236E-3,-9.95447E-3,-7.0950123E-3,-6.4677135E-3,-3.0133345E-3,-1.2936214E-2,-6.5771933E-3,3.096337E-3,-3.598182E-3,1.0725572E-2,2.1816574E-3,2.4678253E-3,1.3025343E-2,7.5456994E-3,2.0518785E-2,-4.1055438E-4,6.0303146E-3,1.4829854E-3,-4.3521984E-3,5.9208097E-3,1.691035E-2,8.613941E-3,1.4960927E-2,4.2702183E-3,2.0923598E-2,1.726238E-2,4.6485547E-2],"categories":[],"categories_nodes":[],"categories_segments":[],"categories_sizes":[],"default_left":[0,0,0,0,0,0,0,0,0,0,0,0,0,0,0,0,0,0,0,0,0,0,0,0,0,0,0,0,0,0,0,0,0,0,0,0,0,0,0,0,0,0,0,0,0,0,0,0,0,0,0,0,0,0,0,0,0,0,0],"id":17,"left_children":[1,3,5,7,9,11,13,15,17,19,21,23,25,27,29,-1,-1,31,33,35,37,39,41,43,45,47,49,51,53,55,57,-1,-1,-1,-1,-1,-1,-1,-1,-1,-1,-1,-1,-1,-1,-1,-1,-1,-1,-1,-1,-1,-1,-1,-1,-1,-1,-1,-1],"loss_changes":[8.639077E0,4.419198E-1,1.4985247E0,4.3985367E-2,8.8113576E-2,1.4398545E-1,7.026701E-1,3.993988E-3,1.7598629E-2,3.8517296E-2,5.2613378E-2,1.7185253E-1,5.0531697E-2,8.245897E-2,3.222003E-1,0E0,0E0,9.1528185E-3,9.365916E-3,2.0742372E-2,3.0338883E-2,3.5219386E-2,8.53049E-3,5.2443363E-2,1.05003536E-1,2.1590035E-2,4.0430516E-2,6.6800117E-3,5.460322E-2,6.4294815E-2,2.1261811E-2,0E0,0E0,0E0,0E0,0E0,0E0,0E0,0E0,0E0,0E0,0E0,0E0,0E0,0E0,0E0,0E0,0E0,0E0,0E0,0E0,0E0,0E0,0E0,0E0,0E0,0E0,0E0,0E0],"parents":[2147483647,0,0,1,1,2,2,3,3,4,4,5,5,6,6,7,7,8,8,9,9,10,10,11,11,12,12,13,13,14,14,17,17,18,18,19,19,20,20,21,21,22,22,23,23,24,24,25,25,26,26,27,27,28,28,29,29,30,30],"right_children":[2,4,6,8,10,12,14,16,18,20,22,24,26,28,30,-1,-1,32,34,36,38,40,42,44,46,48,50,52,54,56,58,-1,-1,-1,-1,-1,-1,-1,-1,-1,-1,-1,-1,-1,-1,-1,-1,-1,-1,-1,-1,-1,-1,-1,-1,-1,-1,-1,-1],"split_conditions":[2.7375543E-2,-3.9476296E-1,5.828209E-1,-6.2408257E-1,-1.9718312E-1,6.370288E-1,1.2600001E2,1.4400001E1,1.58E1,3.8899999E0,2.9E1,3.5746878E-1,2.59E1,4.84E1,1.0279706E0,-2.4037987E-3,-1.2006976E-2,-7.533156E-1,1.1690936E0,7.1999997E-1,2.2E1,-8.6E-1,2E-1,1.092E2,2.97E1,-5.5E-1,-9E-2,-4.15E-1,8.74033E-1,7.88E1,-6.3E-1,1.6381609E-3,-5.721236E-3,-9.95447E-3,-7.0950123E-3,-6.4677135E-3,-3.0133345E-3,-1.2936214E-2,-6.5771933E-3,3.096337E-3,-3.598182E-3,1.0725572E-2,2.1816574E-3,2.4678253E-3,1.3025343E-2,7.5456994E-3,2.0518785E-2,-4.1055438E-4,6.0303146E-3,1.4829854E-3,-4.3521984E-3,5.9208097E-3,1.691035E-2,8.613941E-3,1.4960927E-2,4.2702183E-3,2.0923598E-2,1.726238E-2,4.6485547E-2],"split_indices":[5,5,5,5,5,2,102,58,59,53,60,5,59,34,5,0,0,12,75,53,45,94,16,103,24,87,72,70,5,34,82,0,0,0,0,0,0,0,0,0,0,0,0,0,0,0,0,0,0,0,0,0,0,0,0,0,0,0,0],"split_type":[0,0,0,0,0,0,0,0,0,0,0,0,0,0,0,0,0,0,0,0,0,0,0,0,0,0,0,0,0,0,0,0,0,0,0,0,0,0,0,0,0,0,0,0,0,0,0,0,0,0,0,0,0,0,0,0,0,0,0],"sum_hessian":[1.113E3,5.74E2,5.39E2,3.68E2,2.06E2,3.19E2,2.2E2,1.54E2,2.14E2,1.18E2,8.8E1,2.48E2,7.1E1,1.4E2,8E1,1E0,1.53E2,6E0,2.08E2,7.9E1,3.9E1,8.3E1,5E0,1.13E2,1.35E2,2.5E1,4.6E1,2.6E1,1.14E2,7.2E1,8E0,2E0,4E0,1.83E2,2.5E1,4.7E1,3.2E1,1.4E1,2.5E1,8E0,7.5E1,2E0,3E0,1.09E2,4E0,1.29E2,6E0,7E0,1.8E1,2.5E1,2.1E1,2E0,2.4E1,9.6E1,1.8E1,3E0,6.9E1,2E0,6E0],"tree_param":{"num_deleted":"0","num_feature":"107","num_nodes":"59","size_leaf_vector":"1"}},{"base_weights":[4.0965457E-4,-7.355058E-2,8.878629E-2,-9.428214E-2,-3.4456305E-2,5.8270518E-2,1.6224599E-1,-1.0618587E-1,-8.278357E-2,-4.9641334E-2,-4.446303E-3,3.698047E-2,1.1259417E-1,1.311117E-1,2.6865813E-1,-1.6248123E-3,-1.0656967E-1,-8.625304E-2,-5.462783E-3,-4.4580456E-2,-1.0585904E-1,-3.1863924E-2,4.344534E-2,7.765341E-3,6.298702E-2,1.6417463E-1,6.37046E-2,1.1944757E-1,2.1613374E-2,2.2157446E-1,4.1188683E-2,-2.3984537E-3,-1.0687648E-2,-6.9575133E-3,-9.711183E-3,-2.0438347E-3,2.2110152E-3,-5.1658577E-3,-8.790299E-4,-1.1120212E-2,-2.6214123E-3,-9.6551236E-4,-5.4618535E-3,1.1722392E-2,2.1349124E-3,1.0633452E-2,-4.6251388E-4,9.267902E-3,3.4069761E-3,9.803428E-3,1.8074067E-2,8.752159E-3,3.468932E-3,8.699346E-3,1.4287916E-2,2.5072664E-2,1.20997215E-2],"categories":[],"categories_nodes":[],"categories_segments":[],"categories_sizes":[],"default_left":[0,0,0,0,0,0,0,0,0,0,0,0,0,0,0,0,0,0,0,0,0,0,0,0,0,0,0,0,0,0,0,0,0,0,0,0,0,0,0,0,0,0,0,0,0,0,0,0,0,0,0,0,0,0,0,0,0],"id":18,"left_children":[1,3,5,7,9,11,13,15,17,19,21,23,25,27,29,-1,31,33,35,37,39,41,43,45,47,49,51,53,-1,55,-1,-1,-1,-1,-1,-1,-1,-1,-1,-1,-1,-1,-1,-1,-1,-1,-1,-1,-1,-1,-1,-1,-1,-1,-1,-1,-1],"loss_changes":[7.359932E0,4.935789E-1,1.1405277E0,4.595995E-2,9.7299665E-2,4.168216E-1,4.6173573E-1,4.930496E-3,5.5327415E-2,3.5681337E-2,9.72388E-2,1.9933426E-1,2.4675941E-1,9.120488E-2,1.3127947E-1,0E0,2.3014545E-3,2.928269E-2,4.5810975E-3,3.298506E-2,1.7659739E-3,2.3224223E-2,4.1513517E-2,1.5315674E-1,1.1618936E-1,3.5969734E-2,3.4280986E-2,6.8178296E-2,0E0,4.8828006E-2,0E0,0E0,0E0,0E0,0E0,0E0,0E0,0E0,0E0,0E0,0E0,0E0,0E0,0E0,0E0,0E0,0E0,0E0,0E0,0E0,0E0,0E0,0E0,0E0,0E0,0E0,0E0],"parents":[2147483647,0,0,1,1,2,2,3,3,4,4,5,5,6,6,7,7,8,8,9,9,10,10,11,11,12,12,13,13,14,14,16,16,17,17,18,18,19,19,20,20,21,21,22,22,23,23,24,24,25,25,26,26,27,27,29,29],"right_children":[2,4,6,8,10,12,14,16,18,20,22,24,26,28,30,-1,32,34,36,38,40,42,44,46,48,50,52,54,-1,56,-1,-1,-1,-1,-1,-1,-1,-1,-1,-1,-1,-1,-1,-1,-1,-1,-1,-1,-1,-1,-1,-1,-1,-1,-1,-1,-1],"split_conditions":[1.4639954E-1,-3.788931E-1,6.943825E-1,-3.146146E-1,-7.419162E-2,6.2408245E-1,9.057727E-1,2.1E1,9.142856E-1,1.2142857E0,3.333497E-1,-5.507324E-1,1.085E2,1.8033068E0,1.8314583E0,-1.6248123E-3,-3.248E0,1.2600001E2,3.9E-2,1.5384035E0,1.2605515E-1,3.16E1,1.29E2,2.9300001E1,7.1200005E1,-5.284446E-1,4.32E1,-1.6E-1,2.1613374E-2,9.400001E0,4.1188683E-2,-2.3984537E-3,-1.0687648E-2,-6.9575133E-3,-9.711183E-3,-2.0438347E-3,2.2110152E-3,-5.1658577E-3,-8.790299E-4,-1.1120212E-2,-2.6214123E-3,-9.6551236E-4,-5.4618535E-3,1.1722392E-2,2.1349124E-3,1.0633452E-2,-4.6251388E-4,9.267902E-3,3.4069761E-3,9.803428E-3,1.8074067E-2,8.752159E-3,3.468932E-3,8.699346E-3,1.4287916E-2,2.5072664E-2,1.20997215E-2],"split_indices":[5,5,7,7,5,5,5,22,3,13,7,7,101,7,7,0,64,103,74,7,2,44,99,37,33,7,37,89,0,29,0,0,0,0,0,0,0,0,0,0,0,0,0,0,0,0,0,0,0,0,0,0,0,0,0,0,0],"split_type":[0,0,0,0,0,0,0,0,0,0,0,0,0,0,0,0,0,0,0,0,0,0,0,0,0,0,0,0,0,0,0,0,0,0,0,0,0,0,0,0,0,0,0,0,0,0,0,0,0,0,0,0,0,0,0,0,0],"sum_hessian":[1.124E3,6.12E2,5.12E2,3.99E2,2.13E2,3.63E2,1.49E2,1.92E2,2.07E2,1.41E2,7.2E1,2.62E2,1.01E2,1.17E2,3.2E1,1E0,1.91E2,1.98E2,9E0,1.31E2,1E1,4.6E1,2.6E1,1.24E2,1.38E2,4.8E1,5.3E1,1.05E2,1.2E1,2.6E1,6E0,1E0,1.9E2,8.1E1,1.17E2,6E0,3E0,1.09E2,2.2E1,9E0,1E0,2.4E1,2.2E1,5E0,2.1E1,1.3E1,1.11E2,6.7E1,7.1E1,1.1E1,3.7E1,2.8E1,2.5E1,4.6E1,5.9E1,1.9E1,7E0],"tree_param":{"num_deleted":"0","num_feature":"107","num_nodes":"57","size_leaf_vector":"1"}},{"base_weights":[2.3504356E-3,-6.445903E-2,6.915576E-2,-8.285118E-2,-3.0203218E-2,1.640015E-2,1.082676E-1,-9.5981106E-2,-7.3000066E-2,-5.3667672E-2,1.6134659E-2,7.42602E-2,5.9787864E-3,9.759832E-2,2.6662764E-1,-9.6851446E-2,-1.9600212E-3,-5.864419E-2,-8.694203E-2,-7.385003E-2,-3.5543032E-2,-2.4004236E-3,6.775436E-2,-2.7073618E-2,8.73635E-2,-3.0305699E-2,2.0648316E-2,1.11883014E-1,1.8189615E-2,3.3638448E-1,1.7897343E-2,-2.36997E-3,-9.71768E-3,-3.8997084E-3,-6.630277E-3,-8.891328E-3,-3.8940408E-3,-5.3201853E-3,-8.928965E-3,-6.623678E-3,-2.071305E-3,8.9405775E-3,-1.4322962E-3,-1.6892406E-3,9.314574E-3,-5.829453E-3,1.3171833E-3,-7.7195273E-4,1.0877897E-2,-3.9067767E-3,2.3686888E-3,2.8410272E-3,-4.0835594E-3,9.005539E-3,1.8471856E-2,-7.088538E-4,5.7145143E-3,1.6775813E-2,3.846875E-2],"categories":[],"categories_nodes":[],"categories_segments":[],"categories_sizes":[],"default_left":[0,0,0,0,0,0,0,0,0,0,0,0,0,0,0,0,0,0,0,0,0,0,0,0,0,0,0,0,0,0,0,0,0,0,0,0,0,0,0,0,0,0,0,0,0,0,0,0,0,0,0,0,0,0,0,0,0,0,0],"id":19,"left_children":[1,3,5,7,9,11,13,15,17,19,21,23,25,27,29,31,-1,33,35,37,39,41,43,45,47,49,51,53,55,57,-1,-1,-1,-1,-1,-1,-1,-1,-1,-1,-1,-1,-1,-1,-1,-1,-1,-1,-1,-1,-1,-1,-1,-1,-1,-1,-1,-1,-1],"loss_changes":[5.070222E0,3.5535932E-1,1.170218E0,4.0721416E-2,2.183245E-1,1.4608029E-1,5.2478313E-1,8.405685E-3,3.793347E-2,4.602629E-2,6.522336E-2,5.1494136E-2,1.1080696E-1,3.462038E-1,6.2085748E-2,1.3381243E-3,0E0,1.3815522E-2,6.662369E-3,1.5015215E-2,3.1401552E-2,5.710327E-2,4.026083E-2,7.050344E-3,6.80359E-2,2.9310603E-2,7.179099E-2,3.9671993E-1,4.7671817E-2,1.691699E-2,0E0,0E0,0E0,0E0,0E0,0E0,0E0,0E0,0E0,0E0,0E0,0E0,0E0,0E0,0E0,0E0,0E0,0E0,0E0,0E0,0E0,0E0,0E0,0E0,0E0,0E0,0E0,0E0,0E0],"parents":[2147483647,0,0,1,1,2,2,3,3,4,4,5,5,6,6,7,7,8,8,9,9,10,10,11,11,12,12,13,13,14,14,15,15,17,17,18,18,19,19,20,20,21,21,22,22,23,23,24,24,25,25,26,26,27,27,28,28,29,29],"right_children":[2,4,6,8,10,12,14,16,18,20,22,24,26,28,30,32,-1,34,36,38,40,42,44,46,48,50,52,54,56,58,-1,-1,-1,-1,-1,-1,-1,-1,-1,-1,-1,-1,-1,-1,-1,-1,-1,-1,-1,-1,-1,-1,-1,-1,-1,-1,-1,-1,-1],"split_conditions":[3.3764772E-2,2.07E1,-1.11581504E-1,-3.146146E-1,2.9824495E-1,2.9300001E1,1.9003941E0,2.5253515E0,1.2600001E2,-2.674772E-1,1.3234422E0,-1.393921E0,-1.1384854E0,2.54E1,-1.14286125E-1,1.9800001E1,-1.9600212E-3,6.3E-1,6.08E1,1.968E3,-1.0073982E0,4.79E1,3.44E1,-1.8456961E0,6.91E1,3.6E1,2.49E1,9E0,8.86823E-1,2.36E1,1.7897343E-2,-2.36997E-3,-9.71768E-3,-3.8997084E-3,-6.630277E-3,-8.891328E-3,-3.8940408E-3,-5.3201853E-3,-8.928965E-3,-6.623678E-3,-2.071305E-3,8.9405775E-3,-1.4322962E-3,-1.6892406E-3,9.314574E-3,-5.829453E-3,1.3171833E-3,-7.7195273E-4,1.0877897E-2,-3.9067767E-3,2.3686888E-3,2.8410272E-3,-4.0835594E-3,9.005539E-3,1.8471856E-2,-7.088538E-4,5.7145143E-3,1.6775813E-2,3.846875E-2],"split_indices":[2,50,7,7,7,37,7,75,103,6,7,7,7,60,3,22,0,52,37,106,7,36,44,7,38,40,60,105,7,47,0,0,0,0,0,0,0,0,0,0,0,0,0,0,0,0,0,0,0,0,0,0,0,0,0,0,0,0,0],"split_type":[0,0,0,0,0,0,0,0,0,0,0,0,0,0,0,0,0,0,0,0,0,0,0,0,0,0,0,0,0,0,0,0,0,0,0,0,0,0,0,0,0,0,0,0,0,0,0,0,0,0,0,0,0,0,0,0,0,0,0],"sum_hessian":[1.134E3,5.67E2,5.67E2,3.68E2,1.99E2,2.42E2,3.25E2,1.54E2,2.14E2,1.32E2,6.7E1,3.6E1,2.06E2,3.06E2,1.9E1,1.52E2,2E0,1.08E2,1.06E2,6.1E1,7.1E1,5E1,1.7E1,4E0,3.2E1,5.9E1,1.47E2,2.59E2,4.7E1,9E0,1E1,1E0,1.51E2,3.2E1,7.6E1,1.01E2,5E0,2.8E1,3.3E1,2.2E1,4.9E1,5E0,4.5E1,4E0,1.3E1,2E0,2E0,6E0,2.6E1,5.1E1,8E0,1.31E2,1.6E1,2.01E2,5.8E1,2.9E1,1.8E1,3E0,6E0],"tree_param":{"num_deleted":"0","num_feature":"107","num_nodes":"59","size_leaf_vector":"1"}},{"base_weights":[2.496572E-3,-5.864462E-2,6.384754E-2,-7.376379E-2,-2.6790407E-2,9.563245E-3,9.809688E-2,-8.4724076E-2,-6.2818445E-2,-5.6411315E-2,1.49463825E-2,-4.747704E-3,4.6571303E-2,8.8091336E-2,2.5065553E-1,-2.3557067E-2,-8.557484E-2,-7.91247E-2,-5.0361548E-2,-9.245152E-2,-4.514759E-2,5.5367712E-2,-4.04398E-3,-5.2890353E-2,3.6593345E-3,1.1042979E-2,7.550513E-2,6.160153E-2,1.16888374E-1,4.0347986E-2,1.9096276E-1,2.6614367E-4,-3.3183713E-3,-8.588642E-3,-1.3654977E-3,-8.288074E-3,-4.666356E-3,-5.840027E-3,-3.1098796E-3,-9.503596E-3,-1.5212506E-3,-2.609189E-3,-5.9999186E-3,7.131851E-3,1.2557466E-3,-2.0658856E-3,3.6707525E-3,2.5188148E-3,-6.5243864E-3,-2.968231E-3,1.0938998E-3,-7.5090076E-3,2.3869488E-3,1.674206E-3,9.9292165E-3,4.7212834E-3,9.94771E-3,1.5700301E-2,8.365073E-3,8.418475E-3,2.0783057E-2],"categories":[],"categories_nodes":[],"categories_segments":[],"categories_sizes":[],"default_left":[0,0,0,0,0,0,0,0,0,0,0,0,0,0,0,0,0,0,0,0,0,0,0,0,0,0,0,0,0,0,0,0,0,0,0,0,0,0,0,0,0,0,0,0,0,0,0,0,0,0,0,0,0,0,0,0,0,0,0,0,0],"id":20,"left_children":[1,3,5,7,9,11,13,15,17,19,21,23,25,27,29,31,33,35,37,39,41,43,45,47,49,51,53,55,57,-1,59,-1,-1,-1,-1,-1,-1,-1,-1,-1,-1,-1,-1,-1,-1,-1,-1,-1,-1,-1,-1,-1,-1,-1,-1,-1,-1,-1,-1,-1,-1],"loss_changes":[4.2912197E0,2.739861E-1,1.0606658E0,4.1223764E-2,2.3079152E-1,1.1779685E-1,5.1217055E-1,7.923603E-3,3.623396E-2,4.007426E-2,6.0097925E-2,6.5356225E-2,6.2900364E-2,2.4453259E-1,1.1452305E-1,1.0979015E-3,3.039956E-3,6.37424E-3,1.59913E-2,3.5447627E-3,2.2490144E-2,1.6175851E-2,3.732072E-2,2.4792403E-2,3.38195E-2,3.3831168E-2,4.586278E-2,9.012985E-2,1.9619727E-1,0E0,1.3122678E-2,0E0,0E0,0E0,0E0,0E0,0E0,0E0,0E0,0E0,0E0,0E0,0E0,0E0,0E0,0E0,0E0,0E0,0E0,0E0,0E0,0E0,0E0,0E0,0E0,0E0,0E0,0E0,0E0,0E0,0E0],"parents":[2147483647,0,0,1,1,2,2,3,3,4,4,5,5,6,6,7,7,8,8,9,9,10,10,11,11,12,12,13,13,14,14,15,15,16,16,17,17,18,18,19,19,20,20,21,21,22,22,23,23,24,24,25,25,26,26,27,27,28,28,30,30],"right_children":[2,4,6,8,10,12,14,16,18,20,22,24,26,28,30,32,34,36,38,40,42,44,46,48,50,52,54,56,58,-1,60,-1,-1,-1,-1,-1,-1,-1,-1,-1,-1,-1,-1,-1,-1,-1,-1,-1,-1,-1,-1,-1,-1,-1,-1,-1,-1,-1,-1,-1,-1],"split_conditions":[9.01E0,2.1E1,-2.913225E-1,-1.0434785E0,2.344525E-1,1.7609999E1,1.9003941E0,1.5400001E1,-1.6458236E-1,-1.3418571E0,3.19E1,-1.5439175E0,2.41E1,1.6540001E2,-4.65E-1,-1.2333337E0,3.4030002E2,1.4E1,1.87E1,3.06E1,1.129E1,8.46E0,1.085491E0,7.4E0,-6.9E-1,-1.7121717E0,-1.268888E0,1.38E2,3.77E1,4.0347986E-2,-1.5663989E0,2.6614367E-4,-3.3183713E-3,-8.588642E-3,-1.3654977E-3,-8.288074E-3,-4.666356E-3,-5.840027E-3,-3.1098796E-3,-9.503596E-3,-1.5212506E-3,-2.609189E-3,-5.9999186E-3,7.131851E-3,1.2557466E-3,-2.0658856E-3,3.6707525E-3,2.5188148E-3,-6.5243864E-3,-2.968231E-3,1.0938998E-3,-7.5090076E-3,2.3869488E-3,1.674206E-3,9.9292165E-3,4.7212834E-3,9.94771E-3,1.5700301E-2,8.365073E-3,8.418475E-3,2.0783057E-2],"split_indices":[56,50,7,4,7,56,7,58,7,7,43,7,18,20,70,0,16,32,20,26,54,56,7,31,82,7,7,100,37,0,75,0,0,0,0,0,0,0,0,0,0,0,0,0,0,0,0,0,0,0,0,0,0,0,0,0,0,0,0,0,0],"split_type":[0,0,0,0,0,0,0,0,0,0,0,0,0,0,0,0,0,0,0,0,0,0,0,0,0,0,0,0,0,0,0,0,0,0,0,0,0,0,0,0,0,0,0,0,0,0,0,0,0,0,0,0,0,0,0,0,0,0,0,0,0],"sum_hessian":[1.142E3,5.72E2,5.7E2,3.87E2,1.85E2,2.21E2,3.49E2,1.9E2,1.97E2,1.08E2,7.7E1,1.6E2,6.1E1,3.29E2,2E1,3E0,1.87E2,8.3E1,1.14E2,2.4E1,8.4E1,2.4E1,5.3E1,2.3E1,1.37E2,2.8E1,3.3E1,1.73E2,1.56E2,4E0,1.6E1,1E0,2E0,1.86E2,1E0,7.3E1,1E1,7.9E1,3.5E1,2.3E1,1E0,3.8E1,4.6E1,1.7E1,7E0,3.8E1,1.5E1,3E0,2E1,2.4E1,1.13E2,3E0,2.5E1,1E1,2.3E1,1.27E2,4.6E1,6.9E1,8.7E1,3E0,1.3E1],"tree_param":{"num_deleted":"0","num_feature":"107","num_nodes":"61","size_leaf_vector":"1"}},{"base_weights":[1.4248253E-3,-5.2470453E-2,6.528643E-2,-6.595807E-2,-1.3702807E-2,4.5420397E-2,1.3168132E-1,-7.346154E-2,-5.253314E-2,-2.7285289E-2,1.3464386E-2,3.0752718E-2,8.64764E-2,1.146064E-1,2.2112358E-1,-7.596076E-2,-4.8349146E-2,-6.695606E-2,-3.304396E-2,-6.339105E-3,-4.181375E-2,9.986971E-3,8.220533E-3,-8.681775E-3,5.0216347E-2,5.4304036E-3,1.1446116E-1,1.21752195E-1,2.7238479E-2,2.4479409E-1,7.7078314E-3,2.5283694E-4,-7.627118E-3,-5.3825174E-3,1.7051519E-3,-7.669666E-3,-5.491289E-3,-4.177079E-3,-1.8396348E-4,-1.4112302E-3,2.6321716E-3,-3.4742296E-4,-4.8139333E-3,1.8366826E-4,6.786139E-3,-5.68559E-3,-7.831998E-6,5.703865E-3,-1.0326918E-3,-2.392805E-3,2.8944747E-3,3.5656986E-3,1.2967343E-2,1.2694649E-2,2.441141E-3,4.233554E-3,-1.7067492E-3,1.4701895E-2,2.7897974E-2],"categories":[],"categories_nodes":[],"categories_segments":[],"categories_sizes":[],"default_left":[0,0,0,0,0,0,0,0,0,0,0,0,0,0,0,0,0,0,0,0,0,0,0,0,0,0,0,0,0,0,0,0,0,0,0,0,0,0,0,0,0,0,0,0,0,0,0,0,0,0,0,0,0,0,0,0,0,0,0],"id":21,"left_children":[1,3,5,7,9,11,13,15,17,19,21,23,25,27,29,31,33,35,37,39,41,-1,43,45,47,49,51,53,55,57,-1,-1,-1,-1,-1,-1,-1,-1,-1,-1,-1,-1,-1,-1,-1,-1,-1,-1,-1,-1,-1,-1,-1,-1,-1,-1,-1,-1,-1],"loss_changes":[3.9030292E0,3.206694E-1,6.785817E-1,4.2075515E-2,5.9407048E-2,2.3882139E-1,1.5639687E-1,1.4528275E-2,4.472971E-2,3.2296732E-2,2.3646241E-2,2.2839487E-1,2.3752391E-1,6.036353E-2,4.2504907E-2,6.5761805E-3,1.1303745E-2,6.9326162E-3,1.9802153E-2,1.1796014E-2,1.5111506E-2,0E0,1.9673755E-2,4.102748E-2,8.278489E-2,2.0022243E-2,8.888185E-2,4.4428945E-2,6.7425715E-3,9.122312E-3,0E0,0E0,0E0,0E0,0E0,0E0,0E0,0E0,0E0,0E0,0E0,0E0,0E0,0E0,0E0,0E0,0E0,0E0,0E0,0E0,0E0,0E0,0E0,0E0,0E0,0E0,0E0,0E0,0E0],"parents":[2147483647,0,0,1,1,2,2,3,3,4,4,5,5,6,6,7,7,8,8,9,9,10,10,11,11,12,12,13,13,14,14,15,15,16,16,17,17,18,18,19,19,20,20,22,22,23,23,24,24,25,25,26,26,27,27,28,28,29,29],"right_children":[2,4,6,8,10,12,14,16,18,20,22,24,26,28,30,32,34,36,38,40,42,-1,44,46,48,50,52,54,56,58,-1,-1,-1,-1,-1,-1,-1,-1,-1,-1,-1,-1,-1,-1,-1,-1,-1,-1,-1,-1,-1,-1,-1,-1,-1,-1,-1,-1,-1],"split_conditions":[1.3846458E-1,-2.6621702E-1,8.86823E-1,-6.333337E-1,4.3214208E-1,1.178E2,9.565562E-1,1.8609999E1,-4.320433E-2,2.71E1,2.41E1,-5.711082E-1,2.9319578E-1,1.35E2,2.94E1,2.69E1,1.3016163E0,-7.785509E-1,1.0666673E0,3.588835E-2,1.913E3,9.986971E-3,2.075807E0,-1.6262556E0,8.441193E-1,3.0729043E-1,-1.17194E0,1.9E1,-6.0790274E-2,1.3016163E0,7.7078314E-3,2.5283694E-4,-7.627118E-3,-5.3825174E-3,1.7051519E-3,-7.669666E-3,-5.491289E-3,-4.177079E-3,-1.8396348E-4,-1.4112302E-3,2.6321716E-3,-3.4742296E-4,-4.8139333E-3,1.8366826E-4,6.786139E-3,-5.68559E-3,-7.831998E-6,5.703865E-3,-1.0326918E-3,-2.392805E-3,2.8944747E-3,3.5656986E-3,1.2967343E-2,1.2694649E-2,2.441141E-3,4.233554E-3,-1.7067492E-3,1.4701895E-2,2.7897974E-2],"split_indices":[5,5,7,0,7,102,5,52,7,25,25,7,5,104,62,24,7,7,3,7,106,0,7,7,2,7,7,52,6,7,0,0,0,0,0,0,0,0,0,0,0,0,0,0,0,0,0,0,0,0,0,0,0,0,0,0,0,0,0],"split_type":[0,0,0,0,0,0,0,0,0,0,0,0,0,0,0,0,0,0,0,0,0,0,0,0,0,0,0,0,0,0,0,0,0,0,0,0,0,0,0,0,0,0,0,0,0,0,0,0,0,0,0,0,0,0,0,0,0,0,0],"sum_hessian":[1.132E3,6.14E2,5.18E2,4.55E2,1.59E2,4E2,1.18E2,2.89E2,1.66E2,1.06E2,5.3E1,2.96E2,1.04E2,1.01E2,1.7E1,2.61E2,2.8E1,9.4E1,7.2E1,4.4E1,6.2E1,2E0,5.1E1,9.8E1,1.98E2,2.7E1,7.7E1,9.3E1,8E0,1.4E1,3E0,1E0,2.6E2,2.6E1,2E0,4.9E1,4.5E1,5.6E1,1.6E1,3.6E1,8E0,9E0,5.3E1,4.7E1,4E0,1.4E1,8.4E1,1.78E2,2E1,1.2E1,1.5E1,1.3E1,6.4E1,8.8E1,5E0,6E0,2E0,5E0,9E0],"tree_param":{"num_deleted":"0","num_feature":"107","num_nodes":"59","size_leaf_vector":"1"}},{"base_weights":[2.5496157E-3,-4.490063E-2,5.89211E-2,-6.1179876E-2,-2.0565301E-2,3.8694177E-2,1.3205107E-1,-6.423747E-2,-3.89785E-2,-3.000166E-2,5.568726E-2,1.0446143E-2,6.354578E-2,1.1450733E-1,2.4291876E-1,-6.787126E-2,-4.982826E-2,-6.1881375E-2,-2.0569757E-2,-6.648487E-2,-1.9182146E-2,-6.949933E-3,7.391455E-2,-6.680821E-3,4.771618E-2,4.9155798E-2,1.18623935E-1,1.00146756E-1,1.8537803E-1,1.7988672E-2,3.2039907E-2,-7.420152E-3,-6.135694E-3,-5.1061534E-3,1.5783877E-3,-6.7516933E-3,2.259706E-3,1.6764868E-3,-2.5935122E-3,-8.483156E-3,-5.203758E-3,-2.94273E-3,-1.6397904E-4,-2.3777299E-3,1.1614916E-3,1.2801473E-2,4.9007325E-3,-7.574364E-3,1.0499265E-4,-2.0273852E-3,6.035987E-3,1.0928449E-2,4.386389E-3,2.8289838E-3,1.3250812E-2,1.0660093E-2,6.270309E-5,2.0052457E-2,9.359389E-3],"categories":[],"categories_nodes":[],"categories_segments":[],"categories_sizes":[],"default_left":[0,0,0,0,0,0,0,0,0,0,0,0,0,0,0,0,0,0,0,0,0,0,0,0,0,0,0,0,0,0,0,0,0,0,0,0,0,0,0,0,0,0,0,0,0,0,0,0,0,0,0,0,0,0,0,0,0,0,0],"id":22,"left_children":[1,3,5,7,9,11,13,15,17,19,21,23,25,27,29,31,33,35,37,39,41,43,45,47,49,51,53,55,57,-1,-1,-1,-1,-1,-1,-1,-1,-1,-1,-1,-1,-1,-1,-1,-1,-1,-1,-1,-1,-1,-1,-1,-1,-1,-1,-1,-1,-1,-1],"loss_changes":[2.9556696E0,2.3643827E-1,7.4188364E-1,2.1865964E-2,1.7580102E-1,2.780336E-1,1.8419278E-1,1.3059139E-2,1.8121317E-2,8.3986476E-2,3.1339765E-2,1.1968511E-1,1.6140199E-1,7.91384E-2,1.0736883E-2,5.6741238E-3,6.2274337E-3,1.10473335E-2,5.8432715E-3,8.573502E-3,3.0145396E-2,2.4629538E-3,2.2023536E-2,6.895356E-2,5.194275E-2,4.898134E-2,5.018258E-2,5.2603245E-2,2.0853877E-3,0E0,0E0,0E0,0E0,0E0,0E0,0E0,0E0,0E0,0E0,0E0,0E0,0E0,0E0,0E0,0E0,0E0,0E0,0E0,0E0,0E0,0E0,0E0,0E0,0E0,0E0,0E0,0E0,0E0,0E0],"parents":[2147483647,0,0,1,1,2,2,3,3,4,4,5,5,6,6,7,7,8,8,9,9,10,10,11,11,12,12,13,13,14,14,15,15,16,16,17,17,18,18,19,19,20,20,21,21,22,22,23,23,24,24,25,25,26,26,27,27,28,28],"right_children":[2,4,6,8,10,12,14,16,18,20,22,24,26,28,30,32,34,36,38,40,42,44,46,48,50,52,54,56,58,-1,-1,-1,-1,-1,-1,-1,-1,-1,-1,-1,-1,-1,-1,-1,-1,-1,-1,-1,-1,-1,-1,-1,-1,-1,-1,-1,-1,-1,-1],"split_conditions":[1.2830618E-1,-4.7826108E-1,8.86823E-1,1.1862828E0,1.2130532E0,-2.913225E-1,2.6030002E2,-6.000003E-1,9.8E1,-1.0267146E0,3.0800001E1,2.5300001E1,1.333E2,1.9003941E0,1.4415796E0,-3.146146E-1,1.21E0,-7.66667E-1,1.91E1,-1.5688543E0,2.5800001E1,3.29E1,-4.1E-1,-1.6262556E0,2.79E1,2.75E1,3.3539674E-1,1.9E1,2.9300001E1,1.7988672E-2,3.2039907E-2,-7.420152E-3,-6.135694E-3,-5.1061534E-3,1.5783877E-3,-6.7516933E-3,2.259706E-3,1.6764868E-3,-2.5935122E-3,-8.483156E-3,-5.203758E-3,-2.94273E-3,-1.6397904E-4,-2.3777299E-3,1.1614916E-3,1.2801473E-2,4.9007325E-3,-7.574364E-3,1.0499265E-4,-2.0273852E-3,6.035987E-3,1.0928449E-2,4.386389E-3,2.8289838E-3,1.3250812E-2,1.0660093E-2,6.270309E-5,2.0052457E-2,9.359389E-3],"split_indices":[2,4,7,7,7,7,20,0,99,7,40,18,102,7,7,7,86,0,61,7,62,43,74,7,62,35,2,52,62,0,0,0,0,0,0,0,0,0,0,0,0,0,0,0,0,0,0,0,0,0,0,0,0,0,0,0,0,0,0],"split_type":[0,0,0,0,0,0,0,0,0,0,0,0,0,0,0,0,0,0,0,0,0,0,0,0,0,0,0,0,0,0,0,0,0,0,0,0,0,0,0,0,0,0,0,0,0,0,0,0,0,0,0,0,0,0,0,0,0,0,0],"sum_hessian":[1.103E3,5.99E2,5.04E2,3.58E2,2.41E2,3.96E2,1.08E2,3.13E2,4.5E1,2.15E2,2.6E1,1.86E2,2.1E2,9.5E1,1.3E1,2.47E2,6.6E1,1.9E1,2.6E1,4.8E1,1.67E2,6E0,2E1,1.28E2,5.8E1,1.68E2,4.2E1,8.1E1,1.4E1,9E0,4E0,1.2E2,1.27E2,6.5E1,1E0,1.8E1,1E0,3E0,2.3E1,1.9E1,2.9E1,1.05E2,6.2E1,3E0,3E0,5E0,1.5E1,1.2E1,1.16E2,9E0,4.9E1,1.2E1,1.56E2,6E0,3.6E1,7.6E1,5E0,1.1E1,3E0],"tree_param":{"num_deleted":"0","num_feature":"107","num_nodes":"59","size_leaf_vector":"1"}},{"base_weights":[1.1766356E-4,-4.3287072E-2,5.372018E-2,-5.36471E-2,-1.0513175E-2,3.443874E-2,1.0175508E-1,-3.939361E-2,-5.906327E-2,-2.2209696E-2,2.5776457E-2,8.382209E-2,2.3801504E-2,8.83946E-2,2.1343438E-1,-5.1178522E-2,-2.3613084E-2,-6.372088E-2,-4.9682803E-2,-3.2957364E-2,-2.9472609E-3,5.3335276E-2,-1.6932425E-3,4.1882627E-2,1.18573554E-1,-4.5843868E-4,3.788219E-2,1.2383419E-1,7.067704E-2,1.3774297E-2,3.0401435E-1,-5.7036937E-3,-1.7949649E-3,-4.556801E-3,-1.1496418E-3,-6.4631924E-3,-4.1860254E-3,-3.3936237E-3,-5.656614E-3,7.706838E-3,-3.5485663E-3,-6.137464E-4,6.552063E-3,1.798413E-3,7.741028E-3,1.7499253E-3,-3.2669397E-3,6.0389917E-3,-3.0216755E-4,1.3793401E-2,4.7317347E-3,8.9403224E-4,-4.2059696E-3,4.4075544E-3,-5.500174E-4,1.4168911E-2,4.063906E-3,2.035245E-3,7.880355E-3,3.2801308E-2,9.201044E-3],"categories":[],"categories_nodes":[],"categories_segments":[],"categories_sizes":[],"default_left":[0,0,0,0,0,0,0,0,0,0,0,0,0,0,0,0,0,0,0,0,0,0,0,0,0,0,0,0,0,0,0,0,0,0,0,0,0,0,0,0,0,0,0,0,0,0,0,0,0,0,0,0,0,0,0,0,0,0,0,0,0],"id":23,"left_children":[1,3,5,7,9,11,13,15,17,19,21,23,25,27,29,31,33,35,37,39,41,43,45,47,49,51,53,55,57,-1,59,-1,-1,-1,-1,-1,-1,-1,-1,-1,-1,-1,-1,-1,-1,-1,-1,-1,-1,-1,-1,-1,-1,-1,-1,-1,-1,-1,-1,-1,-1],"loss_changes":[2.6779187E0,2.1538258E-1,4.7347963E-1,3.4960628E-2,6.59397E-2,1.9184145E-1,2.0047069E-1,2.4083719E-2,1.2038469E-2,2.4124935E-2,2.8857542E-2,8.976859E-2,1.0420434E-1,7.475877E-2,6.0966134E-2,1.3965666E-2,1.5437365E-2,1.8552542E-3,1.108703E-2,2.3598172E-2,9.794469E-3,1.4778338E-2,1.2461883E-2,2.594525E-2,4.1757703E-2,4.4559054E-2,5.2098095E-2,5.81159E-2,3.561181E-2,0E0,3.4624338E-4,0E0,0E0,0E0,0E0,0E0,0E0,0E0,0E0,0E0,0E0,0E0,0E0,0E0,0E0,0E0,0E0,0E0,0E0,0E0,0E0,0E0,0E0,0E0,0E0,0E0,0E0,0E0,0E0,0E0,0E0],"parents":[2147483647,0,0,1,1,2,2,3,3,4,4,5,5,6,6,7,7,8,8,9,9,10,10,11,11,12,12,13,13,14,14,15,15,16,16,17,17,18,18,19,19,20,20,21,21,22,22,23,23,24,24,25,25,26,26,27,27,28,28,30,30],"right_children":[2,4,6,8,10,12,14,16,18,20,22,24,26,28,30,32,34,36,38,40,42,44,46,48,50,52,54,56,58,-1,60,-1,-1,-1,-1,-1,-1,-1,-1,-1,-1,-1,-1,-1,-1,-1,-1,-1,-1,-1,-1,-1,-1,-1,-1,-1,-1,-1,-1,-1,-1],"split_conditions":[1.4639954E-1,-2.3050985E-1,6.943825E-1,1.72E1,6.943825E-1,1.023E2,1.9424999E0,1.1505363E-1,3.1700602E-1,1.5310179E-1,-3.67E-1,2.36E1,-5.507324E-1,1.9E1,7.99E1,5.42E0,3.06E1,3.24E1,1.209E2,1.48E0,1.951E2,2.11E1,3.03E-1,2.2300001E1,2.36E1,6.955543E-1,7.8784466E-1,8.389999E0,1.086E1,1.3774297E-2,8.013506E-1,-5.7036937E-3,-1.7949649E-3,-4.556801E-3,-1.1496418E-3,-6.4631924E-3,-4.1860254E-3,-3.3936237E-3,-5.656614E-3,7.706838E-3,-3.5485663E-3,-6.137464E-4,6.552063E-3,1.798413E-3,7.741028E-3,1.7499253E-3,-3.2669397E-3,6.0389917E-3,-3.0216755E-4,1.3793401E-2,4.7317347E-3,8.9403224E-4,-4.2059696E-3,4.4075544E-3,-5.500174E-4,1.4168911E-2,4.063906E-3,2.035245E-3,7.880355E-3,3.2801308E-2,9.201044E-3],"split_indices":[5,5,7,46,7,101,7,7,7,8,68,45,7,49,34,56,39,41,103,56,17,15,66,48,50,2,2,54,56,0,2,0,0,0,0,0,0,0,0,0,0,0,0,0,0,0,0,0,0,0,0,0,0,0,0,0,0,0,0,0,0],"split_type":[0,0,0,0,0,0,0,0,0,0,0,0,0,0,0,0,0,0,0,0,0,0,0,0,0,0,0,0,0,0,0,0,0,0,0,0,0,0,0,0,0,0,0,0,0,0,0,0,0,0,0,0,0,0,0,0,0,0,0,0,0],"sum_hessian":[1.149E3,6.35E2,5.14E2,4.82E2,1.53E2,3.68E2,1.46E2,1.35E2,3.47E2,1.16E2,3.7E1,6.4E1,3.04E2,1.32E2,1.4E1,7.6E1,5.9E1,2.28E2,1.19E2,7.4E1,4.2E1,1.8E1,1.9E1,3E1,3.4E1,1.12E2,1.92E2,4.2E1,9E1,9E0,5E0,6.4E1,1.2E1,2E1,3.9E1,2.17E2,1.1E1,3.8E1,8.1E1,1E0,7.3E1,4.1E1,1E0,8E0,1E1,1.2E1,7E0,2.1E1,9E0,2.6E1,8E0,9.2E1,2E1,1.68E2,2.4E1,3.4E1,8E0,1.3E1,7.7E1,4E0,1E0],"tree_param":{"num_deleted":"0","num_feature":"107","num_nodes":"61","size_leaf_vector":"1"}},{"base_weights":[1.9967328E-3,-3.8041025E-2,5.0303508E-2,-4.8204627E-2,-1.0469667E-2,3.389435E-2,1.0261569E-1,-5.69036E-2,-4.048862E-2,-2.2985237E-2,1.7891705E-2,8.202892E-2,2.4948254E-2,1.9096251E-1,8.44647E-2,-5.7458397E-2,-1.396694E-2,-4.8293445E-2,-1.5329615E-2,-4.430743E-2,-1.29617E-2,1.0560501E-2,6.351223E-2,4.2536587E-2,1.2413989E-1,-7.7759614E-3,3.888591E-2,2.3673055E-1,7.214607E-2,3.3710912E-2,9.273284E-2,-6.130202E-3,-5.0722617E-3,-4.287938E-4,-2.1501973E-3,-1.4130785E-3,-5.258177E-3,-2.5337066E-3,3.9856322E-4,-9.264053E-4,-5.217542E-3,-3.105588E-4,-3.491517E-3,2.485887E-3,-6.167665E-4,8.415732E-3,2.6989083E-3,5.7709413E-3,1.8681512E-4,9.71166E-3,2.1154307E-2,-7.682475E-3,-2.5513076E-4,4.5094304E-3,-6.341924E-4,1.6874636E-2,2.9925173E-2,-3.6690086E-3,9.6400445E-3,1.7620763E-3,9.756129E-3,1.0472327E-2,4.949085E-3],"categories":[],"categories_nodes":[],"categories_segments":[],"categories_sizes":[],"default_left":[0,0,0,0,0,0,0,0,0,0,0,0,0,0,0,0,0,0,0,0,0,0,0,0,0,0,0,0,0,0,0,0,0,0,0,0,0,0,0,0,0,0,0,0,0,0,0,0,0,0,0,0,0,0,0,0,0,0,0,0,0,0,0],"id":24,"left_children":[1,3,5,7,9,11,13,15,17,19,21,23,25,27,29,31,33,35,37,39,41,43,45,47,49,51,53,55,57,59,61,-1,-1,-1,-1,-1,-1,-1,-1,-1,-1,-1,-1,-1,-1,-1,-1,-1,-1,-1,-1,-1,-1,-1,-1,-1,-1,-1,-1,-1,-1,-1,-1],"loss_changes":[2.189375E0,1.7295402E-1,4.368806E-1,2.8034925E-2,6.004431E-2,1.6675514E-1,1.7950737E-1,4.1999817E-3,4.6975553E-2,2.4431374E-2,1.6720854E-2,9.616619E-2,1.5172715E-1,9.1680646E-2,4.009676E-2,2.2497773E-3,1.995273E-4,2.6359588E-2,1.15054725E-2,9.718321E-3,1.7418012E-2,1.1155854E-2,3.0068345E-3,2.0255007E-2,4.795137E-2,3.5879597E-2,6.5710574E-2,9.008706E-3,2.2015214E-2,1.4718689E-2,4.0444255E-2,0E0,0E0,0E0,0E0,0E0,0E0,0E0,0E0,0E0,0E0,0E0,0E0,0E0,0E0,0E0,0E0,0E0,0E0,0E0,0E0,0E0,0E0,0E0,0E0,0E0,0E0,0E0,0E0,0E0,0E0,0E0,0E0],"parents":[2147483647,0,0,1,1,2,2,3,3,4,4,5,5,6,6,7,7,8,8,9,9,10,10,11,11,12,12,13,13,14,14,15,15,16,16,17,17,18,18,19,19,20,20,21,21,22,22,23,23,24,24,25,25,26,26,27,27,28,28,29,29,30,30],"right_children":[2,4,6,8,10,12,14,16,18,20,22,24,26,28,30,32,34,36,38,40,42,44,46,48,50,52,54,56,58,60,62,-1,-1,-1,-1,-1,-1,-1,-1,-1,-1,-1,-1,-1,-1,-1,-1,-1,-1,-1,-1,-1,-1,-1,-1,-1,-1,-1,-1,-1,-1,-1,-1],"split_conditions":[1.4639954E-1,-2.5748858E-1,8.5230297E-1,-2.913225E-1,4.3214208E-1,1.023E2,2.9E1,1.65E1,4.6524072E-1,-9.458782E-1,1.8127587E0,8.695631E-2,-7.090113E-1,2.92E1,3.5746878E-1,-7.51158E-1,1.4857143E0,2.57E1,1.27E1,-3.9E-1,1.308E2,1.0707201E-2,5.33333E-1,2.89E1,2.3800001E1,-1.8456961E0,7.8784466E-1,1.4415796E0,3.2600002E1,1.7096964E0,2.92E1,-6.130202E-3,-5.0722617E-3,-4.287938E-4,-2.1501973E-3,-1.4130785E-3,-5.258177E-3,-2.5337066E-3,3.9856322E-4,-9.264053E-4,-5.217542E-3,-3.105588E-4,-3.491517E-3,2.485887E-3,-6.167665E-4,8.415732E-3,2.6989083E-3,5.7709413E-3,1.8681512E-4,9.71166E-3,2.1154307E-2,-7.682475E-3,-2.5513076E-4,4.5094304E-3,-6.341924E-4,1.6874636E-2,2.9925173E-2,-3.6690086E-3,9.6400445E-3,1.7620763E-3,9.756129E-3,1.0472327E-2,4.949085E-3],"split_indices":[5,5,7,7,7,101,37,28,14,7,79,4,7,24,5,7,3,25,29,88,18,10,0,24,25,7,2,7,18,7,23,0,0,0,0,0,0,0,0,0,0,0,0,0,0,0,0,0,0,0,0,0,0,0,0,0,0,0,0,0,0,0,0],"split_type":[0,0,0,0,0,0,0,0,0,0,0,0,0,0,0,0,0,0,0,0,0,0,0,0,0,0,0,0,0,0,0,0,0,0,0,0,0,0,0,0,0,0,0,0,0,0,0,0,0,0,0,0,0,0,0,0,0,0,0,0,0,0,0],"sum_hessian":[1.13E3,6.18E2,5.12E2,4.51E2,1.67E2,3.91E2,1.21E2,2.09E2,2.42E2,1.16E2,5.1E1,6E1,3.31E2,1.9E1,1.02E2,2.06E2,3E0,1.84E2,5.8E1,3.6E1,8E1,4.5E1,6E0,3.2E1,2.8E1,9.9E1,2.32E2,1.3E1,6E0,1.5E1,8.7E1,1.26E2,8E1,2E0,1E0,2.1E1,1.63E2,3.8E1,2E1,7E0,2.9E1,5.6E1,2.4E1,2.4E1,2.1E1,3E0,3E0,2.3E1,9E0,2.3E1,5E0,6E0,9.3E1,2.04E2,2.8E1,8E0,5E0,1E0,5E0,1.3E1,2E0,6.7E1,2E1],"tree_param":{"num_deleted":"0","num_feature":"107","num_nodes":"63","size_leaf_vector":"1"}},{"base_weights":[-5.132547E-4,-3.2943685E-2,4.6102274E-2,-4.4003103E-2,-1.0530971E-2,4.0813457E-2,1.6977237E-1,-4.9062785E-2,-3.209831E-2,-1.4043827E-2,5.9086755E-2,3.0483851E-2,7.792087E-2,2.156266E-1,9.486469E-3,-5.203082E-2,-3.525233E-2,-5.953279E-2,-2.8520761E-2,-5.903516E-3,-2.9474642E-2,5.3850724E-3,8.900413E-2,6.4781554E-2,2.2012342E-2,2.7078506E-2,9.4961695E-2,2.5919715E-2,7.457887E-3,8.6061953E-4,-5.2300254E-3,-4.860267E-3,-2.2469142E-3,-6.6555436E-3,-9.257083E-4,-1.6762166E-3,-3.6506054E-3,-2.0847127E-3,2.1941622E-4,-3.2963173E-3,2.525969E-3,1.4540356E-3,-1.561803E-3,9.61155E-3,2.3167958E-3,5.7419683E-3,1.22835655E-2,7.556897E-4,3.916878E-3,4.8423125E-3,5.3243194E-4,1.0571204E-2,3.1504766E-3],"categories":[],"categories_nodes":[],"categories_segments":[],"categories_sizes":[],"default_left":[0,0,0,0,0,0,0,0,0,0,0,0,0,0,0,0,0,0,0,0,0,0,0,0,0,0,0,0,0,0,0,0,0,0,0,0,0,0,0,0,0,0,0,0,0,0,0,0,0,0,0,0,0],"id":25,"left_children":[1,3,5,7,9,11,13,15,17,19,21,23,25,27,-1,29,31,33,35,37,39,41,43,45,47,49,51,-1,-1,-1,-1,-1,-1,-1,-1,-1,-1,-1,-1,-1,-1,-1,-1,-1,-1,-1,-1,-1,-1,-1,-1,-1,-1],"loss_changes":[1.7355093E0,1.6734564E-1,3.0113733E-1,2.5711358E-2,5.5855133E-2,1.7126173E-1,4.480642E-2,1.111865E-2,1.1846513E-2,2.6832499E-2,1.7193455E-2,1.02010995E-1,8.233541E-2,4.8270166E-2,0E0,4.6651363E-3,8.976877E-3,4.6799183E-3,1.1031166E-2,1.7228957E-2,1.4962368E-2,1.1885384E-3,1.0505021E-3,2.2863925E-2,7.088113E-2,1.1814889E-2,4.6468973E-2,0E0,0E0,0E0,0E0,0E0,0E0,0E0,0E0,0E0,0E0,0E0,0E0,0E0,0E0,0E0,0E0,0E0,0E0,0E0,0E0,0E0,0E0,0E0,0E0,0E0,0E0],"parents":[2147483647,0,0,1,1,2,2,3,3,4,4,5,5,6,6,7,7,8,8,9,9,10,10,11,11,12,12,13,13,15,15,16,16,17,17,18,18,19,19,20,20,21,21,22,22,23,23,24,24,25,25,26,26],"right_children":[2,4,6,8,10,12,14,16,18,20,22,24,26,28,-1,30,32,34,36,38,40,42,44,46,48,50,52,-1,-1,-1,-1,-1,-1,-1,-1,-1,-1,-1,-1,-1,-1,-1,-1,-1,-1,-1,-1,-1,-1,-1,-1,-1,-1],"split_conditions":[2.3289026E-1,-2.7811944E-1,9.565562E-1,1.267E1,1.8127587E0,1.271E2,-3.21E-1,1.805E1,-1.34E0,2.4E-1,3.05E1,3.27E1,4.4713345E-1,6.7E-1,9.486469E-3,2.1300001E1,3.09E1,2.44E2,8.05E1,-4.4002566E-1,1.698E1,3.5707261E-3,5.3333336E-1,4.68E1,5.677445E-1,-1.1E-1,8.8E0,2.5919715E-2,7.457887E-3,8.6061953E-4,-5.2300254E-3,-4.860267E-3,-2.2469142E-3,-6.6555436E-3,-9.257083E-4,-1.6762166E-3,-3.6506054E-3,-2.0847127E-3,2.1941622E-4,-3.2963173E-3,2.525969E-3,1.4540356E-3,-1.561803E-3,9.61155E-3,2.3167958E-3,5.7419683E-3,1.22835655E-2,7.556897E-4,3.916878E-3,4.8423125E-3,5.3243194E-4,1.0571204E-2,3.1504766E-3],"split_indices":[5,5,5,55,79,102,70,52,95,90,15,35,5,98,0,22,39,18,36,10,53,5,1,36,5,96,28,0,0,0,0,0,0,0,0,0,0,0,0,0,0,0,0,0,0,0,0,0,0,0,0,0,0],"split_type":[0,0,0,0,0,0,0,0,0,0,0,0,0,0,0,0,0,0,0,0,0,0,0,0,0,0,0,0,0,0,0,0,0,0,0,0,0,0,0,0,0,0,0,0,0,0,0,0,0,0,0,0,0],"sum_hessian":[1.146E3,6.76E2,4.7E2,4.52E2,2.24E2,4.52E2,1.8E1,3.15E2,1.37E2,2.14E2,1E1,3.55E2,9.7E1,1E1,8E0,2.57E2,5.8E1,1.4E1,1.23E2,1.41E2,7.3E1,4E0,6E0,6.9E1,2.86E2,2.5E1,7.2E1,7E0,3E0,1E0,2.56E2,2.7E1,3.1E1,1.2E1,2E0,5.1E1,7.2E1,4.9E1,9.2E1,6.9E1,4E0,3E0,1E0,5E0,1E0,6.3E1,6E0,1.56E2,1.3E2,1.2E1,1.3E1,6.1E1,1.1E1],"tree_param":{"num_deleted":"0","num_feature":"107","num_nodes":"53","size_leaf_vector":"1"}},{"base_weights":[2.9616136E-4,-3.1007448E-2,4.1361194E-2,-3.8415983E-2,-7.2027296E-3,8.297769E-2,2.5383102E-2,-4.3813698E-2,-2.8283611E-2,-2.3703218E-2,2.7733813E-3,3.001145E-2,1.02325864E-1,4.6595257E-2,1.5162188E-2,-4.6545967E-2,-2.8918238E-2,-1.9759536E-2,-3.6001958E-2,2.5834048E-2,-3.1155115E-2,1.437235E-2,-1.8459247E-2,6.165729E-2,8.068012E-3,1.9500335E-1,8.943186E-2,3.731699E-2,7.102122E-2,6.2980377E-3,3.9024685E-2,-4.564646E-3,-9.315229E-3,1.6471148E-4,-3.464312E-3,-2.4192503E-3,3.8166883E-4,2.2435035E-3,-3.762183E-3,3.102467E-3,-5.250145E-4,-3.512888E-3,2.3325395E-3,2.479532E-5,3.391967E-3,-2.941501E-3,1.5012124E-4,7.902998E-3,-5.875073E-4,-4.49254E-3,2.528426E-3,2.2673264E-2,3.4814358E-3,7.41914E-3,1.4373188E-2,4.1723587E-3,-1.7116081E-3,8.058271E-3,7.097212E-4,2.4556306E-3,-6.52617E-4,5.636969E-3,1.3167841E-3],"categories":[],"categories_nodes":[],"categories_segments":[],"categories_sizes":[],"default_left":[0,0,0,0,0,0,0,0,0,0,0,0,0,0,0,0,0,0,0,0,0,0,0,0,0,0,0,0,0,0,0,0,0,0,0,0,0,0,0,0,0,0,0,0,0,0,0,0,0,0,0,0,0,0,0,0,0,0,0,0,0,0,0],"id":26,"left_children":[1,3,5,7,9,11,13,15,17,19,21,23,25,27,29,31,33,35,37,39,41,43,45,47,49,51,53,55,57,59,61,-1,-1,-1,-1,-1,-1,-1,-1,-1,-1,-1,-1,-1,-1,-1,-1,-1,-1,-1,-1,-1,-1,-1,-1,-1,-1,-1,-1,-1,-1,-1,-1],"loss_changes":[1.429455E0,1.1100519E-1,3.177358E-1,2.5067568E-2,2.4921954E-2,1.3322741E-1,7.495935E-2,1.1351883E-2,1.0473222E-2,2.184622E-2,2.3661578E-2,2.5196034E-2,9.8474026E-2,2.2958979E-2,4.9884636E-2,6.7316294E-3,8.981194E-3,8.766882E-3,9.174168E-3,1.4536539E-3,1.1644028E-2,1.7109424E-2,7.479348E-3,1.8062584E-2,2.2119902E-2,4.8015982E-2,6.1333776E-2,2.086278E-2,1.776436E-2,4.0901978E-2,2.7960904E-2,0E0,0E0,0E0,0E0,0E0,0E0,0E0,0E0,0E0,0E0,0E0,0E0,0E0,0E0,0E0,0E0,0E0,0E0,0E0,0E0,0E0,0E0,0E0,0E0,0E0,0E0,0E0,0E0,0E0,0E0,0E0,0E0],"parents":[2147483647,0,0,1,1,2,2,3,3,4,4,5,5,6,6,7,7,8,8,9,9,10,10,11,11,12,12,13,13,14,14,15,15,16,16,17,17,18,18,19,19,20,20,21,21,22,22,23,23,24,24,25,25,26,26,27,27,28,28,29,29,30,30],"right_children":[2,4,6,8,10,12,14,16,18,20,22,24,26,28,30,32,34,36,38,40,42,44,46,48,50,52,54,56,58,60,62,-1,-1,-1,-1,-1,-1,-1,-1,-1,-1,-1,-1,-1,-1,-1,-1,-1,-1,-1,-1,-1,-1,-1,-1,-1,-1,-1,-1,-1,-1,-1,-1],"split_conditions":[2.3289026E-1,-1.9718312E-1,3.87E1,2.7800001E1,1.008E2,6.0107124E-1,3.6600002E1,1.805E1,1.959E3,-1.643E0,1.521737E-1,-2.07E-1,-6.4444447E-1,1.2400001E1,6.597897E-1,-7.294833E-2,2.5300001E1,2.7E-2,-2.689E0,1.133333E0,1.44E2,-2.4E-1,3.63E1,3E-1,1.953E3,8.3200005E1,5.92E1,9.92E1,1.5555556E-1,1.947E3,1.37E1,-4.564646E-3,-9.315229E-3,1.6471148E-4,-3.464312E-3,-2.4192503E-3,3.8166883E-4,2.2435035E-3,-3.762183E-3,3.102467E-3,-5.250145E-4,-3.512888E-3,2.3325395E-3,2.479532E-5,3.391967E-3,-2.941501E-3,1.5012124E-4,7.902998E-3,-5.875073E-4,-4.49254E-3,2.528426E-3,2.2673264E-2,3.4814358E-3,7.41914E-3,1.4373188E-2,4.1723587E-3,-1.7116081E-3,8.058271E-3,7.097212E-4,2.4556306E-3,-6.52617E-4,5.636969E-3,1.3167841E-3],"split_indices":[5,5,37,61,103,5,35,52,106,63,4,72,1,27,5,6,37,74,68,0,100,71,44,96,106,38,18,103,1,106,30,0,0,0,0,0,0,0,0,0,0,0,0,0,0,0,0,0,0,0,0,0,0,0,0,0,0,0,0,0,0,0,0],"split_type":[0,0,0,0,0,0,0,0,0,0,0,0,0,0,0,0,0,0,0,0,0,0,0,0,0,0,0,0,0,0,0,0,0,0,0,0,0,0,0,0,0,0,0,0,0,0,0,0,0,0,0,0,0,0,0,0,0,0,0,0,0,0,0],"sum_hessian":[1.11E3,6.3E2,4.8E2,4.8E2,1.5E2,1.32E2,3.48E2,3.11E2,1.69E2,5.6E1,9.4E1,3.6E1,9.6E1,1.12E2,2.36E2,2.61E2,5E1,8.2E1,8.7E1,7E0,4.9E1,6.1E1,3.3E1,1.4E1,2.2E1,1E1,8.6E1,8.3E1,2.9E1,1.73E2,6.3E1,2.58E2,3E0,8E0,4.2E1,6.9E1,1.3E1,2E0,8.5E1,6E0,1E0,4.6E1,3E0,3.6E1,2.5E1,2.1E1,1.2E1,1.1E1,3E0,5E0,1.7E1,8E0,2E0,6.9E1,1.7E1,7.7E1,6E0,2.5E1,4E0,7.1E1,1.02E2,3.7E1,2.6E1],"tree_param":{"num_deleted":"0","num_feature":"107","num_nodes":"63","size_leaf_vector":"1"}},{"base_weights":[1.8299093E-3,-2.8707063E-2,3.778312E-2,-3.4541395E-2,-6.1482405E-3,9.450724E-3,5.991577E-2,-4.072339E-2,-2.5525853E-2,-2.0057114E-2,1.8249117E-2,3.9939992E-2,-1.4808318E-3,5.3930033E-2,1.5427577E-1,-4.1829538E-2,-1.7729184E-2,-2.9294584E-2,2.3410622E-2,-3.910033E-2,-9.458771E-3,9.57984E-3,8.80736E-3,-6.199425E-3,4.444614E-2,1.326922E-2,-1.587478E-2,4.194954E-2,7.848984E-2,2.2944315E-1,1.0383576E-1,-4.32308E-3,-2.374993E-3,1.4382515E-3,-3.5223283E-3,-1.6523412E-3,-3.4186058E-3,-1.4824029E-4,4.537732E-3,-1.9436324E-3,-5.6157648E-3,-1.4669305E-3,1.2243252E-3,-6.550783E-4,3.7912612E-3,9.503306E-4,5.5106063E-3,-5.8900163E-4,2.2289727E-3,-2.7370332E-3,8.060126E-4,7.420978E-3,3.3067146E-3,6.1950237E-3,1.2988425E-2,2.5315864E-2,5.543289E-3,1.1453609E-2,3.3556104E-3],"categories":[],"categories_nodes":[],"categories_segments":[],"categories_sizes":[],"default_left":[0,0,0,0,0,0,0,0,0,0,0,0,0,0,0,0,0,0,0,0,0,0,0,0,0,0,0,0,0,0,0,0,0,0,0,0,0,0,0,0,0,0,0,0,0,0,0,0,0,0,0,0,0,0,0,0,0,0,0],"id":27,"left_children":[1,3,5,7,9,11,13,15,17,19,21,23,25,27,29,31,33,35,37,39,41,-1,43,-1,45,47,49,51,53,55,57,-1,-1,-1,-1,-1,-1,-1,-1,-1,-1,-1,-1,-1,-1,-1,-1,-1,-1,-1,-1,-1,-1,-1,-1,-1,-1,-1,-1],"loss_changes":[1.2526932E0,8.099443E-2,3.2801902E-1,2.627021E-2,4.380151E-2,7.705033E-2,1.5773535E-1,6.609082E-3,3.794034E-2,1.6179934E-2,3.356973E-2,3.0774578E-2,3.6515906E-2,7.8505695E-2,4.0630132E-2,5.9402287E-3,8.9330785E-3,1.1179462E-2,8.269531E-3,8.635543E-3,6.285872E-3,0E0,1.946947E-2,0E0,2.145309E-2,1.4821498E-2,2.4158213E-2,5.170369E-2,6.8457544E-2,1.07271075E-2,5.180791E-3,0E0,0E0,0E0,0E0,0E0,0E0,0E0,0E0,0E0,0E0,0E0,0E0,0E0,0E0,0E0,0E0,0E0,0E0,0E0,0E0,0E0,0E0,0E0,0E0,0E0,0E0,0E0,0E0],"parents":[2147483647,0,0,1,1,2,2,3,3,4,4,5,5,6,6,7,7,8,8,9,9,10,10,11,11,12,12,13,13,14,14,15,15,16,16,17,17,18,18,19,19,20,20,22,22,24,24,25,25,26,26,27,27,28,28,29,29,30,30],"right_children":[2,4,6,8,10,12,14,16,18,20,22,24,26,28,30,32,34,36,38,40,42,-1,44,-1,46,48,50,52,54,56,58,-1,-1,-1,-1,-1,-1,-1,-1,-1,-1,-1,-1,-1,-1,-1,-1,-1,-1,-1,-1,-1,-1,-1,-1,-1,-1,-1,-1],"split_conditions":[1.4639954E-1,-1.9718312E-1,-2.2063695E-2,1.2307323E-1,2.344525E-1,1.87E1,1.9003941E0,8.75E1,2.0695195E0,-8.040815E-1,6.8571484E-1,2.34E1,4.12E1,7.327911E-1,-3.7E-1,1.5930516E0,-3.81E-1,2.36E1,2E-2,1.4E-1,3.24E1,9.57984E-3,1.1267071E0,-6.199425E-3,-1.17194E0,-9.458782E-1,2.42E1,3.27E1,5.05E1,2.6666632E-1,1.346E0,-4.32308E-3,-2.374993E-3,1.4382515E-3,-3.5223283E-3,-1.6523412E-3,-3.4186058E-3,-1.4824029E-4,4.537732E-3,-1.9436324E-3,-5.6157648E-3,-1.4669305E-3,1.2243252E-3,-6.550783E-4,3.7912612E-3,9.503306E-4,5.5106063E-3,-5.8900163E-4,2.2289727E-3,-2.7370332E-3,8.060126E-4,7.420978E-3,3.3067146E-3,6.1950237E-3,1.2988425E-2,2.5315864E-2,5.543289E-3,1.1453609E-2,3.3556104E-3],"split_indices":[5,5,7,7,7,49,7,20,14,7,3,47,35,5,94,79,65,22,92,90,41,0,7,0,7,7,47,35,18,0,67,0,0,0,0,0,0,0,0,0,0,0,0,0,0,0,0,0,0,0,0,0,0,0,0,0,0,0,0],"split_type":[0,0,0,0,0,0,0,0,0,0,0,0,0,0,0,0,0,0,0,0,0,0,0,0,0,0,0,0,0,0,0,0,0,0,0,0,0,0,0,0,0,0,0,0,0,0,0,0,0,0,0,0,0,0,0,0,0,0,0],"sum_hessian":[1.139E3,6.16E2,5.23E2,4.89E2,1.27E2,2.3E2,2.93E2,2.88E2,2.01E2,8.1E1,4.6E1,6E1,1.7E2,2.77E2,1.6E1,2.74E2,1.4E1,1.87E2,1.4E1,2.8E1,5.3E1,4E0,4.2E1,2E0,5.8E1,8.4E1,8.6E1,1.88E2,8.9E1,5E0,1.1E1,2.53E2,2.1E1,5E0,9E0,5.3E1,1.34E2,7E0,7E0,1.4E1,1.4E1,4.3E1,1E1,2.8E1,1.4E1,1.4E1,4.4E1,2.7E1,5.7E1,5.8E1,2.8E1,3.9E1,1.49E2,6.9E1,2E1,4E0,1E0,9E0,2E0],"tree_param":{"num_deleted":"0","num_feature":"107","num_nodes":"59","size_leaf_vector":"1"}},{"base_weights":[3.482414E-5,-2.4269179E-2,3.4709167E-2,-3.0787162E-2,-3.6953087E-3,5.211445E-3,4.9392585E-2,-3.4367368E-2,-1.5548947E-2,-2.02611E-2,1.6888985E-2,-8.197064E-3,3.471333E-2,7.843225E-2,3.567852E-2,-3.8416423E-2,-2.682175E-2,3.215306E-2,-2.1469565E-2,2.6710709E-3,-2.5789522E-2,9.446841E-3,7.431502E-2,-3.1986665E-2,-4.5969678E-4,1.6514452E-2,6.4127326E-2,1.963611E-2,8.9803874E-2,5.374543E-2,1.7953563E-2,-3.3443687E-3,-4.224314E-3,-3.975161E-3,-1.8042168E-3,-2.4249741E-4,4.5422944E-3,9.630487E-4,-2.5688396E-3,-9.4365416E-4,1.3300815E-3,-2.9405716E-3,1.828689E-3,1.7060954E-3,-5.499108E-3,1.0120526E-3,9.402643E-3,-1.3037423E-3,-5.664132E-3,1.8669136E-3,-1.399971E-3,-2.3647877E-3,2.9213792E-3,1.1597506E-2,4.1029756E-3,-1.0968719E-3,4.805915E-3,1.3039978E-2,7.042316E-3,4.504143E-3,9.512795E-3,3.7776947E-3,1.7956323E-4],"categories":[],"categories_nodes":[],"categories_segments":[],"categories_sizes":[],"default_left":[0,0,0,0,0,0,0,0,0,0,0,0,0,0,0,0,0,0,0,0,0,0,0,0,0,0,0,0,0,0,0,0,0,0,0,0,0,0,0,0,0,0,0,0,0,0,0,0,0,0,0,0,0,0,0,0,0,0,0,0,0,0,0],"id":28,"left_children":[1,3,5,7,9,11,13,15,17,19,21,23,25,27,29,31,33,35,37,39,41,43,45,47,49,51,53,55,57,59,61,-1,-1,-1,-1,-1,-1,-1,-1,-1,-1,-1,-1,-1,-1,-1,-1,-1,-1,-1,-1,-1,-1,-1,-1,-1,-1,-1,-1,-1,-1,-1,-1],"loss_changes":[9.3458205E-1,8.731955E-2,1.9768178E-1,2.647078E-2,5.4219414E-2,6.080772E-2,1.1866844E-1,1.1190683E-2,2.7803143E-2,1.122541E-2,2.9641427E-2,1.9496597E-2,2.4635449E-2,6.3091576E-2,6.596422E-2,3.496766E-3,1.5515976E-2,5.1574605E-3,1.1531092E-2,2.4421283E-3,1.1854358E-2,3.2339014E-2,9.171315E-3,1.14084035E-2,2.124074E-2,1.6501931E-2,1.6797595E-2,1.5315145E-2,5.454588E-2,3.2815248E-2,3.4204785E-2,0E0,0E0,0E0,0E0,0E0,0E0,0E0,0E0,0E0,0E0,0E0,0E0,0E0,0E0,0E0,0E0,0E0,0E0,0E0,0E0,0E0,0E0,0E0,0E0,0E0,0E0,0E0,0E0,0E0,0E0,0E0,0E0],"parents":[2147483647,0,0,1,1,2,2,3,3,4,4,5,5,6,6,7,7,8,8,9,9,10,10,11,11,12,12,13,13,14,14,15,15,16,16,17,17,18,18,19,19,20,20,21,21,22,22,23,23,24,24,25,25,26,26,27,27,28,28,29,29,30,30],