{"learner":{"attributes":{"best_iteration":"17","best_score":"0.2327752132495608","scikit_learn":"{\"_estimator_type\": \"regressor\"}"},"feature_names":["tmp","dtr","cld","tmx","tmn","pre","wet","vap","soi","dmi","pdo","nino4","nino34","nino3","pet","spei_lag_1","spei_lag_2","spei_lag_3","spei_lag_4","spei_lag_5","spei_lag_6","spei_lag_7","spei_lag_8","spei_lag_9","spei_lag_10","spei_lag_11","spei_lag_12","tmp_lag_1","tmp_lag_2","tmp_lag_3","tmp_lag_4","tmp_lag_5","tmp_lag_6","tmp_lag_7","tmp_lag_8","tmp_lag_9","tmp_lag_10","tmp_lag_11","tmp_lag_12","dtr_lag_1","dtr_lag_2","dtr_lag_3","dtr_lag_4","dtr_lag_5","dtr_lag_6","dtr_lag_7","dtr_lag_8","dtr_lag_9","dtr_lag_10","dtr_lag_11","dtr_lag_12","cld_lag_1","cld_lag_2","cld_lag_3","cld_lag_4","cld_lag_5","cld_lag_6","cld_lag_7","cld_lag_8","cld_lag_9","cld_lag_10","cld_lag_11","cld_lag_12","tmx_lag_1","tmx_lag_2","tmx_lag_3","tmx_lag_4","tmx_lag_5","tmx_lag_6","tmx_lag_7","tmx_lag_8","tmx_lag_9","tmx_lag_10","tmx_lag_11","tmx_lag_12","tmn_lag_1","tmn_lag_2","tmn_lag_3","tmn_lag_4","tmn_lag_5","tmn_lag_6","tmn_lag_7","tmn_lag_8","tmn_lag_9","tmn_lag_10","tmn_lag_11","tmn_lag_12","wet_lag_1","wet_lag_2","wet_lag_3","wet_lag_4","wet_lag_5","wet_lag_6","wet_lag_7","wet_lag_8","wet_lag_9","wet_lag_10","wet_lag_11","wet_lag_12","vap_lag_1","vap_lag_2","vap_lag_3","vap_lag_4","vap_lag_5","vap_lag_6","vap_lag_7","vap_lag_8","vap_lag_9","vap_lag_10","vap_lag_11","vap_lag_12","soi_lag_1","soi_lag_2","soi_lag_3","soi_lag_4","soi_lag_5","soi_lag_6","soi_lag_7","soi_lag_8","soi_lag_9","soi_lag_10","soi_lag_11","soi_lag_12","dmi_lag_1","dmi_lag_2","dmi_lag_3","dmi_lag_4","dmi_lag_5","dmi_lag_6","dmi_lag_7","dmi_lag_8","dmi_lag_9","dmi_lag_10","dmi_lag_11","dmi_lag_12","pdo_lag_1","pdo_lag_2","pdo_lag_3","pdo_lag_4","pdo_lag_5","pdo_lag_6","pdo_lag_7","pdo_lag_8","pdo_lag_9","pdo_lag_10","pdo_lag_11","pdo_lag_12","nino4_lag_1","nino4_lag_2","nino4_lag_3","nino4_lag_4","nino4_lag_5","nino4_lag_6","nino4_lag_7","nino4_lag_8","nino4_lag_9","nino4_lag_10","nino4_lag_11","nino4_lag_12","nino34_lag_1","nino34_lag_2","nino34_lag_3","nino34_lag_4","nino34_lag_5","nino34_lag_6","nino34_lag_7","nino34_lag_8","nino34_lag_9","nino34_lag_10","nino34_lag_11","nino34_lag_12","nino3_lag_1","nino3_lag_2","nino3_lag_3","nino3_lag_4","nino3_lag_5","nino3_lag_6","nino3_lag_7","nino3_lag_8","nino3_lag_9","nino3_lag_10","nino3_lag_11","nino3_lag_12","pre_lag_1","pre_lag_2","pre_lag_3","pre_lag_4","pre_lag_5","pre_lag_6","pre_lag_7","pre_lag_8","pre_lag_9","pre_lag_10","pre_lag_11","pre_lag_12","pet_lag_1","pet_lag_2","pet_lag_3","pet_lag_4","pet_lag_5","pet_lag_6","pet_lag_7","pet_lag_8","pet_lag_9","pet_lag_10","pet_lag_11","pet_lag_12","month","year"],"feature_types":["float","float","float","float","float","float","float","float","float","float","float","float","float","float","float","float","float","float","float","float","float","float","float","float","float","float","float","float","float","float","float","float","float","float","float","float","float","float","float","float","float","float","float","float","float","float","float","float","float","float","float","float","float","float","float","float","float","float","float","float","float","float","float","float","float","float","float","float","float","float","float","float","float","float","float","float","float","float","float","float","float","float","float","float","float","float","float","float","float","float","float","float","float","float","float","float","float","float","float","float","float","float","float","float","float","float","float","float","float","float","float","float","float","float","float","float","float","float","float","float","float","float","float","float","float","float","float","float","float","float","float","float","float","float","float","float","float","float","float","float","float","float","float","float","float","float","float","float","float","float","float","float","float","float","float","float","float","float","float","float","float","float","float","float","float","float","float","float","float","float","float","float","float","float","float","float","float","float","float","float","float","float","float","float","float","float","float","float","float","float","float","float","float","float","float","float","float","float","float","float","float","float","float","float","float","float","float","int","int"],"gradient_booster":{"model":{"gbtree_model_param":{"num_parallel_tree":"1","num_trees":"28"},"iteration_indptr":[0,1,2,3,4,5,6,7,8,9,10,11,12,13,14,15,16,17,18,19,20,21,22,23,24,25,26,27,28],"tree_info":[0,0,0,0,0,0,0,0,0,0,0,0,0,0,0,0,0,0,0,0,0,0,0,0,0,0,0,0],"trees":[{"base_weights":[-2.4504776E-3,-1.1725734E-1,5.461496E-1,-3.9151177E-1,-1.8707434E-2,4.250324E-1,1.084224E0,-6.7392886E-1,-1.0591161E-1,-5.0964236E-1,9.6527666E-2,5.5033004E-1,2.2337836E-1,7.748096E-1,1.2536046E-1,-2.6141457E-2,-7.127941E-1,-4.5941013E-1,1.3060053E-2,-3.3308357E-1,-9.7935665E-1,1.7668682E-1,-3.3578283E-1,4.5054802E-1,7.960329E-1,4.2145144E-2,4.796662E-1,8.678774E-2,4.1509863E-2,-2.067532E-2,2.0615859E-2,-9.076655E-2,-5.514118E-2,-6.2532865E-2,-3.0483961E-2,2.7885789E-2,-7.322741E-3,-5.653272E-2,-8.906232E-3,-4.9558345E-2,-1.0826006E-1,-4.0850653E-3,3.140218E-2,-5.162102E-2,-5.2970503E-3,2.7331844E-2,5.8549877E-2,3.173529E-2,8.426449E-2,2.3646882E-2,-6.836191E-3,5.731213E-2,7.262894E-3],"categories":[],"categories_nodes":[],"categories_segments":[],"categories_sizes":[],"default_left":[0,0,0,0,0,0,0,0,0,0,0,0,0,0,0,0,0,0,0,0,0,0,0,0,0,0,0,0,0,0,0,0,0,0,0,0,0,0,0,0,0,0,0,0,0,0,0,0,0,0,0,0,0],"id":0,"left_children":[1,3,5,7,9,11,13,15,17,19,21,23,25,27,-1,29,31,33,35,37,39,41,43,45,47,49,51,-1,-1,-1,-1,-1,-1,-1,-1,-1,-1,-1,-1,-1,-1,-1,-1,-1,-1,-1,-1,-1,-1,-1,-1,-1,-1],"loss_changes":[7.060506E1,2.5047401E1,1.2182171E1,1.9689919E1,3.8688507E1,3.9197502E0,8.6299896E-1,3.0780678E0,5.1789255E0,1.0454979E1,1.9257446E1,2.043991E0,2.9060004E0,1.4190865E-1,0E0,3.7827283E-1,3.147564E0,6.044049E-1,2.153377E0,5.3901987E0,1.2116127E0,1.3994561E1,4.412011E0,1.5620146E0,3.3501434E-1,8.321826E-1,9.474077E-1,0E0,0E0,0E0,0E0,0E0,0E0,0E0,0E0,0E0,0E0,0E0,0E0,0E0,0E0,0E0,0E0,0E0,0E0,0E0,0E0,0E0,0E0,0E0,0E0,0E0,0E0],"parents":[2147483647,0,0,1,1,2,2,3,3,4,4,5,5,6,6,7,7,8,8,9,9,10,10,11,11,12,12,13,13,15,15,16,16,17,17,18,18,19,19,20,20,21,21,22,22,23,23,24,24,25,25,26,26],"right_children":[2,4,6,8,10,12,14,16,18,20,22,24,26,28,-1,30,32,34,36,38,40,42,44,46,48,50,52,-1,-1,-1,-1,-1,-1,-1,-1,-1,-1,-1,-1,-1,-1,-1,-1,-1,-1,-1,-1,-1,-1,-1,-1,-1,-1],"split_conditions":[4.9197862E-1,2.91E1,6.971925E-1,3.5895723E-1,-7.386364E-1,1.11E1,2.2E0,-5.833325E-1,2.06E1,8.0213904E-1,1.2857132E0,2.8300001E1,6.0093576E-1,5.47E1,1.2536046E-1,-4.1255084E-1,2.3529412E-1,2.2E0,1.701E1,1.2E1,2.29E1,7.6E1,-2.9411766E-1,5.454545E-1,2.19E1,-6.8E-1,2.7800001E1,8.678774E-2,4.1509863E-2,-2.067532E-2,2.0615859E-2,-9.076655E-2,-5.514118E-2,-6.2532865E-2,-3.0483961E-2,2.7885789E-2,-7.322741E-3,-5.653272E-2,-8.906232E-3,-4.9558345E-2,-1.0826006E-1,-4.0850653E-3,3.140218E-2,-5.162102E-2,-5.2970503E-3,2.7331844E-2,5.8549877E-2,3.173529E-2,8.426449E-2,2.3646882E-2,-6.836191E-3,5.731213E-2,7.262894E-3],"split_indices":[6,105,6,6,6,46,94,0,82,14,3,105,6,56,0,9,6,95,97,207,109,57,6,6,107,168,105,0,0,0,0,0,0,0,0,0,0,0,0,0,0,0,0,0,0,0,0,0,0,0,0,0,0],"split_type":[0,0,0,0,0,0,0,0,0,0,0,0,0,0,0,0,0,0,0,0,0,0,0,0,0,0,0,0,0,0,0,0,0,0,0,0,0,0,0,0,0,0,0,0,0,0,0,0,0,0,0,0,0],"sum_hessian":[1.119E3,9.26E2,1.93E2,2.44E2,6.82E2,1.59E2,3.4E1,1.22E2,1.22E2,1.29E2,5.53E2,9.7E1,6.2E1,1.4E1,2E1,7E0,1.15E2,3E1,9.2E1,9.5E1,3.4E1,4.67E2,8.6E1,7.1E1,2.6E1,3.7E1,2.5E1,1E1,4E0,4E0,3E0,5E1,6.5E1,1.3E1,1.7E1,2.2E1,7E1,4.8E1,4.7E1,7E0,2.7E1,1.81E2,2.86E2,5.2E1,3.4E1,3.2E1,3.9E1,3E0,2.3E1,1.3E1,2.4E1,2E1,5E0],"tree_param":{"num_deleted":"0","num_feature":"209","num_nodes":"53","size_leaf_vector":"1"}},{"base_weights":[4.6033333E-3,-1.14226036E-1,6.396994E-1,-4.9561846E-1,-2.887658E-2,4.4254774E-1,9.479483E-1,-3.4529752E-1,-7.8756523E-1,-3.0904815E-1,2.0422015E-1,8.041925E-1,3.755707E-1,8.172144E-2,1.1954029E-1,-4.9264184E-1,6.509669E-2,-8.730419E-1,-3.5074982E-1,-6.619548E-1,-1.2350016E-1,-2.2451738E-2,4.8192236E-1,1.2229553E-2,8.414993E-2,2.653697E-1,5.2135235E-1,-4.034413E-2,-7.41032E-2,1.4718364E-2,-5.2578617E-2,-1.0115571E-1,-6.533777E-2,-6.110977E-2,8.388715E-3,-8.923799E-2,-5.1487368E-2,2.389913E-2,-2.7583508E-2,4.375065E-2,-2.7543245E-2,1.7475134E-2,6.727185E-2,1.588515E-2,3.8683753E-2,5.271337E-2,1.5083054E-2],"categories":[],"categories_nodes":[],"categories_segments":[],"categories_sizes":[],"default_left":[0,0,0,0,0,0,0,0,0,0,0,0,0,0,0,0,0,0,0,0,0,0,0,0,0,0,0,0,0,0,0,0,0,0,0,0,0,0,0,0,0,0,0,0,0,0,0],"id":1,"left_children":[1,3,5,7,9,11,13,15,17,19,21,23,25,-1,-1,27,29,31,33,35,37,39,41,-1,-1,43,45,-1,-1,-1,-1,-1,-1,-1,-1,-1,-1,-1,-1,-1,-1,-1,-1,-1,-1,-1,-1],"loss_changes":[8.331434E1,3.0258707E1,1.015477E1,7.1886253E0,4.97618E1,2.3139343E0,1.1905975E0,6.9255657E0,1.8220215E0,2.2574718E1,2.619689E1,3.0411816E-1,1.3557196E0,0E0,0E0,1.5621853E0,1.581004E0,7.691307E-1,1.2959881E0,3.5735855E0,1.2656105E1,2.6883432E1,1.0841961E1,0E0,0E0,6.5016985E-1,4.0359497E-3,0E0,0E0,0E0,0E0,0E0,0E0,0E0,0E0,0E0,0E0,0E0,0E0,0E0,0E0,0E0,0E0,0E0,0E0,0E0,0E0],"parents":[2147483647,0,0,1,1,2,2,3,3,4,4,5,5,6,6,7,7,8,8,9,9,10,10,11,11,12,12,15,15,16,16,17,17,18,18,19,19,20,20,21,21,22,22,25,25,26,26],"right_children":[2,4,6,8,10,12,14,16,18,20,22,24,26,-1,-1,28,30,32,34,36,38,40,42,-1,-1,44,46,-1,-1,-1,-1,-1,-1,-1,-1,-1,-1,-1,-1,-1,-1,-1,-1,-1,-1,-1,-1],"split_conditions":[7.92973E-1,-5.036036E-1,1.1021622E0,-7.5E-1,6.34E1,8.2E1,1.436937E0,-5.345946E-1,2.0109999E1,3E-1,-3.0216217E-1,-6.071426E-1,9.5405406E-1,8.172144E-2,1.1954029E-1,5.240642E-1,3.7E-1,1.08E1,1.979E3,-3.9285702E-1,8.26E1,2.6E1,7.55E1,1.2229553E-2,8.414993E-2,8.48E1,2.393316E0,-4.034413E-2,-7.41032E-2,1.4718364E-2,-5.2578617E-2,-1.0115571E-1,-6.533777E-2,-6.110977E-2,8.388715E-3,-8.923799E-2,-5.1487368E-2,2.389913E-2,-2.7583508E-2,4.375065E-2,-2.7543245E-2,1.7475134E-2,6.727185E-2,1.588515E-2,3.8683753E-2,5.271337E-2,1.5083054E-2],"split_indices":[5,5,5,0,56,62,5,5,90,5,5,1,5,0,0,14,151,39,208,1,62,110,56,0,0,61,24,0,0,0,0,0,0,0,0,0,0,0,0,0,0,0,0,0,0,0,0],"split_type":[0,0,0,0,0,0,0,0,0,0,0,0,0,0,0,0,0,0,0,0,0,0,0,0,0,0,0,0,0,0,0,0,0,0,0,0,0,0,0,0,0,0,0,0,0,0,0],"sum_hessian":[1.102E3,9.29E2,1.73E2,1.69E2,7.6E2,1.07E2,6.6E1,1.13E2,5.6E1,3.45E2,4.15E2,1.5E1,9.2E1,4.6E1,2E1,8.3E1,3E1,4.6E1,1E1,1.18E2,2.27E2,2.29E2,1.86E2,1E0,1.4E1,5.4E1,3.8E1,6.3E1,2E1,2.7E1,3E0,2.6E1,2E1,6E0,4E0,4.4E1,7.4E1,6.7E1,1.6E2,8.1E1,1.48E2,7.2E1,1.14E2,3E1,2.4E1,3.7E1,1E0],"tree_param":{"num_deleted":"0","num_feature":"209","num_nodes":"47","size_leaf_vector":"1"}},{"base_weights":[2.7811716E-3,-1.1356414E-1,5.5194074E-1,-4.9087825E-1,-4.49922E-2,3.9600053E-1,8.674364E-1,-3.61404E-1,-8.169166E-1,-2.8691292E-1,1.6930588E-1,3.382253E-1,6.394891E-1,6.934147E-2,9.954722E-2,-1.4676923E-1,-4.530506E-1,-8.467049E-1,1.5752036E-2,-4.540413E-1,-1.7458113E-2,-1.2469274E-2,4.6843576E-1,2.4859104E-1,4.7863763E-2,7.6302195E-1,3.4882084E-2,-3.5641775E-2,8.5155405E-3,-5.867514E-2,-2.8131176E-2,-1.5693313E-2,-8.806663E-2,-6.0379982E-2,-2.1127447E-2,-1.6191019E-2,3.6078725E-2,4.154923E-2,-2.352394E-2,6.548625E-2,1.7823327E-2,4.193204E-2,1.8799508E-2,2.2520328E-2,7.83863E-2],"categories":[],"categories_nodes":[],"categories_segments":[],"categories_sizes":[],"default_left":[0,0,0,0,0,0,0,0,0,0,0,0,0,0,0,0,0,0,0,0,0,0,0,0,0,0,0,0,0,0,0,0,0,0,0,0,0,0,0,0,0,0,0,0,0],"id":2,"left_children":[1,3,5,7,9,11,13,15,17,19,21,23,25,-1,-1,27,29,31,-1,33,35,37,39,41,-1,43,-1,-1,-1,-1,-1,-1,-1,-1,-1,-1,-1,-1,-1,-1,-1,-1,-1,-1,-1],"loss_changes":[7.053572E1,2.3548367E1,9.151794E0,5.614662E0,4.007148E1,1.6265659E0,7.134285E-1,1.9399023E0,1.2654209E0,1.633925E1,2.2299332E1,1.2402754E0,5.956125E-1,0E0,0E0,1.5862758E0,1.4652147E0,7.519684E-1,0E0,8.016266E0,7.7077804E0,2.4504026E1,8.269016E0,6.246648E-1,0E0,2.8104782E-3,0E0,0E0,0E0,0E0,0E0,0E0,0E0,0E0,0E0,0E0,0E0,0E0,0E0,0E0,0E0,0E0,0E0,0E0,0E0],"parents":[2147483647,0,0,1,1,2,2,3,3,4,4,5,5,6,6,7,7,8,8,9,9,10,10,11,11,12,12,15,15,16,16,17,17,19,19,20,20,21,21,22,22,23,23,25,25],"right_children":[2,4,6,8,10,12,14,16,18,20,22,24,26,-1,-1,28,30,32,-1,34,36,38,40,42,-1,44,-1,-1,-1,-1,-1,-1,-1,-1,-1,-1,-1,-1,-1,-1,-1,-1,-1,-1,-1],"split_conditions":[7.627027E-1,-5.209009E-1,1.1288289E0,-1.3478262E0,1.72E2,2.9E1,1.2524325E0,3.7433156E-1,2.86E1,4.672072E-1,-3.0216217E-1,9.5405406E-1,2.56E1,6.934147E-2,9.954722E-2,1.2E1,-5.479279E-1,-1.7859052E0,1.5752036E-2,2.97E1,2.35E1,2.2E1,1.008E2,1.11E2,4.7863763E-2,-6.428569E-1,3.4882084E-2,-3.5641775E-2,8.5155405E-3,-5.867514E-2,-2.8131176E-2,-1.5693313E-2,-8.806663E-2,-6.0379982E-2,-2.1127447E-2,-1.6191019E-2,3.6078725E-2,4.154923E-2,-2.352394E-2,6.548625E-2,1.7823327E-2,4.193204E-2,1.8799508E-2,2.2520328E-2,7.83863E-2],"split_indices":[5,5,5,4,188,105,5,14,30,5,5,5,77,0,0,207,5,145,0,105,81,86,199,199,0,1,0,0,0,0,0,0,0,0,0,0,0,0,0,0,0,0,0,0,0],"split_type":[0,0,0,0,0,0,0,0,0,0,0,0,0,0,0,0,0,0,0,0,0,0,0,0,0,0,0,0,0,0,0,0,0,0,0,0,0,0,0,0,0,0,0,0,0],"sum_hessian":[1.102E3,9.1E2,1.92E2,1.39E2,7.71E2,1.3E2,6.2E1,1.01E2,3.8E1,3.62E2,4.09E2,1.07E2,2.3E1,2.9E1,3.3E1,3.1E1,7E1,3.7E1,1E0,2.23E2,1.39E2,2.55E2,1.54E2,6.7E1,4E1,1.5E1,8E0,1.6E1,1.5E1,3.8E1,3.2E1,2E0,3.5E1,1.37E2,8.6E1,1.01E2,3.8E1,8.7E1,1.68E2,9.3E1,6.1E1,1.6E1,5.1E1,1E0,1.4E1],"tree_param":{"num_deleted":"0","num_feature":"209","num_nodes":"45","size_leaf_vector":"1"}},{"base_weights":[1.3147802E-3,-7.875652E-2,5.845983E-1,-3.6894804E-1,-8.724328E-3,4.0859598E-1,8.172808E-1,-2.0466845E-1,-6.3844347E-1,2.8043878E-1,-1.6861083E-1,7.7440806E-2,3.513183E-1,6.764748E-2,9.760859E-2,-3.6527568E-1,7.826559E-2,-2.4709375E-1,-7.3539436E-1,1.5356559E-1,6.6425633E-1,-2.9536986E-1,8.224905E-2,4.4308093E-1,2.8493938E-1,-4.2661335E-2,4.710953E-3,1.5010926E-2,-5.2650567E-2,-4.403661E-2,-4.7841263E-3,-5.4887928E-2,-9.156291E-2,5.6383457E-2,-6.8163977E-4,-1.6072577E-2,6.783379E-2,-1.28946155E-2,-5.6294035E-2,5.1645137E-2,-3.9694176E-4,4.512809E-2,1.1084099E-2,2.1655576E-2,3.6352016E-2],"categories":[],"categories_nodes":[],"categories_segments":[],"categories_sizes":[],"default_left":[0,0,0,0,0,0,0,0,0,0,0,0,0,0,0,0,0,0,0,0,0,0,0,0,0,0,0,0,0,0,0,0,0,0,0,0,0,0,0,0,0,0,0,0,0],"id":3,"left_children":[1,3,5,7,9,11,13,15,17,19,21,-1,23,-1,-1,25,27,29,31,33,35,37,39,41,43,-1,-1,-1,-1,-1,-1,-1,-1,-1,-1,-1,-1,-1,-1,-1,-1,-1,-1,-1,-1],"loss_changes":[5.3008682E1,2.0278887E1,5.276581E0,8.458214E0,3.726507E1,1.4041672E0,6.366272E-1,5.57242E0,2.5880356E0,1.3873791E1,1.6527847E1,0E0,3.062172E-1,0E0,0E0,1.9930878E0,2.0342376E0,5.950923E-1,1.4471893E0,1.4282391E1,9.33836E-1,1.5290285E1,6.5533953E0,2.626133E-2,1.5771747E-1,0E0,0E0,0E0,0E0,0E0,0E0,0E0,0E0,0E0,0E0,0E0,0E0,0E0,0E0,0E0,0E0,0E0,0E0,0E0,0E0],"parents":[2147483647,0,0,1,1,2,2,3,3,4,4,5,5,6,6,7,7,8,8,9,9,10,10,12,12,15,15,16,16,17,17,18,18,19,19,20,20,21,21,22,22,23,23,24,24],"right_children":[2,4,6,8,10,12,14,16,18,20,22,-1,24,-1,-1,26,28,30,32,34,36,38,40,42,44,-1,-1,-1,-1,-1,-1,-1,-1,-1,-1,-1,-1,-1,-1,-1,-1,-1,-1,-1,-1],"split_conditions":[8.661262E-1,-4.8594594E-1,1.1288289E0,-9.9999917E-1,5.95E1,1.7647052E-1,1.3727928E0,-5.345946E-1,3.11E1,-2.1423423E-1,5.198198E-1,7.7440806E-2,6.6E0,6.764748E-2,9.760859E-2,-6.873065E-1,8.6E0,-1.6029471E-1,3.7433156E-1,2.2E1,-2.359242E0,8.33E1,7.75E1,1.5546812E0,9.7351354E-1,-4.2661335E-2,4.710953E-3,1.5010926E-2,-5.2650567E-2,-4.403661E-2,-4.7841263E-3,-5.4887928E-2,-9.156291E-2,5.6383457E-2,-6.8163977E-4,-1.6072577E-2,6.783379E-2,-1.28946155E-2,-5.6294035E-2,5.1645137E-2,-3.9694176E-4,4.512809E-2,1.1084099E-2,2.1655576E-2,3.6352016E-2],"split_indices":[5,5,5,0,62,2,5,5,67,5,5,0,49,0,0,2,45,143,14,86,22,62,62,23,5,0,0,0,0,0,0,0,0,0,0,0,0,0,0,0,0,0,0,0,0],"split_type":[0,0,0,0,0,0,0,0,0,0,0,0,0,0,0,0,0,0,0,0,0,0,0,0,0,0,0,0,0,0,0,0,0,0,0,0,0,0,0,0,0,0,0,0,0],"sum_hessian":[1.133E3,9.97E2,1.36E2,1.93E2,8.04E2,7.9E1,5.7E1,1.21E2,7.2E1,2.86E2,5.18E2,9E0,7E1,3.3E1,2.4E1,7.7E1,4.4E1,1.5E1,5.7E1,2.16E2,7E1,3.44E2,1.74E2,2.7E1,4.3E1,6.7E1,1E1,4E1,4E0,7E0,8E0,3E1,2.7E1,6E1,1.56E2,1E0,6.9E1,2.13E2,1.31E2,2.8E1,1.46E2,2.6E1,1E0,2.5E1,1.8E1],"tree_param":{"num_deleted":"0","num_feature":"209","num_nodes":"45","size_leaf_vector":"1"}},{"base_weights":[-6.4142473E-4,-9.044945E-2,4.8175964E-1,-3.3292878E-1,-2.0239055E-2,3.3943534E-1,6.90397E-1,-1.8260138E-1,-6.14608E-1,4.0675056E-1,-1.3985044E-1,6.6924505E-2,2.777168E-1,5.5847663E-2,8.296001E-2,-4.038399E-1,2.8882243E-2,-4.7008854E-1,-8.300825E-2,1.9001369E-1,5.910356E-1,-2.7703863E-1,6.757377E-3,1.7901362E-1,3.550731E-1,-2.8656755E-2,-7.136761E-2,-5.5508483E-2,8.074673E-3,-5.0340336E-2,5.5677147E-4,-1.0325673E-2,5.1059157E-2,3.2127988E-2,7.88172E-2,-5.2530255E-2,-7.5527215E-3,-2.7807415E-2,1.6673712E-2,1.2000221E-2,3.16542E-2,4.8370168E-2,3.0172452E-2],"categories":[],"categories_nodes":[],"categories_segments":[],"categories_sizes":[],"default_left":[0,0,0,0,0,0,0,0,0,0,0,0,0,0,0,0,0,0,0,0,0,0,0,0,0,0,0,0,0,0,0,0,0,0,0,0,0,0,0,0,0,0,0],"id":4,"left_children":[1,3,5,7,9,11,13,15,17,19,21,-1,23,-1,-1,25,27,29,-1,31,33,35,37,39,41,-1,-1,-1,-1,-1,-1,-1,-1,-1,-1,-1,-1,-1,-1,-1,-1,-1,-1],"loss_changes":[4.830594E1,1.5996359E1,4.9621315E0,8.822376E0,3.7340042E1,1.9718103E0,8.2214737E-1,6.5152416E0,1.8830261E0,6.2783146E0,1.1486316E1,0E0,6.312499E-1,0E0,0E0,2.2662783E0,2.225496E0,7.317362E-1,0E0,7.103922E0,4.3201427E0,1.4718586E1,1.26685E1,3.0287552E-1,1.9716358E-1,0E0,0E0,0E0,0E0,0E0,0E0,0E0,0E0,0E0,0E0,0E0,0E0,0E0,0E0,0E0,0E0,0E0,0E0],"parents":[2147483647,0,0,1,1,2,2,3,3,4,4,5,5,6,6,7,7,8,8,9,9,10,10,12,12,15,15,16,16,17,17,19,19,20,20,21,21,22,22,23,23,24,24],"right_children":[2,4,6,8,10,12,14,16,18,20,22,-1,24,-1,-1,26,28,30,-1,32,34,36,38,40,42,-1,-1,-1,-1,-1,-1,-1,-1,-1,-1,-1,-1,-1,-1,-1,-1,-1,-1],"split_conditions":[7.92973E-1,-4.7477478E-1,1.0646846E0,2.24E1,6.8E0,8.2E1,1.2524325E0,-5.4E-1,3.7433156E-1,7.6E0,2.97E1,6.6924505E-2,9.115315E-1,5.5847663E-2,8.296001E-2,8.0213904E-1,3.02E1,1.14E2,-8.300825E-2,-2.4342342E-1,-4.1243243E-1,4.0306315E-1,-2.6540542E-1,1.24E2,1.131E2,-2.8656755E-2,-7.136761E-2,-5.5508483E-2,8.074673E-3,-5.0340336E-2,5.5677147E-4,-1.0325673E-2,5.1059157E-2,3.2127988E-2,7.88172E-2,-5.2530255E-2,-7.5527215E-3,-2.7807415E-2,1.6673712E-2,1.2000221E-2,3.16542E-2,4.8370168E-2,3.0172452E-2],"split_indices":[5,5,5,86,43,62,5,5,14,40,105,0,5,0,0,14,105,206,0,5,5,5,5,198,199,0,0,0,0,0,0,0,0,0,0,0,0,0,0,0,0,0,0],"split_type":[0,0,0,0,0,0,0,0,0,0,0,0,0,0,0,0,0,0,0,0,0,0,0,0,0,0,0,0,0,0,0,0,0,0,0,0,0,0,0,0,0,0,0],"sum_hessian":[1.113E3,9.39E2,1.74E2,2.1E2,7.29E2,1.05E2,6.9E1,1.38E2,7.2E1,1.59E2,5.7E2,1.5E1,9E1,3.8E1,3.1E1,6.7E1,7.1E1,4.5E1,2.7E1,7.4E1,8.5E1,2.94E2,2.76E2,4.1E1,4.9E1,5E1,1.7E1,5E0,6.6E1,4.2E1,3E0,3.9E1,3.5E1,3.7E1,4.8E1,1.31E2,1.63E2,9.9E1,1.77E2,3E1,1.1E1,1.2E1,3.7E1],"tree_param":{"num_deleted":"0","num_feature":"209","num_nodes":"43","size_leaf_vector":"1"}},{"base_weights":[-4.6605184E-3,-9.0284616E-2,4.1724083E-1,-3.2369766E-1,-1.8687403E-2,2.711368E-1,6.273014E-1,-7.3016495E-1,-2.275909E-1,-2.7632028E-1,1.1501896E-1,5.8693375E-2,2.1789789E-1,5.1140165E-1,7.419092E-1,-7.591078E-1,-1.0087111E-1,-3.110726E-1,-2.010548E-2,-1.1174033E-1,-4.9215236E-1,4.1136992E-1,2.0000415E-2,1.3163221E-1,2.8894585E-1,6.588703E-2,4.4472802E-1,2.8984388E-2,7.5946026E-2,-1.3724789E-2,-7.882255E-2,-1.7013697E-2,1.8830315E-3,6.15655E-3,-3.569726E-2,9.189803E-3,-2.2536956E-2,-2.6094725E-2,2.1568235E-2,-1.614294E-2,-5.5722635E-2,5.445406E-2,1.4473219E-2,-2.3845576E-2,1.0110398E-2,3.0845522E-3,2.0514658E-2,3.755292E-2,1.951353E-2,3.2029524E-2,4.8672948E-2],"categories":[],"categories_nodes":[],"categories_segments":[],"categories_sizes":[],"default_left":[0,0,0,0,0,0,0,0,0,0,0,0,0,0,0,0,0,0,0,0,0,0,0,0,0,0,0,0,0,0,0,0,0,0,0,0,0,0,0,0,0,0,0,0,0,0,0,0,0,0,0],"id":5,"left_children":[1,3,5,7,9,11,13,15,17,19,21,-1,23,25,27,29,31,33,35,37,39,41,43,45,47,-1,49,-1,-1,-1,-1,-1,-1,-1,-1,-1,-1,-1,-1,-1,-1,-1,-1,-1,-1,-1,-1,-1,-1,-1,-1],"loss_changes":[4.111171E1,1.5803242E1,5.7225304E0,8.506086E0,2.500597E1,1.8055668E0,6.56662E-1,6.8839836E-1,3.128889E0,8.75437E0,1.3451696E1,0E0,5.7486534E-1,1.199379E-1,7.344055E-2,6.161022E-1,2.8077401E-2,2.228403E0,1.2391968E0,6.993512E0,2.2128468E0,4.0401535E0,7.6332116E0,3.4190786E-1,3.6533213E-1,0E0,1.134634E-2,0E0,0E0,0E0,0E0,0E0,0E0,0E0,0E0,0E0,0E0,0E0,0E0,0E0,0E0,0E0,0E0,0E0,0E0,0E0,0E0,0E0,0E0,0E0,0E0],"parents":[2147483647,0,0,1,1,2,2,3,3,4,4,5,5,6,6,7,7,8,8,9,9,10,10,12,12,13,13,14,14,15,15,16,16,17,17,18,18,19,19,20,20,21,21,22,22,23,23,24,24,26,26],"right_children":[2,4,6,8,10,12,14,16,18,20,22,-1,24,26,28,30,32,34,36,38,40,42,44,46,48,-1,50,-1,-1,-1,-1,-1,-1,-1,-1,-1,-1,-1,-1,-1,-1,-1,-1,-1,-1,-1,-1,-1,-1,-1,-1],"split_conditions":[7.627027E-1,2.35E1,1.0387387E0,2.300901E-1,-4.5243242E-1,7.75E1,1.2524325E0,3.24E1,6.1675674E-1,-9.166667E-1,4.5E0,5.8693375E-2,2.77E1,1.11E2,-9.13E-1,6.7000003E0,2.5000083E-1,7.95E1,7E0,-5.1729727E-1,3.11E1,9.6E0,-3.172973E-1,8.855856E-1,3.0230002E2,6.588703E-2,4.78E1,2.8984388E-2,7.5946026E-2,-1.3724789E-2,-7.882255E-2,-1.7013697E-2,1.8830315E-3,6.15655E-3,-3.569726E-2,9.189803E-3,-2.2536956E-2,-2.6094725E-2,2.1568235E-2,-1.614294E-2,-5.5722635E-2,5.445406E-2,1.4473219E-2,-2.3845576E-2,1.0110398E-2,3.0845522E-3,2.0514658E-2,3.755292E-2,1.951353E-2,3.2029524E-2,4.8672948E-2],"split_indices":[5,81,5,5,5,62,5,74,5,0,98,0,107,199,124,42,0,62,49,5,67,41,5,5,191,0,57,0,0,0,0,0,0,0,0,0,0,0,0,0,0,0,0,0,0,0,0,0,0,0,0],"split_type":[0,0,0,0,0,0,0,0,0,0,0,0,0,0,0,0,0,0,0,0,0,0,0,0,0,0,0,0,0,0,0,0,0,0,0,0,0,0,0,0,0,0,0,0,0,0,0,0,0,0,0],"sum_hessian":[1.136E3,9.45E2,1.91E2,2.21E2,7.24E2,1.14E2,7.7E1,4.1E1,1.8E2,2.47E2,4.77E2,1.5E1,9.9E1,4.1E1,3.6E1,3.9E1,2E0,1.28E2,5.2E1,1.41E2,1.06E2,1.15E2,3.62E2,4.6E1,5.3E1,1E1,3.1E1,2E0,3.4E1,2E0,3.7E1,1E0,1E0,1.4E1,1.14E2,3.4E1,1.8E1,9.7E1,4.4E1,1.8E1,8.8E1,7.6E1,3.9E1,8.6E1,2.76E2,2E1,2.6E1,2.6E1,2.7E1,1E1,2.1E1],"tree_param":{"num_deleted":"0","num_feature":"209","num_nodes":"51","size_leaf_vector":"1"}},{"base_weights":[1.6087461E-2,-6.098855E-2,3.6437613E-1,-1.8859173E-1,7.072004E-2,2.3494639E-1,5.5881965E-1,-3.2024962E-1,-4.6100024E-2,-1.2655471E-1,3.6460656E-1,5.252688E-2,1.9283828E-1,4.7899744E-1,7.358139E-1,-4.532235E-1,-1.1817268E-1,-1.8240333E-1,2.2712125E-1,-3.0732027E-1,2.0106548E-2,4.6920568E-1,-1.5665382E-1,3.3973104E-1,1.4273053E-1,5.642495E-1,3.8654402E-1,3.0819122E-2,7.618641E-2,-6.963145E-2,-3.506942E-2,-3.6753457E-2,2.3138339E-2,-3.998162E-2,-1.0241307E-2,3.4244444E-2,8.553919E-3,-3.394085E-2,5.050085E-2,-2.069106E-2,3.0442497E-2,3.86353E-2,7.327645E-2,-3.3728085E-2,2.56391E-2,3.6304567E-2,1.14910565E-2,8.721149E-3,2.3304598E-2,6.1169285E-2,3.345348E-2,2.7125532E-2,4.2137783E-2],"categories":[],"categories_nodes":[],"categories_segments":[],"categories_sizes":[],"default_left":[0,0,0,0,0,0,0,0,0,0,0,0,0,0,0,0,0,0,0,0,0,0,0,0,0,0,0,0,0,0,0,0,0,0,0,0,0,0,0,0,0,0,0,0,0,0,0,0,0,0,0,0,0],"id":6,"left_children":[1,3,5,7,9,11,13,15,17,19,21,-1,23,25,27,29,31,33,35,37,39,41,43,45,47,49,51,-1,-1,-1,-1,-1,-1,-1,-1,-1,-1,-1,-1,-1,-1,-1,-1,-1,-1,-1,-1,-1,-1,-1,-1,-1,-1],"loss_changes":[2.992722E1,1.5357611E1,4.9523945E0,8.689949E0,2.6135519E1,1.4023743E0,7.77792E-1,6.4223404E0,8.383404E0,7.1642327E0,9.942232E0,0E0,7.5380087E-1,2.3904133E-1,2.1411896E-2,3.3697777E0,8.540138E0,2.56769E0,1.1952848E0,3.3254147E0,9.744762E0,3.0142136E0,2.3992944E0,9.980559E-2,3.958565E-1,1.0052395E-1,1.0192871E-2,0E0,0E0,0E0,0E0,0E0,0E0,0E0,0E0,0E0,0E0,0E0,0E0,0E0,0E0,0E0,0E0,0E0,0E0,0E0,0E0,0E0,0E0,0E0,0E0,0E0,0E0],"parents":[2147483647,0,0,1,1,2,2,3,3,4,4,5,5,6,6,7,7,8,8,9,9,10,10,12,12,13,13,14,14,15,15,16,16,17,17,18,18,19,19,20,20,21,21,22,22,23,23,24,24,25,25,26,26],"right_children":[2,4,6,8,10,12,14,16,18,20,22,-1,24,26,28,30,32,34,36,38,40,42,44,46,48,50,52,-1,-1,-1,-1,-1,-1,-1,-1,-1,-1,-1,-1,-1,-1,-1,-1,-1,-1,-1,-1,-1,-1,-1,-1,-1,-1],"split_conditions":[7.176577E-1,1.6449999E1,1.0387387E0,3.154955E-1,-3.7783784E-1,1.7647052E-1,1.3727928E0,7.1E1,2.35E1,1.02E1,1.1666666E0,5.252688E-2,6E0,1.148E2,2E1,3.1891894E-2,-3.09009E-1,1.497E2,-1.7E-1,2.017E3,-5.1261264E-1,-1.0396396E-1,-2.3801802E-1,1.0408163E0,9.165766E-1,3.2600002E1,1.1021622E0,3.0819122E-2,7.618641E-2,-6.963145E-2,-3.506942E-2,-3.6753457E-2,2.3138339E-2,-3.998162E-2,-1.0241307E-2,3.4244444E-2,8.553919E-3,-3.394085E-2,5.050085E-2,-2.069106E-2,3.0442497E-2,3.86353E-2,7.327645E-2,-3.3728085E-2,2.56391E-2,3.6304567E-2,1.14910565E-2,8.721149E-3,2.3304598E-2,6.1169285E-2,3.345348E-2,2.7125532E-2,4.2137783E-2],"split_indices":[5,92,5,5,5,2,5,56,81,50,0,0,49,199,106,5,5,192,150,208,5,5,5,13,5,99,5,0,0,0,0,0,0,0,0,0,0,0,0,0,0,0,0,0,0,0,0,0,0,0,0,0,0],"split_type":[0,0,0,0,0,0,0,0,0,0,0,0,0,0,0,0,0,0,0,0,0,0,0,0,0,0,0,0,0,0,0,0,0,0,0,0,0,0,0,0,0,0,0,0,0,0,0,0,0,0,0,0,0],"sum_hessian":[1.113E3,9.12E2,2.01E2,4.63E2,4.49E2,1.22E2,7.9E1,2.4E2,2.23E2,2.69E2,1.8E2,1.4E1,1.08E2,5.7E1,2.2E1,1.44E2,9.6E1,1.49E2,7.4E1,1.2E2,1.49E2,1.5E2,3E1,2.6E1,8.2E1,2.7E1,3E1,2E0,2E1,4.1E1,1.03E2,5.6E1,4E1,3.9E1,1.1E2,4E1,3.4E1,1.16E2,4E0,8.3E1,6.6E1,1.16E2,3.4E1,2.1E1,9E0,2.3E1,3E0,5.2E1,3E1,2.1E1,6E0,9E0,2.1E1],"tree_param":{"num_deleted":"0","num_feature":"209","num_nodes":"53","size_leaf_vector":"1"}},{"base_weights":[8.622348E-3,-6.1179254E-2,3.1463408E-1,3.8710073E-2,-1.961811E-1,2.1142243E-1,5.194891E-1,-2.2827622E-1,2.0909475E-1,-4.2884445E-1,-1.1059103E-1,1.5402704E-1,4.2579693E-1,4.488506E-1,6.817562E-2,-1.10210024E-1,-4.544009E-1,9.681536E-2,3.8905004E-1,-2.4974926E-1,-7.3333216E-1,-2.5635603E-1,7.538509E-2,2.3599733E-2,2.036523E-1,5.039247E-1,1.5772088E-1,5.7855327E-2,3.730279E-2,2.6697645E-2,-1.8934513E-2,-2.6359532E-2,-5.7532854E-2,-2.4305317E-3,5.2404284E-2,5.2762892E-2,-4.8810802E-4,4.409044E-2,-3.0059878E-2,-8.960589E-2,-5.7425555E-2,-3.8872898E-2,-1.0861988E-2,4.0350344E-2,2.0508808E-3,-6.1818166E-3,1.3783834E-2,3.087615E-2,1.5397893E-2,1.0449923E-2,5.1796883E-2,2.2818474E-2,3.0210842E-3],"categories":[],"categories_nodes":[],"categories_segments":[],"categories_sizes":[],"default_left":[0,0,0,0,0,0,0,0,0,0,0,0,0,0,0,0,0,0,0,0,0,0,0,0,0,0,0,0,0,0,0,0,0,0,0,0,0,0,0,0,0,0,0,0,0,0,0,0,0,0,0,0,0],"id":7,"left_children":[1,3,5,7,9,11,13,15,17,19,21,23,25,27,-1,29,31,33,35,37,39,41,43,45,47,49,51,-1,-1,-1,-1,-1,-1,-1,-1,-1,-1,-1,-1,-1,-1,-1,-1,-1,-1,-1,-1,-1,-1,-1,-1,-1,-1],"loss_changes":[2.3921211E1,1.2306137E1,4.288E0,2.3930176E1,7.679077E0,1.6569905E0,4.848919E-1,5.422945E0,6.448225E0,5.488209E0,7.745337E0,7.201128E-1,5.279026E-1,2.8573895E-1,0E0,4.109972E0,1.4635029E0,1.0310206E1,6.717209E0,2.4855351E0,4.6910095E-1,3.0867796E0,2.26047E0,3.2077757E-1,3.7536883E-1,6.928301E-2,6.4985126E-2,0E0,0E0,0E0,0E0,0E0,0E0,0E0,0E0,0E0,0E0,0E0,0E0,0E0,0E0,0E0,0E0,0E0,0E0,0E0,0E0,0E0,0E0,0E0,0E0,0E0,0E0],"parents":[2147483647,0,0,1,1,2,2,3,3,4,4,5,5,6,6,7,7,8,8,9,9,10,10,11,11,12,12,13,13,15,15,16,16,17,17,18,18,19,19,20,20,21,21,22,22,23,23,24,24,25,25,26,26],"right_children":[2,4,6,8,10,12,14,16,18,20,22,24,26,28,-1,30,32,34,36,38,40,42,44,46,48,50,52,-1,-1,-1,-1,-1,-1,-1,-1,-1,-1,-1,-1,-1,-1,-1,-1,-1,-1,-1,-1,-1,-1,-1,-1,-1,-1],"split_conditions":[7.010811E-1,1.036E2,1.0387387E0,-4.7117117E-1,8.090094E-2,2.89E1,1.436937E0,2.1800001E1,-2.29009E-1,1.374E1,2.32E1,9.92E1,3.306E2,1.11E2,6.817562E-2,2.2459893E-1,6E0,1.17E2,1.793E2,9E1,-5.135135E-2,4.8882884E-1,1.008E2,8.740541E-1,1.11E2,-1.1390375E0,1.7249615E-1,5.7855327E-2,3.730279E-2,2.6697645E-2,-1.8934513E-2,-2.6359532E-2,-5.7532854E-2,-2.4305317E-3,5.2404284E-2,5.2762892E-2,-4.8810802E-4,4.409044E-2,-3.0059878E-2,-8.960589E-2,-5.7425555E-2,-3.8872898E-2,-1.0861988E-2,4.0350344E-2,2.0508808E-3,-6.1818166E-3,1.3783834E-2,3.087615E-2,1.5397893E-2,1.0449923E-2,5.1796883E-2,2.2818474E-2,3.0210842E-3],"split_indices":[5,199,5,5,5,105,5,86,5,98,81,197,194,199,0,14,44,203,194,197,5,5,200,5,199,14,23,0,0,0,0,0,0,0,0,0,0,0,0,0,0,0,0,0,0,0,0,0,0,0,0,0,0],"split_type":[0,0,0,0,0,0,0,0,0,0,0,0,0,0,0,0,0,0,0,0,0,0,0,0,0,0,0,0,0,0,0,0,0,0,0,0,0,0,0,0,0,0,0,0,0,0,0,0,0,0,0,0,0],"sum_hessian":[1.118E3,9.11E2,2.07E2,5.24E2,3.87E2,1.39E2,6.8E1,2.04E2,3.2E2,1.03E2,2.84E2,1.11E2,2.8E1,5E1,1.8E1,1.35E2,6.9E1,1.98E2,1.22E2,6.6E1,3.7E1,1.59E2,1.25E2,3.1E1,8E1,2.1E1,7E0,1.6E1,3.4E1,2.3E1,1.12E2,2.8E1,4.1E1,1.55E2,4.3E1,9E1,3.2E1,4E0,6.2E1,1.6E1,2.1E1,8.3E1,7.6E1,1.7E1,1.08E2,1.8E1,1.3E1,2.4E1,5.6E1,1E0,2E1,4E0,3E0],"tree_param":{"num_deleted":"0","num_feature":"209","num_nodes":"53","size_leaf_vector":"1"}},{"base_weights":[7.994295E-3,-6.2268823E-2,2.7689797E-1,-2.2718813E-1,2.2685006E-2,2.2172257E-1,5.212219E-1,-5.691355E-1,-1.4357303E-1,-1.4543094E-1,2.4831206E-1,1.6954526E-1,4.0847996E-1,4.223707E-2,6.0883963E-1,2.4529159E-1,-6.0201526E-1,-2.5380257E-1,2.9007971E-2,-5.1305745E-2,-4.3751165E-1,3.2986152E-1,-1.4283793E-1,2.8850895E-1,1.2407628E-1,1.4640719E-1,4.776127E-1,3.2097872E-2,6.607437E-2,3.572155E-2,1.0721885E-3,-8.41283E-2,-4.9653195E-2,-4.371306E-2,-1.9368319E-2,-9.719852E-3,1.5723944E-2,1.0947332E-3,-4.320453E-2,-5.1303335E-2,-1.7774276E-2,8.014393E-3,4.083788E-2,-2.2009864E-2,1.8207578E-2,3.5185483E-3,3.0758226E-2,1.3616933E-3,1.837193E-2,-3.741977E-3,2.3053585E-2,4.9366213E-2,-9.959687E-4],"categories":[],"categories_nodes":[],"categories_segments":[],"categories_sizes":[],"default_left":[0,0,0,0,0,0,0,0,0,0,0,0,0,0,0,0,0,0,0,0,0,0,0,0,0,0,0,0,0,0,0,0,0,0,0,0,0,0,0,0,0,0,0,0,0,0,0,0,0,0,0,0,0],"id":8,"left_children":[1,3,5,7,9,11,13,15,17,19,21,23,25,-1,27,29,31,33,35,37,39,41,43,45,47,49,51,-1,-1,-1,-1,-1,-1,-1,-1,-1,-1,-1,-1,-1,-1,-1,-1,-1,-1,-1,-1,-1,-1,-1,-1,-1,-1],"loss_changes":[2.1159641E1,1.2446501E1,3.0119476E0,8.553059E0,2.2301905E1,1.7919436E0,1.066103E-1,1.7275829E0,4.6491017E0,9.242409E0,8.053534E0,7.8098536E-1,6.729045E-1,0E0,8.673859E-2,7.4931845E-2,1.0208836E0,1.5575495E0,1.5689132E0,6.0724955E0,1.5175028E0,4.045559E0,1.1446095E0,1.8727756E-1,7.287806E-1,1.6327773E-1,2.5532436E-1,0E0,0E0,0E0,0E0,0E0,0E0,0E0,0E0,0E0,0E0,0E0,0E0,0E0,0E0,0E0,0E0,0E0,0E0,0E0,0E0,0E0,0E0,0E0,0E0,0E0,0E0],"parents":[2147483647,0,0,1,1,2,2,3,3,4,4,5,5,6,6,7,7,8,8,9,9,10,10,11,11,12,12,14,14,15,15,16,16,17,17,18,18,19,19,20,20,21,21,22,22,23,23,24,24,25,25,26,26],"right_children":[2,4,6,8,10,12,14,16,18,20,22,24,26,-1,28,30,32,34,36,38,40,42,44,46,48,50,52,-1,-1,-1,-1,-1,-1,-1,-1,-1,-1,-1,-1,-1,-1,-1,-1,-1,-1,-1,-1,-1,-1,-1,-1,-1,-1],"split_conditions":[6.5387386E-1,1.02699995E1,1.2066667E0,1.0684685E-1,-3.7783784E-1,2.87E1,1.436937E0,-2.0697238E0,2.3300001E1,8.0213904E-1,3.9130494E-1,8.99E1,6.1E0,4.223707E-2,-3.82E-1,0E0,-5.135135E-2,4.52E0,3.5549548E-1,1.241E1,-4.1243243E-1,2.4300001E1,-9.3873836E-2,-1.3048127E0,8.2396394E-1,9.165766E-1,6.521742E-1,3.2097872E-2,6.607437E-2,3.572155E-2,1.0721885E-3,-8.41283E-2,-4.9653195E-2,-4.371306E-2,-1.9368319E-2,-9.719852E-3,1.5723944E-2,1.0947332E-3,-4.320453E-2,-5.1303335E-2,-1.7774276E-2,8.014393E-3,4.083788E-2,-2.2009864E-2,1.8207578E-2,3.5185483E-3,3.0758226E-2,1.3616933E-3,1.837193E-2,-3.741977E-3,2.3053585E-2,4.9366213E-2,-9.959687E-4],"split_indices":[5,92,5,5,5,105,5,20,81,14,4,204,39,0,123,1,5,95,5,87,5,82,5,14,5,5,4,0,0,0,0,0,0,0,0,0,0,0,0,0,0,0,0,0,0,0,0,0,0,0,0,0,0],"split_type":[0,0,0,0,0,0,0,0,0,0,0,0,0,0,0,0,0,0,0,0,0,0,0,0,0,0,0,0,0,0,0,0,0,0,0,0,0,0,0,0,0,0,0,0,0,0,0,0,0,0,0,0,0],"sum_hessian":[1.118E3,8.87E2,2.31E2,3.01E2,5.86E2,1.9E2,4.1E1,5.8E1,2.43E2,3.36E2,2.5E2,1.5E2,4E1,2.2E1,1.9E1,2E0,5.6E1,1.48E2,9.5E1,2.55E2,8.1E1,2.07E2,4.3E1,4E1,1.1E2,9E0,3.1E1,4E0,1.5E1,1E0,1E0,1.5E1,4.1E1,3.5E1,1.13E2,4.8E1,4.7E1,2.2E2,3.5E1,6.2E1,1.9E1,5E1,1.57E2,3.5E1,8E0,3E0,3.7E1,3.9E1,7.1E1,3E0,6E0,3E1,1E0],"tree_param":{"num_deleted":"0","num_feature":"209","num_nodes":"53","size_leaf_vector":"1"}},{"base_weights":[-7.425707E-3,-6.833169E-2,2.2714832E-1,-1.7349753E-1,3.627368E-2,1.6161713E-1,3.925467E-1,-2.7702633E-1,-6.774816E-2,-1.6929579E-1,2.3081625E-1,3.9173797E-1,1.17726E-1,3.374569E-1,5.36725E-2,-1.0261981E-1,-4.3982348E-1,-1.8622029E-1,1.4306003E-1,-3.816212E-1,-5.7455096E-2,3.1233E-1,-1.5806876E-1,-4.185401E-3,4.1075584E-2,2.2502281E-1,5.7478018E-2,4.481326E-2,2.9758796E-1,-2.5046244E-2,3.0876055E-2,-5.945089E-2,-3.3032563E-2,-4.016268E-2,-1.33569455E-2,2.9900677E-3,2.2358954E-2,-2.5195098E-2,-5.0448198E-2,-2.3416033E-2,7.4697034E-3,2.6043503E-2,7.3522605E-2,-2.2327725E-2,3.4304596E-2,5.0439674E-2,1.8976426E-2,-8.802376E-4,1.4220558E-2,1.939644E-2,3.1419422E-2],"categories":[],"categories_nodes":[],"categories_segments":[],"categories_sizes":[],"default_left":[0,0,0,0,0,0,0,0,0,0,0,0,0,0,0,0,0,0,0,0,0,0,0,0,0,0,0,0,0,0,0,0,0,0,0,0,0,0,0,0,0,0,0,0,0,0,0,0,0,0,0],"id":9,"left_children":[1,3,5,7,9,11,13,15,17,19,21,23,25,27,-1,29,31,33,35,37,39,41,43,-1,-1,45,47,-1,49,-1,-1,-1,-1,-1,-1,-1,-1,-1,-1,-1,-1,-1,-1,-1,-1,-1,-1,-1,-1,-1,-1],"loss_changes":[1.5802613E1,9.665094E0,2.407793E0,4.7765026E0,1.7675552E1,1.6204257E0,3.2721424E-1,6.2296925E0,5.4711676E0,5.083599E0,7.2451515E0,2.3158741E-1,8.9208436E-1,8.285475E-2,0E0,6.6458454E0,1.7345161E0,1.5341415E0,7.1321523E-1,1.0518169E0,3.3334713E0,3.9344025E0,1.3836713E0,0E0,0E0,3.967991E-1,5.122874E-1,0E0,6.168604E-3,0E0,0E0,0E0,0E0,0E0,0E0,0E0,0E0,0E0,0E0,0E0,0E0,0E0,0E0,0E0,0E0,0E0,0E0,0E0,0E0,0E0,0E0],"parents":[2147483647,0,0,1,1,2,2,3,3,4,4,5,5,6,6,7,7,8,8,9,9,10,10,11,11,12,12,13,13,15,15,16,16,17,17,18,18,19,19,20,20,21,21,22,22,25,25,26,26,28,28],"right_children":[2,4,6,8,10,12,14,16,18,20,22,24,26,28,-1,30,32,34,36,38,40,42,44,-1,-1,46,48,-1,50,-1,-1,-1,-1,-1,-1,-1,-1,-1,-1,-1,-1,-1,-1,-1,-1,-1,-1,-1,-1,-1,-1],"split_conditions":[6.4954954E-1,1.651E1,1.04991E0,2.0954955E-1,-4.318919E-1,7.75E1,1.436937E0,1.183E1,2.35E1,8.16E1,1.2857132E0,-6.071426E-1,9.3E1,7.24E1,5.36725E-2,-2.1423423E-1,4.882883E-2,8.7E0,3.9225233E-1,5.240642E-1,-5.432432E-1,-1.963964E-2,1.399936E0,-4.185401E-3,4.1075584E-2,2.65E1,8.740541E-1,4.481326E-2,1.1021622E0,-2.5046244E-2,3.0876055E-2,-5.945089E-2,-3.3032563E-2,-4.016268E-2,-1.33569455E-2,2.9900677E-3,2.2358954E-2,-2.5195098E-2,-5.0448198E-2,-2.3416033E-2,7.4697034E-3,2.6043503E-2,7.3522605E-2,-2.2327725E-2,3.4304596E-2,5.0439674E-2,1.8976426E-2,-8.802376E-4,1.4220558E-2,1.939644E-2,3.1419422E-2],"split_indices":[5,92,5,5,5,62,5,98,81,54,3,1,204,61,0,5,5,44,5,14,5,5,146,0,0,30,5,0,5,0,0,0,0,0,0,0,0,0,0,0,0,0,0,0,0,0,0,0,0,0,0],"split_type":[0,0,0,0,0,0,0,0,0,0,0,0,0,0,0,0,0,0,0,0,0,0,0,0,0,0,0,0,0,0,0,0,0,0,0,0,0,0,0,0,0,0,0,0,0,0,0,0,0,0,0],"sum_hessian":[1.104E3,8.77E2,2.27E2,4.37E2,4.4E2,1.64E2,6.3E1,2.2E2,2.17E2,2.14E2,2.26E2,2.5E1,1.39E2,4.8E1,1.5E1,1.07E2,1.13E2,1.39E2,7.8E1,7.3E1,1.41E2,1.87E2,3.9E1,1E0,2.4E1,4.9E1,9E1,1E1,3.8E1,7.9E1,2.8E1,4.5E1,6.8E1,2.6E1,1.13E2,3.3E1,4.5E1,3.7E1,3.6E1,6E1,8.1E1,1.68E2,1.9E1,3.5E1,4E0,4E0,4.5E1,5.1E1,3.9E1,7E0,3.1E1],"tree_param":{"num_deleted":"0","num_feature":"209","num_nodes":"51","size_leaf_vector":"1"}},{"base_weights":[-4.2719613E-3,-5.192945E-2,2.111516E-1,1.5810332E-3,-1.8926527E-1,1.3047582E-1,3.404243E-1,-1.8120301E-1,5.4056957E-2,-2.5871977E-1,6.5606656E-3,2.4490179E-1,5.255547E-4,2.603623E-1,4.290598E-1,-7.663604E-2,-3.8877296E-1,-7.4587953E-3,2.8156435E-1,-1.8352166E-1,-3.839348E-1,-1.3660906E-1,2.1596776E-1,1.794432E-1,4.0082652E-2,5.5371866E-2,-1.1193566E-1,3.7764534E-1,2.1337818E-1,2.7167466E-1,5.0971127E-1,1.0883139E-2,-1.9395726E-2,-5.6267302E-2,-2.7880503E-2,6.697584E-3,-1.1349464E-2,1.6051145E-2,3.8524E-2,8.215859E-3,-2.3431456E-2,-4.1924495E-2,-6.251436E-4,-2.0195674E-2,2.7824506E-2,2.647007E-2,-6.8364985E-4,2.4173012E-2,7.7040656E-3,3.2345452E-3,2.6027983E-2,-1.698552E-2,5.1519154E-3,1.0051116E-2,3.9530765E-2,1.13849705E-2,2.4595762E-2,2.8042793E-2,7.894121E-3,5.3195722E-2,1.9150099E-2],"categories":[],"categories_nodes":[],"categories_segments":[],"categories_sizes":[],"default_left":[0,0,0,0,0,0,0,0,0,0,0,0,0,0,0,0,0,0,0,0,0,0,0,0,0,0,0,0,0,0,0,0,0,0,0,0,0,0,0,0,0,0,0,0,0,0,0,0,0,0,0,0,0,0,0,0,0,0,0,0,0],"id":10,"left_children":[1,3,5,7,9,11,13,15,17,19,21,23,25,27,29,31,33,35,37,39,41,43,45,47,-1,49,51,53,55,57,59,-1,-1,-1,-1,-1,-1,-1,-1,-1,-1,-1,-1,-1,-1,-1,-1,-1,-1,-1,-1,-1,-1,-1,-1,-1,-1,-1,-1,-1,-1],"loss_changes":[1.1447898E1,6.7098513E0,2.0622768E0,6.3211746E0,3.48355E0,1.8734515E0,4.347067E-1,3.1608357E0,7.1676884E0,1.7091513E0,2.0681946E0,6.119175E-1,3.7628305E-1,1.5636778E-1,3.0579138E-1,2.1752758E0,7.8017235E-1,3.196268E0,1.3061409E0,1.6386113E0,9.309025E-1,1.1676929E0,3.0583107E-1,2.9391563E-1,0E0,1.8503125E-1,1.9809535E-1,1.4110327E-2,7.9003096E-2,1.4812946E-3,5.3865433E-2,0E0,0E0,0E0,0E0,0E0,0E0,0E0,0E0,0E0,0E0,0E0,0E0,0E0,0E0,0E0,0E0,0E0,0E0,0E0,0E0,0E0,0E0,0E0,0E0,0E0,0E0,0E0,0E0,0E0,0E0],"parents":[2147483647,0,0,1,1,2,2,3,3,4,4,5,5,6,6,7,7,8,8,9,9,10,10,11,11,12,12,13,13,14,14,15,15,16,16,17,17,18,18,19,19,20,20,21,21,22,22,23,23,25,25,26,26,27,27,28,28,29,29,30,30],"right_children":[2,4,6,8,10,12,14,16,18,20,22,24,26,28,30,32,34,36,38,40,42,44,46,48,-1,50,52,54,56,58,60,-1,-1,-1,-1,-1,-1,-1,-1,-1,-1,-1,-1,-1,-1,-1,-1,-1,-1,-1,-1,-1,-1,-1,-1,-1,-1,-1,-1,-1,-1],"split_conditions":[4.9197862E-1,2.0930228E-1,6.2566847E-1,-7.239305E-1,3.6898395E-1,1.2E2,6.971925E-1,9.52E1,3.14E1,2.1E-1,2.52E1,-3.9285702E-1,8.21E0,9.2E0,7.9E0,3.7433156E-1,1.08E1,8.5E0,-6.0227275E-1,4.49E1,1.4849999E1,-2.4999991E-1,3.552E2,2.25E1,4.0082652E-2,7.3E-1,4.012E2,-1.7636081E0,-5.8E-1,3.7209317E-1,1.1690936E0,1.0883139E-2,-1.9395726E-2,-5.6267302E-2,-2.7880503E-2,6.697584E-3,-1.1349464E-2,1.6051145E-2,3.8524E-2,8.215859E-3,-2.3431456E-2,-4.1924495E-2,-6.251436E-4,-2.0195674E-2,2.7824506E-2,2.647007E-2,-6.8364985E-4,2.4173012E-2,7.7040656E-3,3.2345452E-3,2.6027983E-2,-1.698552E-2,5.1519154E-3,1.0051116E-2,3.9530765E-2,1.13849705E-2,2.4595762E-2,2.8042793E-2,7.894121E-3,5.3195722E-2,1.9150099E-2],"split_indices":[6,7,6,6,6,199,6,197,106,171,85,1,91,45,190,14,39,45,6,53,91,1,194,81,0,147,185,8,159,7,140,0,0,0,0,0,0,0,0,0,0,0,0,0,0,0,0,0,0,0,0,0,0,0,0,0,0,0,0,0,0],"split_type":[0,0,0,0,0,0,0,0,0,0,0,0,0,0,0,0,0,0,0,0,0,0,0,0,0,0,0,0,0,0,0,0,0,0,0,0,0,0,0,0,0,0,0,0,0,0,0,0,0,0,0,0,0,0,0,0,0,0,0,0,0],"sum_hessian":[1.113E3,9.12E2,2.01E2,6.57E2,2.55E2,1.25E2,7.6E1,1.46E2,5.11E2,1.88E2,6.7E1,6.6E1,5.9E1,4.2E1,3.4E1,9.8E1,4.8E1,4.03E2,1.08E2,1.19E2,6.9E1,4E1,2.7E1,4.8E1,1.8E1,4E1,1.9E1,1E1,3.2E1,1.3E1,2.1E1,3.8E1,6E1,1.7E1,3.1E1,2.37E2,1.66E2,5.1E1,5.7E1,1.9E1,1E2,6.3E1,6E0,3.5E1,5E0,2.2E1,5E0,2.9E1,1.9E1,3.7E1,3E0,1.4E1,5E0,1E0,9E0,9E0,2.3E1,1.2E1,1E0,1.9E1,2E0],"tree_param":{"num_deleted":"0","num_feature":"209","num_nodes":"61","size_leaf_vector":"1"}},{"base_weights":[7.147506E-3,-3.9832346E-2,2.4049285E-1,8.133007E-3,-1.906478E-1,1.5479083E-1,3.546109E-1,-1.2637545E-1,1.15443766E-1,-3.651297E-1,-2.94494E-2,3.1513326E-2,1.2554063E-1,5.3641826E-2,3.2357252E-1,-2.660954E-1,8.021601E-3,5.483151E-1,6.7292415E-2,-5.012135E-1,-2.6213127E-1,7.087021E-2,-2.1027896E-1,2.0145027E-1,9.621771E-2,2.888632E-1,4.6726223E-2,-1.16381645E-2,-3.8768906E-2,-2.2356464E-2,1.9528214E-2,5.772089E-2,1.5119234E-2,1.2521215E-2,-9.838435E-3,-2.199625E-2,-5.5607956E-2,-5.0618332E-2,-2.1208217E-2,1.5583465E-2,-3.8669219E-3,-2.9509455E-2,-9.207617E-3,6.8527856E-3,2.4933523E-2,1.0412698E-2,-2.5846325E-3,3.8418416E-2,2.4446046E-2],"categories":[],"categories_nodes":[],"categories_segments":[],"categories_sizes":[],"default_left":[0,0,0,0,0,0,0,0,0,0,0,0,0,0,0,0,0,0,0,0,0,0,0,0,0,0,0,0,0,0,0,0,0,0,0,0,0,0,0,0,0,0,0,0,0,0,0,0,0],"id":11,"left_children":[1,3,5,7,9,11,13,15,17,19,21,-1,23,-1,25,27,29,31,33,35,37,39,41,43,45,47,-1,-1,-1,-1,-1,-1,-1,-1,-1,-1,-1,-1,-1,-1,-1,-1,-1,-1,-1,-1,-1,-1,-1],"loss_changes":[1.2167026E1,6.685689E0,1.7642155E0,1.01474E1,6.2613897E0,4.669633E-1,2.722273E-1,5.8608546E0,8.112848E0,1.3683739E0,2.1373706E0,0E0,1.8762493E-1,0E0,2.1414089E-1,2.7401285E0,6.982372E0,3.6023045E-1,3.3996902E0,5.720844E-1,6.621661E-1,7.133547E-1,3.938973E-1,1.420381E-1,6.930649E-2,1.5580034E-1,0E0,0E0,0E0,0E0,0E0,0E0,0E0,0E0,0E0,0E0,0E0,0E0,0E0,0E0,0E0,0E0,0E0,0E0,0E0,0E0,0E0,0E0,0E0],"parents":[2147483647,0,0,1,1,2,2,3,3,4,4,5,5,6,6,7,7,8,8,9,9,10,10,12,12,14,14,15,15,16,16,17,17,18,18,19,19,20,20,21,21,22,22,23,23,24,24,25,25],"right_children":[2,4,6,8,10,12,14,16,18,20,22,-1,24,-1,26,28,30,32,34,36,38,40,42,44,46,48,-1,-1,-1,-1,-1,-1,-1,-1,-1,-1,-1,-1,-1,-1,-1,-1,-1,-1,-1,-1,-1,-1,-1],"split_conditions":[7.627027E-1,8.11E1,1.0387387E0,-3.8864863E-1,4.4954956E-1,4.73E1,2.21E1,1.17E2,3E0,2.300901E-1,1.148E2,3.1513326E-2,2.7330002E2,5.3641826E-2,1.5645046E0,3E0,-5.4E-1,2.35E1,3.9130494E-1,1.412E2,2.1E1,1.14E2,2.01E0,2.17E1,1.333E2,1.11E2,4.6726223E-2,-1.16381645E-2,-3.8768906E-2,-2.2356464E-2,1.9528214E-2,5.772089E-2,1.5119234E-2,1.2521215E-2,-9.838435E-3,-2.199625E-2,-5.5607956E-2,-5.0618332E-2,-2.1208217E-2,1.5583465E-2,-3.8669219E-3,-2.9509455E-2,-9.207617E-3,6.8527856E-3,2.4933523E-2,1.0412698E-2,-2.5846325E-3,3.8418416E-2,2.4446046E-2],"split_indices":[5,62,5,5,5,54,84,203,207,5,200,0,194,0,5,207,5,86,4,183,83,199,95,104,200,199,0,0,0,0,0,0,0,0,0,0,0,0,0,0,0,0,0,0,0,0,0,0,0],"split_type":[0,0,0,0,0,0,0,0,0,0,0,0,0,0,0,0,0,0,0,0,0,0,0,0,0,0,0,0,0,0,0,0,0,0,0,0,0,0,0,0,0,0,0,0,0,0,0,0,0],"sum_hessian":[1.108E3,9.23E2,1.85E2,7.01E2,2.22E2,1.07E2,7.8E1,3.11E2,3.9E2,1.06E2,1.16E2,1.5E1,9.2E1,9E0,6.9E1,1.52E2,1.59E2,3.8E1,3.52E2,4.4E1,6.2E1,7.5E1,4.1E1,2.4E1,6.8E1,5.8E1,1.1E1,6.9E1,8.3E1,7.1E1,8.8E1,3.5E1,3E0,2.61E2,9.1E1,8E0,3.6E1,9E0,5.3E1,4.2E1,3.3E1,2.3E1,1.8E1,7E0,1.7E1,6.4E1,4E0,1.6E1,4.2E1],"tree_param":{"num_deleted":"0","num_feature":"209","num_nodes":"49","size_leaf_vector":"1"}},{"base_weights":[6.0005346E-3,-4.328896E-2,1.8378454E-1,-1.5225385E-1,3.604378E-2,1.2613347E-1,3.1815326E-1,-2.663487E-1,-3.1608425E-2,-3.638867E-2,4.3396017E-1,3.2487997E-1,8.8255614E-2,2.5660113E-1,3.8707462E-1,-4.4837583E-2,-3.1291938E-1,-1.0622017E-1,1.9458726E-1,5.6725875E-2,-1.8719403E-1,3.1789523E-1,6.9768524E-1,1.0092339E-2,3.3875957E-2,1.583793E-2,1.6351013E-1,1.4816037E-2,2.8680265E-1,4.1015476E-1,1.8041097E-2,-1.877172E-2,3.7290763E-2,-4.3827582E-2,-2.0578882E-2,-1.5547879E-2,1.3013166E-2,2.3640715E-2,-2.838058E-3,-7.4670897E-3,2.466705E-2,-3.605774E-2,-1.2646806E-2,1.3188325E-2,4.175718E-2,4.7891572E-2,7.824346E-2,-5.3624394E-3,9.257834E-3,1.37799755E-2,4.1907262E-2,1.3777167E-2,3.1016355E-2,4.3253046E-2,1.6776819E-2],"categories":[],"categories_nodes":[],"categories_segments":[],"categories_sizes":[],"default_left":[0,0,0,0,0,0,0,0,0,0,0,0,0,0,0,0,0,0,0,0,0,0,0,0,0,0,0,0,0,0,0,0,0,0,0,0,0,0,0,0,0,0,0,0,0,0,0,0,0,0,0,0,0,0,0],"id":12,"left_children":[1,3,5,7,9,11,13,15,17,19,21,23,25,27,29,31,33,35,37,39,41,43,45,-1,-1,47,49,-1,51,53,-1,-1,-1,-1,-1,-1,-1,-1,-1,-1,-1,-1,-1,-1,-1,-1,-1,-1,-1,-1,-1,-1,-1,-1,-1],"loss_changes":[9.769808E0,7.552122E0,1.8345232E0,5.057108E0,1.4599753E1,1.2586312E0,2.0611858E-1,1.9356785E0,3.058503E0,6.034711E0,2.1657295E0,4.9738646E-2,7.876252E-1,9.178519E-2,7.863808E-2,2.0993683E0,2.0048113E0,1.6035941E0,4.263115E-1,6.657277E0,1.6811337E0,9.8322725E-1,5.171299E-2,0E0,0E0,4.0475696E-1,4.087652E-1,0E0,6.519461E-2,7.929516E-2,0E0,0E0,0E0,0E0,0E0,0E0,0E0,0E0,0E0,0E0,0E0,0E0,0E0,0E0,0E0,0E0,0E0,0E0,0E0,0E0,0E0,0E0,0E0,0E0,0E0],"parents":[2147483647,0,0,1,1,2,2,3,3,4,4,5,5,6,6,7,7,8,8,9,9,10,10,11,11,12,12,13,13,14,14,15,15,16,16,17,17,18,18,19,19,20,20,21,21,22,22,25,25,26,26,28,28,29,29],"right_children":[2,4,6,8,10,12,14,16,18,20,22,24,26,28,30,32,34,36,38,40,42,44,46,-1,-1,48,50,-1,52,54,-1,-1,-1,-1,-1,-1,-1,-1,-1,-1,-1,-1,-1,-1,-1,-1,-1,-1,-1,-1,-1,-1,-1,-1,-1],"split_conditions":[6.437838E-1,1.457E1,1.0387387E0,3.154955E-1,-1.8576577E-1,2.2600612E-1,1.2524325E0,8.98E0,1.10200005E2,5.240642E-1,1.5675675E-2,4.0600002E1,8.98E0,4.25E1,1.513E0,-1.6306305E-1,1.0684685E-1,1E1,1.14E2,-4.5243242E-1,8.33E1,1.573E2,5.75E1,1.0092339E-2,3.3875957E-2,8.740541E-1,1.269E1,1.4816037E-2,-1.1141506E0,1.38E2,1.8041097E-2,-1.877172E-2,3.7290763E-2,-4.3827582E-2,-2.0578882E-2,-1.5547879E-2,1.3013166E-2,2.3640715E-2,-2.838058E-3,-7.4670897E-3,2.466705E-2,-3.605774E-2,-1.2646806E-2,1.3188325E-2,4.175718E-2,4.7891572E-2,7.824346E-2,-5.3624394E-3,9.257834E-3,1.37799755E-2,4.1907262E-2,1.3777167E-2,3.1016355E-2,4.3253046E-2,1.6776819E-2],"split_indices":[5,92,5,5,5,2,5,98,189,14,5,58,95,58,112,5,5,207,197,5,56,187,55,0,0,5,93,0,17,199,0,0,0,0,0,0,0,0,0,0,0,0,0,0,0,0,0,0,0,0,0,0,0,0,0],"split_type":[0,0,0,0,0,0,0,0,0,0,0,0,0,0,0,0,0,0,0,0,0,0,0,0,0,0,0,0,0,0,0,0,0,0,0,0,0,0,0,0,0,0,0,0,0,0,0,0,0,0,0,0,0,0,0],"sum_hessian":[1.113E3,8.72E2,2.41E2,3.67E2,5.05E2,1.7E2,7.1E1,1.88E2,1.79E2,4.28E2,7.7E1,2.6E1,1.44E2,4E1,3.1E1,3.3E1,1.55E2,1.35E2,4.4E1,2.65E2,1.63E2,5.5E1,2.2E1,2E0,2.4E1,7.4E1,7E1,1E1,3E1,2.7E1,4E0,2.5E1,8E0,7E1,8.5E1,1.12E2,2.3E1,3.7E1,7E0,1.57E2,1.08E2,4.1E1,1.22E2,2E1,3.5E1,8E0,1.4E1,3.9E1,3.5E1,6.5E1,5E0,5E0,2.5E1,2.4E1,3E0],"tree_param":{"num_deleted":"0","num_feature":"209","num_nodes":"55","size_leaf_vector":"1"}},{"base_weights":[2.6552228E-3,-3.786167E-2,1.3303043E-1,5.146458E-3,-1.5287974E-1,2.9504934E-2,1.9422516E-1,-1.6009706E-1,4.562416E-2,-3.8467774E-1,-9.223897E-2,-6.254089E-2,1.6348651E-1,1.4704284E-1,2.986586E-1,-3.554167E-2,-3.0369553E-1,-1.4027135E-3,2.4711195E-1,-4.2059326E-1,-6.317027E-2,-1.5255968E-1,4.695283E-2,-1.24359556E-1,-1.1610161E-2,2.5822344E-1,1.1538076E-1,7.878699E-2,2.105728E-1,3.121397E-1,-1.8769827E-2,-1.1977932E-2,2.0042636E-2,-1.4460963E-2,-3.5212796E-2,-1.74097E-2,7.997985E-3,1.5516062E-2,4.9836926E-2,-1.1897602E-2,-4.662886E-2,8.851027E-3,-2.4435421E-2,-3.1717964E-2,-9.328507E-3,-6.10008E-3,1.6094055E-2,-1.9690622E-2,-6.2177083E-3,4.4889054E-3,-9.55297E-3,1.42348325E-2,3.372095E-2,-7.707551E-3,1.2500688E-2,3.965786E-3,1.7082443E-2,2.3139266E-2,4.6319645E-3,1.6701777E-2,3.3992212E-2],"categories":[],"categories_nodes":[],"categories_segments":[],"categories_sizes":[],"default_left":[0,0,0,0,0,0,0,0,0,0,0,0,0,0,0,0,0,0,0,0,0,0,0,0,0,0,0,0,0,0,0,0,0,0,0,0,0,0,0,0,0,0,0,0,0,0,0,0,0,0,0,0,0,0,0,0,0,0,0,0,0],"id":13,"left_children":[1,3,5,7,9,11,13,15,17,19,21,23,25,27,29,31,33,35,37,39,41,43,45,47,49,51,53,55,57,59,-1,-1,-1,-1,-1,-1,-1,-1,-1,-1,-1,-1,-1,-1,-1,-1,-1,-1,-1,-1,-1,-1,-1,-1,-1,-1,-1,-1,-1,-1,-1],"loss_changes":[5.9266057E0,4.2351723E0,1.6794367E0,4.181039E0,3.2396612E0,1.2434691E0,7.7896166E-1,2.1891801E0,4.7569675E0,5.276928E-1,1.568847E0,1.8746436E-1,1.5705895E-1,4.9075556E-1,3.9297628E-1,1.3557923E0,3.8825893E-1,5.7480803E0,2.1174998E0,5.3716993E-1,1.8652034E-1,1.238924E0,7.112247E-1,1.0955745E-1,1.6549541E-1,7.098162E-2,6.336063E-2,2.0210356E-1,1.9446564E-1,1.4481878E-1,0E0,0E0,0E0,0E0,0E0,0E0,0E0,0E0,0E0,0E0,0E0,0E0,0E0,0E0,0E0,0E0,0E0,0E0,0E0,0E0,0E0,0E0,0E0,0E0,0E0,0E0,0E0,0E0,0E0,0E0,0E0],"parents":[2147483647,0,0,1,1,2,2,3,3,4,4,5,5,6,6,7,7,8,8,9,9,10,10,11,11,12,12,13,13,14,14,15,15,16,16,17,17,18,18,19,19,20,20,21,21,22,22,23,23,24,24,25,25,26,26,27,27,28,28,29,29],"right_children":[2,4,6,8,10,12,14,16,18,20,22,24,26,28,30,32,34,36,38,40,42,44,46,48,50,52,54,56,58,60,-1,-1,-1,-1,-1,-1,-1,-1,-1,-1,-1,-1,-1,-1,-1,-1,-1,-1,-1,-1,-1,-1,-1,-1,-1,-1,-1,-1,-1,-1,-1],"split_conditions":[4.3917108E-1,2.4800001E1,2.11E1,-7.566845E-1,1.5173797E-1,6.1631006E-1,5.67E1,7.1427755E-2,1.16E2,1.9109999E1,-2.4999991E-1,5.06016E-1,-4.5E-1,8.46E1,2.2359999E1,7.0396954E-1,2.47E1,-5.033422E-1,2.92E1,-9.7710484E-1,-1.9518714E-1,2.69E1,3.0414444E-1,8.5200005E1,8.91E0,-4.4E-1,-8.9285684E-1,6.2566847E-1,3.35E1,4.5499997E0,-1.8769827E-2,-1.1977932E-2,2.0042636E-2,-1.4460963E-2,-3.5212796E-2,-1.74097E-2,7.997985E-3,1.5516062E-2,4.9836926E-2,-1.1897602E-2,-4.662886E-2,8.851027E-3,-2.4435421E-2,-3.1717964E-2,-9.328507E-3,-6.10008E-3,1.6094055E-2,-1.9690622E-2,-6.2177083E-3,4.4889054E-3,-9.55297E-3,1.42348325E-2,3.372095E-2,-7.707551E-3,1.2500688E-2,3.965786E-3,1.7082443E-2,2.3139266E-2,4.6319645E-3,1.6701777E-2,3.3992212E-2],"split_indices":[6,76,82,6,6,6,56,3,203,91,1,6,158,61,98,26,83,6,33,18,6,107,6,62,91,151,1,6,67,92,0,0,0,0,0,0,0,0,0,0,0,0,0,0,0,0,0,0,0,0,0,0,0,0,0,0,0,0,0,0,0],"split_type":[0,0,0,0,0,0,0,0,0,0,0,0,0,0,0,0,0,0,0,0,0,0,0,0,0,0,0,0,0,0,0,0,0,0,0,0,0,0,0,0,0,0,0,0,0,0,0,0,0,0,0,0,0,0,0,0,0,0,0,0,0],"sum_hessian":[1.12E3,8.55E2,2.65E2,6.23E2,2.32E2,9.9E1,1.66E2,1.22E2,5.01E2,4.7E1,1.85E2,5.9E1,4E1,1.16E2,5E1,6.6E1,5.6E1,4.07E2,9.4E1,4.2E1,5E0,1.29E2,5.6E1,2.6E1,3.3E1,1.2E1,2.8E1,5.7E1,5.9E1,4.9E1,1E0,4.9E1,1.7E1,1.4E1,4.2E1,1.3E2,2.77E2,7E1,2.4E1,6E0,3.6E1,3E0,2E0,3.3E1,9.6E1,2.9E1,2.7E1,1.1E1,1.5E1,2E1,1.3E1,6E0,6E0,1E0,2.7E1,4.1E1,1.6E1,5.2E1,7E0,9E0,4E1],"tree_param":{"num_deleted":"0","num_feature":"209","num_nodes":"61","size_leaf_vector":"1"}},{"base_weights":[-1.3726825E-3,-4.3159112E-2,1.576034E-1,-1.1217776E-1,3.0183403E-2,1.1128347E-1,2.8410804E-1,-1.7468183E-1,-7.834672E-3,-3.5986856E-2,3.250176E-1,1.622649E-1,1.5113112E-2,2.4948515E-1,4.046945E-1,-5.7661366E-2,-2.573105E-1,-8.07868E-2,1.6397102E-1,1.9101916E-2,-2.178116E-1,2.5916225E-1,6.65625E-2,1.18821286E-1,2.6580316E-1,-1.1948424E-1,5.4884385E-2,2.655152E-1,1.3213793E-2,1.6630812E-2,4.3574095E-2,-2.0598685E-2,1.2813379E-2,-2.3093222E-2,-5.25324E-2,-3.3843033E-3,-3.004816E-2,-2.7124373E-2,1.9682286E-2,-9.368366E-3,1.6326733E-2,-3.8204636E-2,-1.3767025E-2,4.6778213E-2,1.8454071E-2,5.9763053E-3,1.73541E-2,2.9229432E-2,6.4291954E-3,-7.059614E-4,-1.6374813E-2,-5.927796E-4,8.6462535E-3,1.5086891E-2,2.8361676E-2],"categories":[],"categories_nodes":[],"categories_segments":[],"categories_sizes":[],"default_left":[0,0,0,0,0,0,0,0,0,0,0,0,0,0,0,0,0,0,0,0,0,0,0,0,0,0,0,0,0,0,0,0,0,0,0,0,0,0,0,0,0,0,0,0,0,0,0,0,0,0,0,0,0,0,0],"id":14,"left_children":[1,3,5,7,9,11,13,15,17,19,21,23,25,27,29,31,33,35,37,39,41,43,-1,45,47,49,51,53,-1,-1,-1,-1,-1,-1,-1,-1,-1,-1,-1,-1,-1,-1,-1,-1,-1,-1,-1,-1,-1,-1,-1,-1,-1,-1,-1],"loss_changes":[7.340721E0,4.432637E0,1.3161111E0,2.9399934E0,8.30313E0,8.3104086E-1,1.5371323E-1,2.7118902E0,2.1439574E0,3.489903E0,1.5770979E0,4.6770334E-1,3.277443E-1,5.8969498E-2,1.6345263E-2,3.2782564E0,1.0451918E0,1.2274268E0,7.8256464E-1,4.372916E0,1.013525E0,9.567003E-1,0E0,2.481606E-1,1.5203261E-1,6.85129E-2,9.076832E-2,4.6447754E-2,0E0,0E0,0E0,0E0,0E0,0E0,0E0,0E0,0E0,0E0,0E0,0E0,0E0,0E0,0E0,0E0,0E0,0E0,0E0,0E0,0E0,0E0,0E0,0E0,0E0,0E0,0E0],"parents":[2147483647,0,0,1,1,2,2,3,3,4,4,5,5,6,6,7,7,8,8,9,9,10,10,11,11,12,12,13,13,14,14,15,15,16,16,17,17,18,18,19,19,20,20,21,21,23,23,24,24,25,25,26,26,27,27],"right_children":[2,4,6,8,10,12,14,16,18,20,22,24,26,28,30,32,34,36,38,40,42,44,-1,46,48,50,52,54,-1,-1,-1,-1,-1,-1,-1,-1,-1,-1,-1,-1,-1,-1,-1,-1,-1,-1,-1,-1,-1,-1,-1,-1,-1,-1,-1],"split_conditions":[6.5387386E-1,1.68E1,1.1021622E0,3.3855858E-1,-2.29009E-1,1.23E2,1.5645046E0,1.023E2,7.2000003E0,9.6256685E-1,9.675676E-2,2.87E1,7.324324E-1,3.23E1,-7.692568E-1,-3.3963963E-1,1.271E2,1.03E1,6.2000003E0,-4.790991E-1,-4.383784E-1,8.99E1,6.65625E-2,1.085E2,1.05E1,5.83E0,-5.2E-1,-7.5E-1,1.3213793E-2,1.6630812E-2,4.3574095E-2,-2.0598685E-2,1.2813379E-2,-2.3093222E-2,-5.25324E-2,-3.3843033E-3,-3.004816E-2,-2.7124373E-2,1.9682286E-2,-9.368366E-3,1.6326733E-2,-3.8204636E-2,-1.3767025E-2,4.6778213E-2,1.8454071E-2,5.9763053E-3,1.73541E-2,2.9229432E-2,6.4291954E-3,-7.059614E-4,-1.6374813E-2,-5.927796E-4,8.6462535E-3,1.5086891E-2,2.8361676E-2],"split_indices":[5,92,5,5,5,199,5,199,50,14,5,105,5,99,16,5,200,47,39,5,5,199,0,201,46,91,175,171,0,0,0,0,0,0,0,0,0,0,0,0,0,0,0,0,0,0,0,0,0,0,0,0,0,0,0],"split_type":[0,0,0,0,0,0,0,0,0,0,0,0,0,0,0,0,0,0,0,0,0,0,0,0,0,0,0,0,0,0,0,0,0,0,0,0,0,0,0,0,0,0,0,0,0,0,0,0,0,0,0,0,0,0,0],"sum_hessian":[1.103E3,8.74E2,2.29E2,4.5E2,4.24E2,1.69E2,6E1,2.81E2,1.69E2,3.47E2,7.7E1,1.1E2,5.9E1,4.9E1,1.1E1,1.17E2,1.64E2,1.19E2,5E1,2.67E2,8E1,6.6E1,1.1E1,7.9E1,3.1E1,1.3E1,4.6E1,4.2E1,7E0,2E0,9E0,6.5E1,5.2E1,1.51E2,1.3E1,9.9E1,2E1,3E0,4.7E1,1.5E2,1.17E2,2.5E1,5.5E1,1.6E1,5E1,3.9E1,4E1,2.7E1,4E0,4E0,9E0,1.6E1,3E1,7E0,3.5E1],"tree_param":{"num_deleted":"0","num_feature":"209","num_nodes":"55","size_leaf_vector":"1"}},{"base_weights":[-1.5478533E-3,-1.4778984E-1,3.4728426E-2,2.2061795E-2,-2.3286472E-1,2.0668255E-1,-7.0561785E-3,-1.3059871E-1,1.2673765E-1,-4.363657E-1,-1.838491E-1,8.8448934E-2,3.2525852E-1,-8.097887E-2,1.2591742E-1,2.096247E-2,-2.0376891E-1,2.0276271E-1,-3.1493586E-1,-2.6481166E-2,-4.7111627E-2,-2.3153728E-1,-1.7186979E-2,-1.1200199E-1,2.4704069E-1,2.2650598E-1,5.2525467E-1,3.8659696E-2,-1.4712945E-1,8.878659E-2,2.4696936E-1,1.0777495E-2,-4.404108E-3,-2.2037728E-2,-3.0659537E-3,8.188555E-3,3.3923686E-2,-3.5610758E-2,-3.3952878E-3,-1.28553705E-2,-2.877521E-2,-2.1030335E-2,1.4079425E-2,-1.8128281E-2,4.583374E-3,-5.5274162E-3,2.895217E-2,1.0731168E-2,3.8908552E-2,5.4496776E-2,-3.498964E-4,-1.9557973E-2,1.7309316E-2,-2.8077189E-2,-6.442856E-3,2.5911698E-2,6.282465E-3,2.254991E-2,4.380423E-2],"categories":[],"categories_nodes":[],"categories_segments":[],"categories_sizes":[],"default_left":[0,0,0,0,0,0,0,0,0,0,0,0,0,0,0,0,0,0,0,0,0,0,0,0,0,0,0,0,0,0,0,0,0,0,0,0,0,0,0,0,0,0,0,0,0,0,0,0,0,0,0,0,0,0,0,0,0,0,0],"id":15,"left_children":[1,3,5,7,9,11,13,15,17,19,21,23,25,27,29,31,33,35,37,-1,-1,39,41,43,45,47,49,51,53,55,57,-1,-1,-1,-1,-1,-1,-1,-1,-1,-1,-1,-1,-1,-1,-1,-1,-1,-1,-1,-1,-1,-1,-1,-1,-1,-1,-1,-1],"loss_changes":[5.925641E0,3.2130609E0,6.4320645E0,1.2150419E0,1.3960352E0,2.4246726E0,7.097458E0,3.480541E-1,1.5748785E0,4.216814E-2,9.5770645E-1,2.8569674E0,1.599288E0,3.6778586E0,1.1377206E0,6.682083E-2,5.3619742E-2,6.1558914E-1,6.88889E-2,0E0,0E0,5.0719357E-1,8.8385475E-1,4.4570833E-1,6.5813446E-1,1.1209602E0,2.9376125E-1,5.26113E0,3.286562E0,8.637202E-1,1.4736462E-1,0E0,0E0,0E0,0E0,0E0,0E0,0E0,0E0,0E0,0E0,0E0,0E0,0E0,0E0,0E0,0E0,0E0,0E0,0E0,0E0,0E0,0E0,0E0,0E0,0E0,0E0,0E0,0E0],"parents":[2147483647,0,0,1,1,2,2,3,3,4,4,5,5,6,6,7,7,8,8,9,9,10,10,11,11,12,12,13,13,14,14,15,15,16,16,17,17,18,18,21,21,22,22,23,23,24,24,25,25,26,26,27,27,28,28,29,29,30,30],"right_children":[2,4,6,8,10,12,14,16,18,20,22,24,26,28,30,32,34,36,38,-1,-1,40,42,44,46,48,50,52,54,56,58,-1,-1,-1,-1,-1,-1,-1,-1,-1,-1,-1,-1,-1,-1,-1,-1,-1,-1,-1,-1,-1,-1,-1,-1,-1,-1,-1,-1],"split_conditions":[-4.6252254E-1,-1.4285766E-1,2.35E1,-5.479279E-1,8.1200005E1,3.07E1,6.1675674E-1,2.79E1,1.851E2,-1.4438502E-1,-4.9855855E-1,-2.8558558E-1,3.04E1,9.43E1,1.1021622E0,-2.26E-1,1.8E-1,1.97E3,8.5714257E-1,-2.6481166E-2,-4.7111627E-2,3.23E1,5.0600002E1,8.66E1,3.9100002E1,-3.7351352E-1,-1.3003103E-1,-3.1117117E-1,2.0234235E-1,7.75E1,7.3E0,1.0777495E-2,-4.404108E-3,-2.2037728E-2,-3.0659537E-3,8.188555E-3,3.3923686E-2,-3.5610758E-2,-3.3952878E-3,-1.28553705E-2,-2.877521E-2,-2.1030335E-2,1.4079425E-2,-1.8128281E-2,4.583374E-3,-5.5274162E-3,2.895217E-2,1.0731168E-2,3.8908552E-2,5.4496776E-2,-3.498964E-4,-1.9557973E-2,1.7309316E-2,-2.8077189E-2,-6.442856E-3,2.5911698E-2,6.282465E-3,2.254991E-2,4.380423E-2],"split_indices":[5,3,86,5,56,106,5,31,183,14,5,5,101,183,5,123,174,208,1,0,0,73,52,56,60,5,2,5,5,62,50,0,0,0,0,0,0,0,0,0,0,0,0,0,0,0,0,0,0,0,0,0,0,0,0,0,0,0,0],"split_type":[0,0,0,0,0,0,0,0,0,0,0,0,0,0,0,0,0,0,0,0,0,0,0,0,0,0,0,0,0,0,0,0,0,0,0,0,0,0,0,0,0,0,0,0,0,0,0,0,0,0,0,0,0,0,0,0,0,0,0],"sum_hessian":[1.115E3,2.21E2,8.94E2,7.4E1,1.47E2,1.74E2,7.2E2,3E1,4.4E1,2.7E1,1.2E2,8.8E1,8.6E1,4.63E2,2.57E2,1E1,2E1,3.8E1,6E0,6E0,2.1E1,9.3E1,2.7E1,3.9E1,4.9E1,5.9E1,2.7E1,1.65E2,2.98E2,1.98E2,5.9E1,4E0,6E0,1.8E1,2E0,2.1E1,1.7E1,5E0,1E0,3.4E1,5.9E1,1.2E1,1.5E1,2.7E1,1.2E1,6E0,4.3E1,3.5E1,2.4E1,2.6E1,1E0,6E1,1.05E2,1.13E2,1.85E2,2.5E1,1.73E2,5.5E1,4E0],"tree_param":{"num_deleted":"0","num_feature":"209","num_nodes":"59","size_leaf_vector":"1"}},{"base_weights":[1.8190319E-4,-3.5521902E-2,1.11407205E-1,-1.11841865E-1,5.0767206E-2,8.700354E-2,2.4499336E-1,-3.1561348E-1,-6.767348E-2,-6.098982E-2,2.1632627E-1,2.909548E-1,6.609454E-2,4.0741988E-2,2.0550825E-1,-3.3435714E-1,2.7067868E-2,1.3251905E-1,-1.2664707E-1,-2.3299856E-1,2.0585673E-2,3.199899E-1,6.540646E-2,3.1709164E-1,1.0060029E-2,1.1985986E-1,1.1699749E-2,1.4150323E-2,2.5195968E-1,-3.0323405E-2,-7.218828E-2,2.795573E-3,2.2251938E-2,-2.4497788E-2,-7.138338E-3,-2.879451E-3,-2.635023E-2,-1.2223054E-2,1.21092E-2,3.5122182E-2,-5.9656263E-3,-4.065346E-3,2.4097087E-2,9.261626E-3,3.248481E-2,3.9838343E-3,1.9761987E-2,-8.476701E-3,6.9987187E-3,1.16033E-2,2.7019387E-2],"categories":[],"categories_nodes":[],"categories_segments":[],"categories_sizes":[],"default_left":[0,0,0,0,0,0,0,0,0,0,0,0,0,0,0,0,0,0,0,0,0,0,0,0,0,0,0,0,0,0,0,0,0,0,0,0,0,0,0,0,0,0,0,0,0,0,0,0,0,0,0],"id":16,"left_children":[1,3,5,7,9,11,13,15,17,19,21,23,25,-1,27,29,-1,31,33,35,37,39,41,43,-1,45,47,-1,49,-1,-1,-1,-1,-1,-1,-1,-1,-1,-1,-1,-1,-1,-1,-1,-1,-1,-1,-1,-1,-1,-1],"loss_changes":[4.396067E0,5.524395E0,8.5562205E-1,3.9837584E0,7.303135E0,9.573209E-1,1.7922258E-1,9.5865536E-1,4.3496118E0,3.316277E0,2.4666095E0,7.258117E-2,6.0982937E-1,0E0,6.8406224E-2,7.097969E-1,0E0,7.842808E-1,1.8397017E0,4.6581554E-1,2.325784E0,1.135519E0,1.2387391E0,1.2539625E-3,0E0,6.4548683E-1,5.963266E-1,0E0,1.5740275E-2,0E0,0E0,0E0,0E0,0E0,0E0,0E0,0E0,0E0,0E0,0E0,0E0,0E0,0E0,0E0,0E0,0E0,0E0,0E0,0E0,0E0,0E0],"parents":[2147483647,0,0,1,1,2,2,3,3,4,4,5,5,6,6,7,7,8,8,9,9,10,10,11,11,12,12,14,14,15,15,17,17,18,18,19,19,20,20,21,21,22,22,23,23,25,25,26,26,28,28],"right_children":[2,4,6,8,10,12,14,16,18,20,22,24,26,-1,28,30,-1,32,34,36,38,40,42,44,-1,46,48,-1,50,-1,-1,-1,-1,-1,-1,-1,-1,-1,-1,-1,-1,-1,-1,-1,-1,-1,-1,-1,-1,-1,-1],"split_conditions":[5.940541E-1,8.01E1,1.1803603E0,-3.216216E-1,-4.3045044E-1,6E0,6E0,3.01E1,1.036E2,8.16E1,8.0213904E-1,1.23E1,1.17E2,4.0741988E-2,-1.49E-1,6.53E1,2.7067868E-2,-8.990991E-2,1.3963965E-1,0E0,-5.4E-1,3.06E1,-2.4342342E-1,-1.5750946E0,1.0060029E-2,1.085E2,8.2396394E-1,1.4150323E-2,-1.1381034E0,-3.0323405E-2,-7.218828E-2,2.795573E-3,2.2251938E-2,-2.4497788E-2,-7.138338E-3,-2.879451E-3,-2.635023E-2,-1.2223054E-2,1.21092E-2,3.5122182E-2,-5.9656263E-3,-4.065346E-3,2.4097087E-2,9.261626E-3,3.248481E-2,3.9838343E-3,1.9761987E-2,-8.476701E-3,6.9987187E-3,1.16033E-2,2.7019387E-2],"split_indices":[5,56,5,5,5,207,40,34,199,54,14,43,199,0,123,62,0,5,5,14,5,99,5,17,0,201,5,0,16,0,0,0,0,0,0,0,0,0,0,0,0,0,0,0,0,0,0,0,0,0,0],"split_type":[0,0,0,0,0,0,0,0,0,0,0,0,0,0,0,0,0,0,0,0,0,0,0,0,0,0,0,0,0,0,0,0,0,0,0,0,0,0,0,0,0,0,0,0,0,0,0,0,0,0,0],"sum_hessian":[1.105E3,8.37E2,2.68E2,4.44E2,3.93E2,2.28E2,4E1,7.8E1,3.66E2,2.35E2,1.58E2,2E1,2.08E2,6E0,3.4E1,7.6E1,2E0,8.3E1,2.83E2,7.5E1,1.6E2,9.3E1,6.5E1,1.7E1,3E0,1.04E2,1.04E2,1.6E1,1.8E1,7.2E1,4E0,3.9E1,4.4E1,8.9E1,1.94E2,1E1,6.5E1,6.6E1,9.4E1,8.6E1,7E0,4.1E1,2.4E1,1E0,1.6E1,5.2E1,5.2E1,3.9E1,6.5E1,3E0,1.5E1],"tree_param":{"num_deleted":"0","num_feature":"209","num_nodes":"51","size_leaf_vector":"1"}},{"base_weights":[4.9872547E-3,-1.0897795E-1,3.590941E-2,-4.858178E-2,-3.1387267E-1,2.4246228E-1,1.2272778E-2,-1.2691899E-1,1.2086581E-1,-1.614313E-1,-3.738103E-1,4.8214042E-1,1.670951E-1,-2.5591135E-2,1.3157915E-1,-2.7541013E-2,-2.4098952E-1,2.672578E-1,5.364107E-3,-2.5098178E-1,2.352491E-3,-2.704361E-1,-4.855998E-1,2.7325192E-1,5.6706667E-2,4.9354363E-2,3.1362846E-1,-9.1202185E-2,7.024135E-2,6.8223014E-2,1.7803442E-1,-1.0921459E-2,1.6434213E-2,-1.2280702E-2,-3.590126E-2,1.1028965E-2,3.3089425E-2,-7.97206E-3,1.4894097E-2,-2.3877502E-3,-2.9879635E-2,3.4639572E-3,-3.0522712E-3,-1.4965597E-2,-3.1682312E-2,-1.4262E-2,-4.9812227E-2,3.0189255E-2,3.6383823E-3,1.5410098E-2,-4.3352013E-3,3.9219297E-2,1.565519E-2,-2.6291305E-2,-4.974645E-3,-5.334429E-3,2.9387686E-2,1.44159915E-2,3.6177102E-3,1.6293015E-2,3.7484948E-2],"categories":[],"categories_nodes":[],"categories_segments":[],"categories_sizes":[],"default_left":[0,0,0,0,0,0,0,0,0,0,0,0,0,0,0,0,0,0,0,0,0,0,0,0,0,0,0,0,0,0,0,0,0,0,0,0,0,0,0,0,0,0,0,0,0,0,0,0,0,0,0,0,0,0,0,0,0,0,0,0,0],"id":17,"left_children":[1,3,5,7,9,11,13,15,17,19,21,23,25,27,29,31,33,35,37,39,41,43,45,47,-1,49,51,53,55,57,59,-1,-1,-1,-1,-1,-1,-1,-1,-1,-1,-1,-1,-1,-1,-1,-1,-1,-1,-1,-1,-1,-1,-1,-1,-1,-1,-1,-1,-1,-1],"loss_changes":[3.929705E0,2.929967E0,4.278727E0,2.4710398E0,4.3305206E-1,1.5451846E0,3.5630832E0,1.4330473E0,9.9616945E-1,2.4992806E-1,3.078103E-1,2.1759033E-1,1.1922272E0,3.7727208E0,5.470669E-1,1.0993015E0,7.7885795E-1,2.2321689E-1,4.2722428E-1,1.1231327E-1,8.487403E-3,7.584345E-2,1.9721985E-3,4.328841E-2,0E0,3.9510775E-1,3.2116127E-1,2.5210712E0,6.7593813E0,1.9432896E-1,2.629552E-1,0E0,0E0,0E0,0E0,0E0,0E0,0E0,0E0,0E0,0E0,0E0,0E0,0E0,0E0,0E0,0E0,0E0,0E0,0E0,0E0,0E0,0E0,0E0,0E0,0E0,0E0,0E0,0E0,0E0,0E0],"parents":[2147483647,0,0,1,1,2,2,3,3,4,4,5,5,6,6,7,7,8,8,9,9,10,10,11,11,12,12,13,13,14,14,15,15,16,16,17,17,18,18,19,19,20,20,21,21,22,22,23,23,25,25,26,26,27,27,28,28,29,29,30,30],"right_children":[2,4,6,8,10,12,14,16,18,20,22,24,26,28,30,32,34,36,38,40,42,44,46,48,-1,50,52,54,56,58,60,-1,-1,-1,-1,-1,-1,-1,-1,-1,-1,-1,-1,-1,-1,-1,-1,-1,-1,-1,-1,-1,-1,-1,-1,-1,-1,-1,-1,-1,-1],"split_conditions":[-4.556757E-1,8.0213904E-1,3.76E0,1.2E1,3.12E1,9.3E1,7.4180186E-1,2E0,3.7433156E-1,-9.7E-2,-1.56E-1,-4.3297297E-1,-3.49009E-1,6.86E1,9.5405406E-1,-5.1261264E-1,6.2000003E0,3.1E1,-5.317117E-1,4.24E0,9.285708E-1,-2.1E-1,-1.2480793E0,1.3214281E0,5.6706667E-2,1.11E1,4.5E1,1.3963965E-1,-1.6306305E-1,3.8E0,7.6E0,-1.0921459E-2,1.6434213E-2,-1.2280702E-2,-3.590126E-2,1.1028965E-2,3.3089425E-2,-7.97206E-3,1.4894097E-2,-2.3877502E-3,-2.9879635E-2,3.4639572E-3,-3.0522712E-3,-1.4965597E-2,-3.1682312E-2,-1.4262E-2,-4.9812227E-2,3.0189255E-2,3.6383823E-3,1.5410098E-2,-4.3352013E-3,3.9219297E-2,1.565519E-2,-2.6291305E-2,-4.974645E-3,-5.334429E-3,2.9387686E-2,1.44159915E-2,3.6177102E-3,1.6293015E-2,3.7484948E-2],"split_indices":[5,14,98,207,67,197,5,207,14,133,123,5,5,56,5,5,44,65,5,95,3,180,10,1,0,40,183,5,5,90,50,0,0,0,0,0,0,0,0,0,0,0,0,0,0,0,0,0,0,0,0,0,0,0,0,0,0,0,0,0,0],"split_type":[0,0,0,0,0,0,0,0,0,0,0,0,0,0,0,0,0,0,0,0,0,0,0,0,0,0,0,0,0,0,0,0,0,0,0,0,0,0,0,0,0,0,0,0,0,0,0,0,0,0,0,0,0,0,0,0,0,0,0,0,0],"sum_hessian":[1.113E3,2.37E2,8.76E2,1.84E2,5.3E1,8.9E1,7.87E2,1.26E2,5.8E1,1.6E1,3.7E1,2E1,6.9E1,5.98E2,1.89E2,6.8E1,5.8E1,2.5E1,3.3E1,1E1,6E0,2.1E1,1.6E1,7E0,1.3E1,3.9E1,3E1,3.55E2,2.43E2,8.1E1,1.08E2,4.8E1,2E1,3E1,2.8E1,8E0,1.7E1,2.1E1,1.2E1,2E0,8E0,3E0,3E0,7E0,1.4E1,1E0,1.5E1,6E0,1E0,1.8E1,2.1E1,1.9E1,1.1E1,6.8E1,2.87E2,1.57E2,8.6E1,2.3E1,5.8E1,1.02E2,6E0],"tree_param":{"num_deleted":"0","num_feature":"209","num_nodes":"61","size_leaf_vector":"1"}},{"base_weights":[2.043202E-3,-2.60581E-2,1.0152264E-1,-1.5264623E-1,4.7753043E-3,6.555956E-2,1.7762645E-1,-2.1303374E-1,-2.0312201E-2,-1.07278116E-1,5.137998E-2,1.1445691E-1,-4.233327E-3,3.080667E-1,1.47266E-1,-3.0634764E-1,-1.6488029E-1,-8.974923E-2,1.0569006E-1,1.9710433E-2,-1.8679996E-1,2.3639487E-1,1.237593E-2,1.6286857E-1,5.4085206E-2,6.348547E-2,-4.98057E-2,3.257433E-2,3.9135427E-3,1.2696894E-1,2.2024868E-1,-3.2919273E-2,7.7524553E-3,-1.3141386E-2,-3.6285937E-2,-4.303399E-3,-2.251134E-2,1.33996755E-2,-4.1035907E-3,2.081326E-2,-3.3591278E-3,-3.8386725E-2,-1.5106288E-2,1.586583E-2,3.7880577E-2,-1.0594133E-2,6.6301785E-3,4.283706E-3,1.9190287E-2,1.8253316E-3,1.1413648E-2,2.5676198E-3,1.14908945E-2,-8.970432E-3,3.065202E-3,1.5301997E-2,9.302861E-3,1.0754182E-2,2.5839154E-2],"categories":[],"categories_nodes":[],"categories_segments":[],"categories_sizes":[],"default_left":[0,0,0,0,0,0,0,0,0,0,0,0,0,0,0,0,0,0,0,0,0,0,0,0,0,0,0,0,0,0,0,0,0,0,0,0,0,0,0,0,0,0,0,0,0,0,0,0,0,0,0,0,0,0,0,0,0,0,0],"id":18,"left_children":[1,3,5,7,9,11,13,15,17,19,21,23,25,27,29,31,33,35,37,39,41,43,45,47,49,51,53,-1,-1,55,57,-1,-1,-1,-1,-1,-1,-1,-1,-1,-1,-1,-1,-1,-1,-1,-1,-1,-1,-1,-1,-1,-1,-1,-1,-1,-1,-1,-1],"loss_changes":[3.1475847E0,3.4276884E0,6.6711307E-1,1.3701801E0,3.6976166E0,5.806414E-1,2.674899E-1,4.7970867E-1,4.9069285E-1,2.104141E0,3.6052394E0,2.8346074E-1,2.2227551E-1,5.3804994E-2,6.980324E-2,3.675351E-1,4.8236752E-1,2.1796101E-1,8.85652E-2,8.2049257E-1,8.434658E-1,9.0303564E-1,2.648493E0,1.8345618E-1,9.689714E-2,5.3433813E-2,1.4078617E-1,0E0,0E0,3.3510506E-2,2.8098583E-2,0E0,0E0,0E0,0E0,0E0,0E0,0E0,0E0,0E0,0E0,0E0,0E0,0E0,0E0,0E0,0E0,0E0,0E0,0E0,0E0,0E0,0E0,0E0,0E0,0E0,0E0,0E0,0E0],"parents":[2147483647,0,0,1,1,2,2,3,3,4,4,5,5,6,6,7,7,8,8,9,9,10,10,11,11,12,12,13,13,14,14,15,15,16,16,17,17,18,18,19,19,20,20,21,21,22,22,23,23,24,24,25,25,26,26,29,29,30,30],"right_children":[2,4,6,8,10,12,14,16,18,20,22,24,26,28,30,32,34,36,38,40,42,44,46,48,50,52,54,-1,-1,56,58,-1,-1,-1,-1,-1,-1,-1,-1,-1,-1,-1,-1,-1,-1,-1,-1,-1,-1,-1,-1,-1,-1,-1,-1,-1,-1,-1,-1],"split_conditions":[6.4954954E-1,2.34E1,1.0304505E0,4.8882884E-1,-4.9243242E-1,1.2E2,8.99E1,2.300901E-1,3.252E2,-7.1429186E-2,2.8799999E0,2.91E1,2.024E1,-7.1429186E-2,1.4913514E0,9.5E0,1.271E2,2.4300001E1,9.3E1,8.99E1,-9.597524E-1,8.75E1,-3.216216E-1,2.49E1,8.574775E-1,1.6179909E-1,4.643962E-1,3.257433E-2,3.9135427E-3,6.617647E-1,-3.82E-1,-3.2919273E-2,7.7524553E-3,-1.3141386E-2,-3.6285937E-2,-4.303399E-3,-2.251134E-2,1.33996755E-2,-4.1035907E-3,2.081326E-2,-3.3591278E-3,-3.8386725E-2,-1.5106288E-2,1.586583E-2,3.7880577E-2,-1.0594133E-2,6.6301785E-3,4.283706E-3,1.9190287E-2,1.8253316E-3,1.1413648E-2,2.5676198E-3,1.14908945E-2,-8.970432E-3,3.065202E-3,1.5301997E-2,9.302861E-3,1.0754182E-2,2.5839154E-2],"split_indices":[5,81,5,5,5,199,195,5,192,3,98,28,98,3,5,40,200,80,204,200,2,54,5,106,5,145,2,0,0,6,123,0,0,0,0,0,0,0,0,0,0,0,0,0,0,0,0,0,0,0,0,0,0,0,0,0,0,0,0],"split_type":[0,0,0,0,0,0,0,0,0,0,0,0,0,0,0,0,0,0,0,0,0,0,0,0,0,0,0,0,0,0,0,0,0,0,0,0,0,0,0,0,0,0,0,0,0,0,0,0,0,0,0,0,0,0,0,0,0,0,0],"sum_hessian":[1.124E3,8.77E2,2.47E2,1.71E2,7.06E2,1.69E2,7.8E1,1.17E2,5.4E1,2.07E2,4.99E2,9.9E1,7E1,1.3E1,6.5E1,3.8E1,7.9E1,3.5E1,1.9E1,8E1,1.27E2,8.6E1,4.13E2,5.4E1,4.5E1,2.8E1,4.2E1,1.2E1,1E0,5.3E1,1.2E1,3.6E1,2E0,6.9E1,1E1,2.7E1,8E0,1.6E1,3E0,1.7E1,6.3E1,1.8E1,1.09E2,5.7E1,2.9E1,1.29E2,2.84E2,1.1E1,4.3E1,2.9E1,1.6E1,1.7E1,1.1E1,2.8E1,1.4E1,2.8E1,2.5E1,4E0,8E0],"tree_param":{"num_deleted":"0","num_feature":"209","num_nodes":"59","size_leaf_vector":"1"}},{"base_weights":[4.386164E-3,-1.0386149E-1,2.8643843E-2,1.2114917E-2,-1.9242074E-1,1.4335515E-1,-3.0448264E-4,1.3369815E-1,-9.0257294E-2,-1.46507E-1,-3.165494E-1,9.764546E-2,3.260256E-1,-4.9990673E-2,9.36558E-2,-2.9625893E-3,2.7049997E-1,-1.8250628E-1,2.5970038E-2,-1.0129257E-1,-2.263757E-1,-3.3251524E-1,-1.2565124E-2,3.86548E-2,2.6037818E-1,1.4362574E-1,4.1884112E-1,-1.0312021E-1,5.2113775E-2,6.268762E-2,1.7085384E-1,6.6886446E-3,-2.0037442E-2,2.9949708E-2,1.178098E-2,-4.8101447E-3,-3.1347528E-2,-2.727078E-3,1.8136416E-2,-1.3691924E-2,3.2562732E-3,-1.2909666E-2,-2.5459899E-2,-3.673802E-2,-2.1809142E-2,1.2182662E-2,-1.1410015E-2,3.1835668E-2,5.460707E-3,2.1067819E-2,-7.6674926E-3,2.6376098E-2,5.2977342E-2,-2.064035E-2,-3.8438558E-3,-6.008785E-3,3.0849567E-2,4.677367E-3,2.1720355E-2,1.4268169E-2,2.8990367E-2],"categories":[],"categories_nodes":[],"categories_segments":[],"categories_sizes":[],"default_left":[0,0,0,0,0,0,0,0,0,0,0,0,0,0,0,0,0,0,0,0,0,0,0,0,0,0,0,0,0,0,0,0,0,0,0,0,0,0,0,0,0,0,0,0,0,0,0,0,0,0,0,0,0,0,0,0,0,0,0,0,0],"id":19,"left_children":[1,3,5,7,9,11,13,15,17,19,21,23,25,27,29,31,33,35,37,39,41,43,-1,45,47,49,51,53,55,57,59,-1,-1,-1,-1,-1,-1,-1,-1,-1,-1,-1,-1,-1,-1,-1,-1,-1,-1,-1,-1,-1,-1,-1,-1,-1,-1,-1,-1,-1,-1],"loss_changes":[2.9833E0,2.1386538E0,3.0816534E0,1.144721E0,6.261306E-1,1.5295792E0,3.4687297E0,7.860096E-1,5.408323E-1,2.948569E-1,5.2702665E-2,1.4394912E0,5.6623626E-1,2.641808E0,6.036949E-1,3.167609E-1,5.7695627E-2,4.7780168E-1,1.9523205E-1,2.810498E-1,5.224383E-2,3.158021E-2,0E0,1.43685E0,4.5982718E-1,2.2295749E-1,2.7314806E-1,2.1298375E0,4.8225365E0,4.4474804E-1,2.0347023E-1,0E0,0E0,0E0,0E0,0E0,0E0,0E0,0E0,0E0,0E0,0E0,0E0,0E0,0E0,0E0,0E0,0E0,0E0,0E0,0E0,0E0,0E0,0E0,0E0,0E0,0E0,0E0,0E0,0E0,0E0],"parents":[2147483647,0,0,1,1,2,2,3,3,4,4,5,5,6,6,7,7,8,8,9,9,10,10,11,11,12,12,13,13,14,14,15,15,16,16,17,17,18,18,19,19,20,20,21,21,23,23,24,24,25,25,26,26,27,27,28,28,29,29,30,30],"right_children":[2,4,6,8,10,12,14,16,18,20,22,24,26,28,30,32,34,36,38,40,42,44,-1,46,48,50,52,54,56,58,60,-1,-1,-1,-1,-1,-1,-1,-1,-1,-1,-1,-1,-1,-1,-1,-1,-1,-1,-1,-1,-1,-1,-1,-1,-1,-1,-1,-1,-1,-1],"split_conditions":[-4.7477478E-1,9.3E1,2.35E1,1.204E2,3.17E1,1.23E2,6.5387386E-1,-5.345946E-1,-3E-2,9.25E0,1.20921E0,-1.8576577E-1,3.02E1,8.0700005E1,1.1021622E0,-1.0833334E0,1.12E2,3.14E1,2.67E1,3.7E-1,-6.6644895E-1,3.64E-1,-1.2565124E-2,8.6E0,1.008E2,1.2683375E0,-6.216577E-1,2.300901E-1,-8.990991E-2,1.269E1,5.67E1,6.6886446E-3,-2.0037442E-2,2.9949708E-2,1.178098E-2,-4.8101447E-3,-3.1347528E-2,-2.727078E-3,1.8136416E-2,-1.3691924E-2,3.2562732E-3,-1.2909666E-2,-2.5459899E-2,-3.673802E-2,-2.1809142E-2,1.2182662E-2,-1.1410015E-2,3.1835668E-2,5.460707E-3,2.1067819E-2,-7.6674926E-3,2.6376098E-2,5.2977342E-2,-2.064035E-2,-3.8438558E-3,-6.008785E-3,3.0849567E-2,4.677367E-3,2.1720355E-2,1.4268169E-2,2.8990367E-2],"split_indices":[5,197,86,202,68,203,5,5,178,96,23,5,101,57,5,0,206,74,37,149,23,114,0,47,199,138,6,5,5,93,56,0,0,0,0,0,0,0,0,0,0,0,0,0,0,0,0,0,0,0,0,0,0,0,0,0,0,0,0,0,0],"split_type":[0,0,0,0,0,0,0,0,0,0,0,0,0,0,0,0,0,0,0,0,0,0,0,0,0,0,0,0,0,0,0,0,0,0,0,0,0,0,0,0,0,0,0,0,0,0,0,0,0,0,0,0,0,0,0,0,0,0,0,0,0],"sum_hessian":[1.134E3,2.07E2,9.27E2,9E1,1.17E2,1.86E2,7.41E2,4.1E1,4.9E1,8.7E1,3E1,1.5E2,3.6E1,4.85E2,2.56E2,2.1E1,2E1,2.7E1,2.2E1,5.7E1,3E1,2.7E1,3E0,1.11E2,3.9E1,1.3E1,2.3E1,3.19E2,1.66E2,1.84E2,7.2E1,1.6E1,5E0,1.6E1,4E0,1.4E1,1.3E1,1.7E1,5E0,4.5E1,1.2E1,8E0,2.2E1,1.9E1,8E0,7.2E1,3.9E1,3E1,9E0,1E1,3E0,1.1E1,1.2E1,1.22E2,1.97E2,1.16E2,5E1,1.68E2,1.6E1,6E1,1.2E1],"tree_param":{"num_deleted":"0","num_feature":"209","num_nodes":"61","size_leaf_vector":"1"}},{"base_weights":[2.276217E-3,1.5573479E-2,-1.445775E-1,1.201314E-1,5.22042E-4,-1.01784445E-1,-3.4950674E-1,7.054399E-2,2.5040495E-1,-1.814718E-2,7.459062E-2,3.1799042E-1,-1.3400932E-1,-4.6431345E-1,-4.0692626E-3,-1.2756096E-1,1.0549616E-1,6.0284287E-2,3.5524338E-1,-2.5939268E-1,-1.3096028E-2,2.0757455E-1,3.647385E-2,3.4625214E-2,8.834101E-3,-2.2816093E-1,-6.9692835E-2,-1.3631142E-2,-5.1628274E-1,8.597829E-3,-9.276039E-3,1.4128687E-2,-1.7979039E-2,1.6350944E-2,-4.3932707E-3,-1.3520044E-2,1.8390918E-2,1.5829533E-2,4.7054604E-2,-5.8756524E-4,-2.9794334E-2,-2.5668812E-3,1.2075174E-2,3.0700061E-2,4.914947E-3,-1.2129731E-2,6.4171366E-3,-2.8733714E-2,-8.107482E-3,6.518272E-4,-1.8860556E-2,-5.4965835E-2,-1.0795086E-2],"categories":[],"categories_nodes":[],"categories_segments":[],"categories_sizes":[],"default_left":[0,0,0,0,0,0,0,0,0,0,0,0,0,0,0,0,0,0,0,0,0,0,0,0,0,0,0,0,0,0,0,0,0,0,0,0,0,0,0,0,0,0,0,0,0,0,0,0,0,0,0,0,0],"id":20,"left_children":[1,3,5,7,9,11,13,15,17,19,21,23,25,27,29,31,33,35,37,39,41,43,45,-1,-1,47,49,-1,51,-1,-1,-1,-1,-1,-1,-1,-1,-1,-1,-1,-1,-1,-1,-1,-1,-1,-1,-1,-1,-1,-1,-1,-1],"loss_changes":[2.2342477E0,1.6507978E0,7.975328E-1,8.3504593E-1,1.2707665E0,1.1247889E0,6.326473E-1,6.8510437E-1,6.9613504E-1,8.910318E-1,9.3017864E-1,8.353353E-3,4.382614E-1,1.3417697E-1,4.790748E-2,2.3602855E-1,7.2669864E-1,3.6319953E-1,4.4781327E-1,1.4484799E-1,1.2147437E0,6.30726E-1,6.4141476E-1,0E0,0E0,2.378242E-1,4.1810307E-1,0E0,7.694769E-2,0E0,0E0,0E0,0E0,0E0,0E0,0E0,0E0,0E0,0E0,0E0,0E0,0E0,0E0,0E0,0E0,0E0,0E0,0E0,0E0,0E0,0E0,0E0,0E0],"parents":[2147483647,0,0,1,1,2,2,3,3,4,4,5,5,6,6,7,7,8,8,9,9,10,10,11,11,12,12,13,13,14,14,15,15,16,16,17,17,18,18,19,19,20,20,21,21,22,22,25,25,26,26,28,28],"right_children":[2,4,6,8,10,12,14,16,18,20,22,24,26,28,30,32,34,36,38,40,42,44,46,-1,-1,48,50,-1,52,-1,-1,-1,-1,-1,-1,-1,-1,-1,-1,-1,-1,-1,-1,-1,-1,-1,-1,-1,-1,-1,-1,-1,-1],"split_conditions":[1.2857132E0,9.3E1,1.2600001E2,7.74E-1,4.5E-2,6.2100002E1,1.35E2,-8.080496E-1,-3.39E-1,-1.0278637E0,9.3E1,1.75E0,3.2100002E1,9.900001E0,1.5000008E0,4.78E1,8.333333E-1,3.28E1,2.69E1,8.5714257E-1,1.2E1,2.2459893E-1,2.51E1,3.4625214E-2,8.834101E-3,1.664E1,1.6666666E0,-1.3631142E-2,1.4042469E0,8.597829E-3,-9.276039E-3,1.4128687E-2,-1.7979039E-2,1.6350944E-2,-4.3932707E-3,-1.3520044E-2,1.8390918E-2,1.5829533E-2,4.7054604E-2,-5.8756524E-4,-2.9794334E-2,-2.5668812E-3,1.2075174E-2,3.0700061E-2,4.914947E-3,-1.2129731E-2,6.4171366E-3,-2.8733714E-2,-8.107482E-3,6.518272E-4,-1.8860556E-2,-5.4965835E-2,-1.0795086E-2],"split_indices":[3,201,196,112,133,56,196,2,132,2,199,0,65,188,0,60,0,63,28,1,207,14,109,0,0,97,0,0,24,0,0,0,0,0,0,0,0,0,0,0,0,0,0,0,0,0,0,0,0,0,0,0,0],"split_type":[0,0,0,0,0,0,0,0,0,0,0,0,0,0,0,0,0,0,0,0,0,0,0,0,0,0,0,0,0,0,0,0,0,0,0,0,0,0,0,0,0,0,0,0,0,0,0,0,0,0,0,0,0],"sum_hessian":[1.142E3,1.048E3,9.4E1,1.31E2,9.17E2,7.9E1,1.5E1,9.6E1,3.5E1,7.33E2,1.84E2,5E0,7.4E1,1.1E1,4E0,1.4E1,8.2E1,1.3E1,2.2E1,1.4E1,7.19E2,4E1,1.44E2,4E0,1E0,2.9E1,4.5E1,2E0,9E0,2E0,2E0,2E0,1.2E1,5.9E1,2.3E1,5E0,8E0,9E0,1.3E1,2E0,1.2E1,6.58E2,6.1E1,2.4E1,1.6E1,2.1E1,1.23E2,2E1,9E0,2.8E1,1.7E1,8E0,1E0],"tree_param":{"num_deleted":"0","num_feature":"209","num_nodes":"53","size_leaf_vector":"1"}},{"base_weights":[3.4577623E-3,1.3499197E-2,-1.5908329E-1,-1.4417754E-1,2.302775E-2,-3.2475153E-1,-1.08235076E-1,-9.138779E-4,-2.1403997E-1,1.1542826E-1,1.5636174E-3,-5.772373E-2,-3.866982E-1,-1.6772075E-1,1.04027204E-1,1.571529E-2,-7.4617445E-2,-1.1073827E-1,-2.7572352E-1,7.6142535E-2,2.26921E-1,-1.9795403E-2,7.286509E-2,2.0525455E-3,-9.064862E-3,-1.0231763E-2,-4.3334252E-1,4.8376746E-2,-1.9239011E-1,2.2141341E-2,1.7657429E-2,1.1957278E-3,-1.07186185E-2,-1.611693E-2,-1.5669769E-3,-2.9600114E-3,-2.8474534E-2,-8.11759E-3,1.408082E-2,1.2632332E-2,3.7911087E-2,-9.116515E-3,3.2128491E-3,5.751682E-3,1.8675802E-2,-1.28889205E-2,-4.5284968E-2,-5.1647546E-3,8.629471E-3,-9.383305E-3,-2.4830168E-2,-6.4825783E-3,5.595613E-3],"categories":[],"categories_nodes":[],"categories_segments":[],"categories_sizes":[],"default_left":[0,0,0,0,0,0,0,0,0,0,0,0,0,0,0,0,0,0,0,0,0,0,0,0,0,0,0,0,0,0,0,0,0,0,0,0,0,0,0,0,0,0,0,0,0,0,0,0,0,0,0,0,0],"id":21,"left_children":[1,3,5,7,9,11,13,15,17,19,21,23,25,27,29,-1,31,33,35,37,39,41,43,-1,-1,-1,45,47,49,-1,51,-1,-1,-1,-1,-1,-1,-1,-1,-1,-1,-1,-1,-1,-1,-1,-1,-1,-1,-1,-1,-1,-1],"loss_changes":[1.8513681E0,1.6079167E0,5.2083015E-1,6.1033785E-1,1.9989829E0,2.2580051E-1,6.740289E-1,2.5637814E-1,2.3071957E-1,8.149357E-1,1.2487217E0,1.2165984E-2,1.1483824E-1,2.2787774E-1,1.1775382E-1,0E0,4.357609E-2,7.897933E-2,4.7083378E-2,1.4560105E0,7.0229673E-1,2.3412852E0,3.196416E-1,0E0,0E0,0E0,1.0225773E-3,2.3420496E-2,1.8058896E-1,0E0,2.8899398E-2,0E0,0E0,0E0,0E0,0E0,0E0,0E0,0E0,0E0,0E0,0E0,0E0,0E0,0E0,0E0,0E0,0E0,0E0,0E0,0E0,0E0,0E0],"parents":[2147483647,0,0,1,1,2,2,3,3,4,4,5,5,6,6,7,7,8,8,9,9,10,10,11,11,12,12,13,13,14,14,16,16,17,17,18,18,19,19,20,20,21,21,22,22,26,26,27,27,28,28,30,30],"right_children":[2,4,6,8,10,12,14,16,18,20,22,24,26,28,30,-1,32,34,36,38,40,42,44,-1,-1,-1,46,48,50,-1,52,-1,-1,-1,-1,-1,-1,-1,-1,-1,-1,-1,-1,-1,-1,-1,-1,-1,-1,-1,-1,-1,-1],"split_conditions":[1.4285687E0,-8.128342E-1,9.8E0,3.7433156E-1,3.12E1,-1.0513242E0,-2.1122997E-1,1.77E0,2.89E1,-1.6377008E-1,4.973262E-1,1.6666667E-1,3.88E1,5.8E0,5.22E1,1.571529E-2,3.0800001E1,4.65E0,2.7E1,4.73E1,1.423E1,2.79E1,1.2E2,2.0525455E-3,-9.064862E-3,-1.0231763E-2,-8.074866E-1,1.6666666E0,1.952E1,2.2141341E-2,-3.3588344E-1,1.1957278E-3,-1.07186185E-2,-1.611693E-2,-1.5669769E-3,-2.9600114E-3,-2.8474534E-2,-8.11759E-3,1.408082E-2,1.2632332E-2,3.7911087E-2,-9.116515E-3,3.2128491E-3,5.751682E-3,1.8675802E-2,-1.28889205E-2,-4.5284968E-2,-5.1647546E-3,8.629471E-3,-9.383305E-3,-2.4830168E-2,-6.4825783E-3,5.595613E-3],"split_indices":[3,6,41,14,66,21,6,97,35,6,6,0,55,48,51,0,67,96,36,60,92,35,201,0,0,0,6,0,94,0,18,0,0,0,0,0,0,0,0,0,0,0,0,0,0,0,0,0,0,0,0,0,0],"split_type":[0,0,0,0,0,0,0,0,0,0,0,0,0,0,0,0,0,0,0,0,0,0,0,0,0,0,0,0,0,0,0,0,0,0,0,0,0,0,0,0,0,0,0,0,0,0,0,0,0,0,0,0,0],"sum_hessian":[1.132E3,1.067E3,6.5E1,6E1,1.007E3,1.4E1,5.1E1,2E1,4E1,1.89E2,8.18E2,3E0,1.1E1,4E1,1.1E1,6E0,1.4E1,1.6E1,2.4E1,1.41E2,4.8E1,6.3E2,1.88E2,1E0,2E0,2E0,9E0,4E0,3.6E1,4E0,7E0,4E0,1E1,1E1,6E0,1E0,2.3E1,4.1E1,1E2,3E1,1.8E1,2.65E2,3.65E2,1.67E2,2.1E1,1E0,8E0,1E0,3E0,1.4E1,2.2E1,2E0,5E0],"tree_param":{"num_deleted":"0","num_feature":"209","num_nodes":"53","size_leaf_vector":"1"}},{"base_weights":[2.7292194E-3,-1.1690395E-2,1.2331761E-1,1.4720622E-2,-7.777014E-2,2.5494277E-1,1.06011525E-1,-6.7632675E-2,5.7279475E-2,-1.15793094E-1,5.985179E-3,9.903439E-3,2.7428662E-2,9.378826E-2,2.6548514E-2,2.3660967E-2,-1.4070791E-1,1.1517954E-1,-5.417427E-2,-2.3184554E-1,-6.33565E-2,9.2819914E-2,-6.0535207E-2,1.558165E-1,7.633349E-2,-1.0865224E-2,8.332747E-3,-8.747595E-3,-2.3425942E-2,6.1765765E-3,2.2037027E-2,-1.741282E-2,8.5770525E-4,-3.7205633E-2,-1.677609E-2,-1.2084401E-2,1.2545781E-2,2.8321613E-2,2.626051E-3,-1.1891934E-2,6.3228304E-3,-1.091521E-3,1.7394168E-2,3.009933E-3,8.927084E-3],"categories":[],"categories_nodes":[],"categories_segments":[],"categories_sizes":[],"default_left":[0,0,0,0,0,0,0,0,0,0,0,0,0,0,0,0,0,0,0,0,0,0,0,0,0,0,0,0,0,0,0,0,0,0,0,0,0,0,0,0,0,0,0,0,0],"id":22,"left_children":[1,3,5,7,9,11,13,15,17,19,21,-1,-1,23,-1,25,27,29,31,33,35,37,39,41,43,-1,-1,-1,-1,-1,-1,-1,-1,-1,-1,-1,-1,-1,-1,-1,-1,-1,-1,-1,-1],"loss_changes":[1.9211187E0,1.7236899E0,2.4176717E-1,2.4783063E0,8.987572E-1,1.2042463E-2,1.8172514E-1,1.6111137E0,3.013421E0,1.1658776E0,5.197078E-1,0E0,0E0,9.637481E-2,0E0,8.616777E-1,6.4681864E-1,1.711309E0,1.2058563E0,4.7670484E-1,1.4805135E0,4.8679623E-1,3.760361E-1,6.536156E-2,4.5164794E-2,0E0,0E0,0E0,0E0,0E0,0E0,0E0,0E0,0E0,0E0,0E0,0E0,0E0,0E0,0E0,0E0,0E0,0E0,0E0,0E0],"parents":[2147483647,0,0,1,1,2,2,3,3,4,4,5,5,6,6,7,7,8,8,9,9,10,10,13,13,15,15,16,16,17,17,18,18,19,19,20,20,21,21,22,22,23,23,24,24],"right_children":[2,4,6,8,10,12,14,16,18,20,22,-1,-1,24,-1,26,28,30,32,34,36,38,40,42,44,-1,-1,-1,-1,-1,-1,-1,-1,-1,-1,-1,-1,-1,-1,-1,-1,-1,-1,-1,-1],"split_conditions":[9.165766E-1,3.24E1,2.21E1,-4.5099097E-1,1.092E2,1.7999999E-1,3.587E2,9.3E1,3.0434796E-1,2.1639639E-1,-3.8895085E-1,9.903439E-3,2.7428662E-2,8.99E1,2.6548514E-2,-5.479279E-1,2.58E0,3.1E1,9.675676E-2,2.99E1,1.17E2,1.148E2,4.9783784E-1,2.87E1,9.904505E-1,-1.0865224E-2,8.332747E-3,-8.747595E-3,-2.3425942E-2,6.1765765E-3,2.2037027E-2,-1.741282E-2,8.5770525E-4,-3.7205633E-2,-1.677609E-2,-1.2084401E-2,1.2545781E-2,2.8321613E-2,2.626051E-3,-1.1891934E-2,6.3228304E-3,-1.091521E-3,1.7394168E-2,3.009933E-3,8.927084E-3],"split_indices":[5,67,84,5,197,95,190,197,4,5,22,0,0,204,0,5,87,106,5,104,201,197,5,29,5,0,0,0,0,0,0,0,0,0,0,0,0,0,0,0,0,0,0,0,0],"split_type":[0,0,0,0,0,0,0,0,0,0,0,0,0,0,0,0,0,0,0,0,0,0,0,0,0,0,0,0,0,0,0,0,0,0,0,0,0,0,0,0,0,0,0,0,0],"sum_hessian":[1.103E3,9.86E2,1.17E2,7.05E2,2.81E2,1.2E1,1.05E2,2.4E2,4.65E2,1.93E2,8.8E1,2E0,1E1,9.9E1,6E0,1.07E2,1.33E2,3.06E2,1.59E2,5.9E1,1.34E2,3.8E1,5E1,2E1,7.9E1,3.3E1,7.4E1,8.6E1,4.7E1,2.04E2,1.02E2,5.4E1,1.05E2,1.7E1,4.2E1,1.03E2,3.1E1,9E0,2.9E1,3.4E1,1.6E1,2E0,1.8E1,1.8E1,6.1E1],"tree_param":{"num_deleted":"0","num_feature":"209","num_nodes":"45","size_leaf_vector":"1"}},{"base_weights":[-1.0689005E-3,-6.274064E-2,2.7917393E-2,-5.702873E-3,-1.5887217E-1,1.7598587E-1,-6.870201E-3,3.2706037E-2,-2.1572655E-1,3.941278E-3,-1.851213E-1,3.977492E-1,1.4051472E-1,-7.773993E-2,6.182669E-2,-1.9420914E-2,1.8231301E-1,-1.14019364E-1,-2.7526662E-1,-1.756048E-2,7.549696E-2,-1.6611849E-1,-3.548651E-2,1.8292934E-3,4.3889472E-1,8.91725E-2,3.3307305E-1,-1.0384202E-2,-1.8031935E-1,4.196949E-2,1.9368154E-1,-9.467489E-3,4.3065962E-3,7.6086596E-3,2.739185E-2,-1.8677482E-2,-2.7011489E-3,-2.9753665E-2,-1.0066728E-2,1.4068501E-2,1.6406582E-3,-7.4736043E-3,-1.94182E-2,3.2915737E-2,5.349217E-2,-9.2773065E-3,1.2330775E-2,4.111765E-2,5.1180804E-3,-9.950914E-3,8.563485E-3,-4.6707164E-2,-1.5917117E-2,7.964152E-3,-3.0700273E-3,1.5235752E-3,2.0222293E-2],"categories":[],"categories_nodes":[],"categories_segments":[],"categories_sizes":[],"default_left":[0,0,0,0,0,0,0,0,0,0,0,0,0,0,0,0,0,0,0,0,0,0,0,0,0,0,0,0,0,0,0,0,0,0,0,0,0,0,0,0,0,0,0,0,0,0,0,0,0,0,0,0,0,0,0,0,0],"id":23,"left_children":[1,3,5,7,9,11,13,15,17,19,21,23,25,27,29,31,33,35,37,-1,39,41,-1,-1,43,45,47,49,51,53,55,-1,-1,-1,-1,-1,-1,-1,-1,-1,-1,-1,-1,-1,-1,-1,-1,-1,-1,-1,-1,-1,-1,-1,-1,-1,-1],"loss_changes":[2.0575318E0,2.016885E0,4.0344E0,1.8785487E0,5.8622813E-1,1.1161742E0,3.0963228E0,1.5398561E0,1.8661785E-1,2.7020848E-1,3.2167196E-1,3.0422997E-1,1.2555273E0,2.1607418E0,8.3757174E-1,6.953279E-1,4.7543538E-1,8.990942E-2,5.5590987E-2,0E0,5.5471644E-2,2.62455E-1,0E0,0E0,1.36060715E-2,6.573584E-1,5.734081E-1,1.6344831E0,6.7762804E-1,7.7445304E-1,6.0934424E-2,0E0,0E0,0E0,0E0,0E0,0E0,0E0,0E0,0E0,0E0,0E0,0E0,0E0,0E0,0E0,0E0,0E0,0E0,0E0,0E0,0E0,0E0,0E0,0E0,0E0,0E0],"parents":[2147483647,0,0,1,1,2,2,3,3,4,4,5,5,6,6,7,7,8,8,9,9,10,10,11,11,12,12,13,13,14,14,15,15,16,16,17,17,18,18,20,20,21,21,24,24,25,25,26,26,27,27,28,28,29,29,30,30],"right_children":[2,4,6,8,10,12,14,16,18,20,22,24,26,28,30,32,34,36,38,-1,40,42,-1,-1,44,46,48,50,52,54,56,-1,-1,-1,-1,-1,-1,-1,-1,-1,-1,-1,-1,-1,-1,-1,-1,-1,-1,-1,-1,-1,-1,-1,-1,-1,-1],"split_conditions":[-3.7783784E-1,5.240642E-1,2.4E1,1.1849999E1,2.17E1,2.22E1,5.0504506E-1,1.573E2,-4.9395952E-1,-5.4E-1,1.17600006E2,-1.071427E0,-8.018018E-2,8.06E1,7.4E0,-5.1261264E-1,2.81E1,-4.1855857E-1,1.2545416E0,-1.756048E-2,2.71E1,1.12E2,-3.548651E-2,1.8292934E-3,8.61E1,7.05E1,1.922E2,8.090094E-2,1.5675675E-2,1.4890001E2,2.71E1,-9.467489E-3,4.3065962E-3,7.6086596E-3,2.739185E-2,-1.8677482E-2,-2.7011489E-3,-2.9753665E-2,-1.0066728E-2,1.4068501E-2,1.6406582E-3,-7.4736043E-3,-1.94182E-2,3.2915737E-2,5.349217E-2,-9.2773065E-3,1.2330775E-2,4.111765E-2,5.1180804E-3,-9.950914E-3,8.563485E-3,-4.6707164E-2,-1.5917117E-2,7.964152E-3,-3.0700273E-3,1.5235752E-3,2.0222293E-2],"split_indices":[5,14,75,87,110,86,5,184,20,5,198,3,5,62,50,5,31,5,25,0,27,205,0,0,54,55,194,5,5,186,33,0,0,0,0,0,0,0,0,0,0,0,0,0,0,0,0,0,0,0,0,0,0,0,0,0,0],"split_type":[0,0,0,0,0,0,0,0,0,0,0,0,0,0,0,0,0,0,0,0,0,0,0,0,0,0,0,0,0,0,0,0,0,0,0,0,0,0,0,0,0,0,0,0,0,0,0,0,0,0,0,0,0,0,0,0,0],"sum_hessian":[1.149E3,3.67E2,7.82E2,2.31E2,1.36E2,1.48E2,6.34E2,1.96E2,3.5E1,1.9E1,1.17E2,1.9E1,1.29E2,3.12E2,3.22E2,1.46E2,5E1,1.4E1,2.1E1,5E0,1.4E1,1.07E2,1E1,2E0,1.7E1,1.03E2,2.6E1,1.89E2,1.23E2,2.81E2,4.1E1,6.6E1,8E1,2.4E1,2.6E1,7E0,7E0,1.8E1,3E0,6E0,8E0,2.6E1,8.1E1,1E1,7E0,1.6E1,8.7E1,2E1,6E0,9.8E1,9.1E1,7E0,1.16E2,1.85E2,9.6E1,2E0,3.9E1],"tree_param":{"num_deleted":"0","num_feature":"209","num_nodes":"57","size_leaf_vector":"1"}},{"base_weights":[-5.3405277E-3,-2.5676697E-2,6.9080025E-2,2.6793329E-3,-1.2151372E-1,2.4389306E-1,5.8943015E-2,-5.1635146E-2,6.298351E-2,-2.1147801E-1,-6.601164E-2,8.689472E-3,2.823031E-2,1.4618137E-1,4.2618915E-2,4.9130473E-2,-1.0369917E-1,1.5063772E-1,2.4028978E-4,-4.3422768E-1,-1.8653822E-1,-9.51873E-2,1.5817913E-1,2.1268325E-1,8.8552274E-2,1.0649228E-2,8.983162E-2,-1.1052147E-3,2.4666155E-2,-6.3958685E-3,-2.238573E-2,9.438391E-3,2.8328722E-2,-5.59209E-3,5.758129E-3,-1.0868105E-2,-4.7037195E-2,-6.14835E-3,-2.217999E-2,-1.6469004E-2,-1.048813E-3,5.752377E-3,1.8955166E-2,1.2589025E-2,2.4069004E-2,1.804106E-2,4.857089E-3,-6.941434E-3,4.1247467E-3,1.619828E-2,7.824101E-3],"categories":[],"categories_nodes":[],"categories_segments":[],"categories_sizes":[],"default_left":[0,0,0,0,0,0,0,0,0,0,0,0,0,0,0,0,0,0,0,0,0,0,0,0,0,0,0,0,0,0,0,0,0,0,0,0,0,0,0,0,0,0,0,0,0,0,0,0,0,0,0],"id":24,"left_children":[1,3,5,7,9,11,13,15,17,19,21,-1,-1,23,25,27,29,31,33,35,37,39,41,43,45,47,49,-1,-1,-1,-1,-1,-1,-1,-1,-1,-1,-1,-1,-1,-1,-1,-1,-1,-1,-1,-1,-1,-1,-1,-1],"loss_changes":[1.7134619E0,2.4162343E0,4.1623986E-1,2.253445E0,9.9966097E-1,5.3863406E-2,3.227343E-1,1.904242E0,1.7928681E0,3.4676003E-1,8.457528E-1,0E0,0E0,1.1913431E-1,2.9488093E-1,1.4768304E0,1.1269414E0,9.880996E-1,6.1830467E-1,3.1245947E-2,2.9944754E-1,6.6348386E-1,3.646344E-2,8.592188E-3,6.8362385E-2,2.9194003E-1,5.339217E-2,0E0,0E0,0E0,0E0,0E0,0E0,0E0,0E0,0E0,0E0,0E0,0E0,0E0,0E0,0E0,0E0,0E0,0E0,0E0,0E0,0E0,0E0,0E0,0E0],"parents":[2147483647,0,0,1,1,2,2,3,3,4,4,5,5,6,6,7,7,8,8,9,9,10,10,13,13,14,14,15,15,16,16,17,17,18,18,19,19,20,20,21,21,22,22,23,23,24,24,25,25,26,26],"right_children":[2,4,6,8,10,12,14,16,18,20,22,-1,-1,24,26,28,30,32,34,36,38,40,42,44,46,48,50,-1,-1,-1,-1,-1,-1,-1,-1,-1,-1,-1,-1,-1,-1,-1,-1,-1,-1,-1,-1,-1,-1,-1,-1],"split_conditions":[6.437838E-1,2.5780002E2,1.008E2,-3.49009E-1,3E-1,-5.33E-1,8.99E1,9.3E1,9.92E1,-5.135135E-2,7.16E1,8.689472E-3,2.823031E-2,9.900001E0,9.4396394E-1,-4.8126125E-1,2.34E1,-1.209009E-1,7.801802E-2,-4.7987625E-1,2.47E1,1.14E2,3.745946E-1,-5.7369685E-1,1.974E3,5.0600002E1,2.84E1,-1.1052147E-3,2.4666155E-2,-6.3958685E-3,-2.238573E-2,9.438391E-3,2.8328722E-2,-5.59209E-3,5.758129E-3,-1.0868105E-2,-4.7037195E-2,-6.14835E-3,-2.217999E-2,-1.6469004E-2,-1.048813E-3,5.752377E-3,1.8955166E-2,1.2589025E-2,2.4069004E-2,1.804106E-2,4.857089E-3,-6.941434E-3,4.1247467E-3,1.619828E-2,7.824101E-3],"split_indices":[5,194,200,5,5,131,195,197,199,5,57,0,0,46,5,5,75,5,5,2,75,201,5,10,208,59,29,0,0,0,0,0,0,0,0,0,0,0,0,0,0,0,0,0,0,0,0,0,0,0,0],"split_type":[0,0,0,0,0,0,0,0,0,0,0,0,0,0,0,0,0,0,0,0,0,0,0,0,0,0,0,0,0,0,0,0,0,0,0,0,0,0,0,0,0,0,0,0,0,0,0,0,0,0,0],"sum_hessian":[1.13E3,8.88E2,2.42E2,6.86E2,2.02E2,1.2E1,2.3E2,3.61E2,3.25E2,7.6E1,1.26E2,3E0,9E0,3.5E1,1.95E2,1.23E2,2.38E2,1.35E2,1.9E2,6E0,7E1,1.12E2,1.4E1,1.5E1,2E1,1.17E2,7.8E1,9.5E1,2.8E1,1.8E2,5.8E1,9.6E1,3.9E1,9.6E1,9.4E1,1E0,5E0,1.6E1,5.4E1,6.1E1,5.1E1,4E0,1E1,5E0,1E1,5E0,1.5E1,3.2E1,8.5E1,9E0,6.9E1],"tree_param":{"num_deleted":"0","num_feature":"209","num_nodes":"51","size_leaf_vector":"1"}},{"base_weights":[-2.4844569E-3,-1.8332772E-1,2.5366943E-3,-6.628444E-2,-2.6417652E-1,7.798368E-3,-1.8204318E-1,5.3119034E-2,-1.03678025E-1,-3.96769E-2,-1.8265872E-1,3.8075905E-2,-2.0036545E-2,-3.0590034E-1,-9.795171E-3,1.2974918E-3,8.677569E-3,-1.5631219E-3,-1.2619655E-1,-2.0591771E-2,-3.6489468E-3,-6.030108E-3,1.0188193E-1,-8.724435E-2,3.676237E-2,-3.8108278E-2,-1.6428696E-1,-7.820546E-2,9.445278E-2,5.364969E-4,-7.7096524E-4,-3.5971196E-3,-1.3297833E-2,-3.8902143E-3,5.0539616E-3,1.8189188E-2,4.298856E-3,-4.7223517E-3,-1.6493026E-2,2.0023952E-3,1.626742E-2,-1.8783746E-2,2.8335304E-5,-2.5347269E-3,-1.1542256E-2,1.03039285E-2,2.576016E-3],"categories":[],"categories_nodes":[],"categories_segments":[],"categories_sizes":[],"default_left":[0,0,0,0,0,0,0,0,0,0,0,0,0,0,0,0,0,0,0,0,0,0,0,0,0,0,0,0,0,0,0,0,0,0,0,0,0,0,0,0,0,0,0,0,0,0,0],"id":25,"left_children":[1,3,5,7,9,11,13,15,17,-1,19,21,23,25,27,-1,-1,29,31,-1,-1,33,35,37,39,-1,41,43,45,-1,-1,-1,-1,-1,-1,-1,-1,-1,-1,-1,-1,-1,-1,-1,-1,-1,-1],"loss_changes":[1.0419886E0,2.7583623E-1,1.0862489E0,6.80162E-2,1.2208247E-1,9.168567E-1,6.5836227E-1,4.2785592E-3,2.509699E-2,0E0,3.6682904E-2,1.4668279E0,2.1676335E0,1.2903619E-1,1.07229576E-1,0E0,0E0,1.6911322E-4,7.236004E-4,0E0,0E0,5.765707E-1,9.9584866E-1,8.0056536E-1,6.458727E-1,0E0,3.1058967E-2,1.47794075E-2,8.8466704E-4,0E0,0E0,0E0,0E0,0E0,0E0,0E0,0E0,0E0,0E0,0E0,0E0,0E0,0E0,0E0,0E0,0E0,0E0],"parents":[2147483647,0,0,1,1,2,2,3,3,4,4,5,5,6,6,7,7,8,8,10,10,11,11,12,12,13,13,14,14,17,17,18,18,21,21,22,22,23,23,24,24,26,26,27,27,28,28],"right_children":[2,4,6,8,10,12,14,16,18,-1,20,22,24,26,28,-1,-1,30,32,-1,-1,34,36,38,40,-1,42,44,46,-1,-1,-1,-1,-1,-1,-1,-1,-1,-1,-1,-1,-1,-1,-1,-1,-1,-1],"split_conditions":[-9.597524E-1,5.0617284E-1,1.6666666E0,-5.47E-1,2.91E1,1.209E1,3.2600002E1,-7.419786E-1,2.51E1,-3.96769E-2,1.34748E0,1.966E3,3.649733E-1,-8E-2,3.23E1,1.2974918E-3,8.677569E-3,7.8571403E-1,7.8571403E-1,-2.0591771E-2,-3.6489468E-3,-4.2580214E-1,2.2459893E-1,3.0800001E1,1E1,-3.8108278E-2,8.564788E-1,3.36933E-1,-1.8449196E-1,5.364969E-4,-7.7096524E-4,-3.5971196E-3,-1.3297833E-2,-3.8902143E-3,5.0539616E-3,1.8189188E-2,4.298856E-3,-4.7223517E-3,-1.6493026E-2,2.0023952E-3,1.626742E-2,-1.8783746E-2,2.8335304E-5,-2.5347269E-3,-1.1542256E-2,1.03039285E-2,2.576016E-3],"split_indices":[2,11,0,129,33,87,65,6,82,0,12,208,6,125,110,0,0,1,1,0,0,6,14,110,207,0,9,10,6,0,0,0,0,0,0,0,0,0,0,0,0,0,0,0,0,0,0],"split_type":[0,0,0,0,0,0,0,0,0,0,0,0,0,0,0,0,0,0,0,0,0,0,0,0,0,0,0,0,0,0,0,0,0,0,0,0,0,0,0,0,0,0,0,0,0,0,0],"sum_hessian":[1.146E3,3E1,1.116E3,1.3E1,1.7E1,1.086E3,3E1,3E0,1E1,5E0,1.2E1,5.2E2,5.66E2,1.7E1,1.3E1,2E0,1E0,2E0,8E0,1E1,2E0,3.08E2,2.12E2,2.59E2,3.07E2,1E1,7E0,8E0,5E0,1E0,1E0,1E0,7E0,1.95E2,1.13E2,8.9E1,1.23E2,1.72E2,8.7E1,2.72E2,3.5E1,6E0,1E0,4E0,4E0,4E0,1E0],"tree_param":{"num_deleted":"0","num_feature":"209","num_nodes":"47","size_leaf_vector":"1"}},{"base_weights":[1.2523833E-3,9.373066E-3,-1.06414765E-1,-1.2472017E-1,1.6889142E-2,-1.4253476E-1,6.8886235E-2,7.107451E-2,-1.6980954E-1,6.2403932E-2,-1.7216207E-2,-1.6623983E-1,7.762722E-2,2.3213701E-1,-1.962778E-2,-3.5148107E-2,1.367943E-1,-1.3084973E-1,-3.336424E-1,1.640607E-1,3.2588605E-2,-6.86673E-2,2.527013E-2,-1.0762299E-1,-2.5330865E-1,-3.9519846E-2,1.3239001E-2,1.3669573E-3,2.8333649E-2,1.0295744E-2,-8.687251E-2,1.5100519E-3,-7.36807E-3,5.3051114E-3,1.5968135E-2,-6.8269023E-3,-1.6869502E-2,-3.7284207E-2,-1.4402898E-2,2.7070114E-2,8.158217E-3,-3.453986E-3,8.143062E-3,-4.8022117E-3,-1.923514E-2,1.1387486E-3,1.48950955E-2,-1.9024486E-2,-4.2642406E-3,-7.69677E-3,-2.8638214E-2,6.949246E-4,-6.6229017E-3,-1.259737E-2,7.2536594E-4],"categories":[],"categories_nodes":[],"categories_segments":[],"categories_sizes":[],"default_left":[0,0,0,0,0,0,0,0,0,0,0,0,0,0,0,0,0,0,0,0,0,0,0,0,0,0,0,0,0,0,0,0,0,0,0,0,0,0,0,0,0,0,0,0,0,0,0,0,0,0,0,0,0,0,0],"id":26,"left_children":[1,3,5,7,9,11,13,15,17,19,21,23,25,27,29,31,33,35,37,39,41,43,45,47,49,51,-1,-1,-1,-1,53,-1,-1,-1,-1,-1,-1,-1,-1,-1,-1,-1,-1,-1,-1,-1,-1,-1,-1,-1,-1,-1,-1,-1,-1],"loss_changes":[9.723789E-1,1.0442284E0,5.0370455E-1,4.9762315E-1,1.5223264E0,3.5213673E-1,2.0685607E-1,8.159827E-2,2.4357343E-1,1.267644E0,1.2280635E0,2.738564E-1,5.013914E-2,5.2053988E-2,9.137628E-2,1.07936645E-2,4.945174E-3,7.848197E-2,5.76216E-3,8.1349254E-1,1.0716653E0,6.3934684E-1,5.27145E-1,1.9053373E-1,1.12098694E-1,4.1836943E-3,0E0,0E0,0E0,0E0,2.6676897E-2,0E0,0E0,0E0,0E0,0E0,0E0,0E0,0E0,0E0,0E0,0E0,0E0,0E0,0E0,0E0,0E0,0E0,0E0,0E0,0E0,0E0,0E0,0E0,0E0],"parents":[2147483647,0,0,1,1,2,2,3,3,4,4,5,5,6,6,7,7,8,8,9,9,10,10,11,11,12,12,13,13,14,14,15,15,16,16,17,17,18,18,19,19,20,20,21,21,22,22,23,23,24,24,25,25,30,30],"right_children":[2,4,6,8,10,12,14,16,18,20,22,24,26,28,30,32,34,36,38,40,42,44,46,48,50,52,-1,-1,-1,-1,54,-1,-1,-1,-1,-1,-1,-1,-1,-1,-1,-1,-1,-1,-1,-1,-1,-1,-1,-1,-1,-1,-1,-1,-1],"split_conditions":[1.4285687E0,-8.128342E-1,1.4606309E0,2.2459893E-1,1.209E1,3.3100002E1,6.12E1,-7.0977575E-1,4.3E-1,7.1427755E-2,3.6898395E-1,1.131E2,-1.3944112E0,-8.754104E-1,1.5000008E0,-1.9166666E0,6E0,-1.7E-1,1.1489651E0,8.2142866E-1,-5.541444E-1,1.23E2,1E1,-3.9237967E-1,1.824E1,1.6666666E0,1.3239001E-2,1.3669573E-3,2.8333649E-2,1.0295744E-2,7.3913074E-1,1.5100519E-3,-7.36807E-3,5.3051114E-3,1.5968135E-2,-6.8269023E-3,-1.6869502E-2,-3.7284207E-2,-1.4402898E-2,2.7070114E-2,8.158217E-3,-3.453986E-3,8.143062E-3,-4.8022117E-3,-1.923514E-2,1.1387486E-3,1.48950955E-2,-1.9024486E-2,-4.2642406E-3,-7.69677E-3,-2.8638214E-2,6.949246E-4,-6.6229017E-3,-1.259737E-2,7.2536594E-4],"split_indices":[3,6,143,14,87,66,194,26,149,3,6,196,18,8,0,0,44,167,15,1,6,199,207,6,94,0,0,0,0,0,4,0,0,0,0,0,0,0,0,0,0,0,0,0,0,0,0,0,0,0,0,0,0,0,0],"split_type":[0,0,0,0,0,0,0,0,0,0,0,0,0,0,0,0,0,0,0,0,0,0,0,0,0,0,0,0,0,0,0,0,0,0,0,0,0,0,0,0,0,0,0,0,0,0,0,0,0,0,0,0,0,0,0],"sum_hessian":[1.11E3,1.033E3,7.7E1,5.4E1,9.79E2,6.4E1,1.3E1,1E1,4.4E1,4.19E2,5.6E2,5.8E1,6E0,4E0,9E0,4E0,6E0,3.7E1,7E0,9.4E1,3.25E2,2.53E2,3.07E2,3.6E1,2.2E1,2E0,4E0,1E0,3E0,3E0,6E0,2E0,2E0,2E0,4E0,1.5E1,2.2E1,5E0,2E0,4E1,5.4E1,1.37E2,1.88E2,2.18E2,3.5E1,2.77E2,3E1,1.5E1,2.1E1,4E0,1.8E1,1E0,1E0,4E0,2E0],"tree_param":{"num_deleted":"0","num_feature":"209","num_nodes":"55","size_leaf_vector":"1"}},{"base_weights":[-2.8472175E-3,-1.670961E-1,1.8947223E-3,-1.1346775E-1,-3.424162E-1,-1.3964446E-2,6.0936753E-2,7.348727E-3,-1.5008013E-1,-3.9872646E-2,-1.3442703E-2,-3.8856454E-2,2.4942853E-2,-2.8694788E-2,9.760526E-2,3.300927E-2,-3.786842E-2,-6.040022E-3,-1.6574903E-1,-9.455257E-3,-8.453078E-2,-1.9005457E-2,6.1904907E-2,1.7533226E-2,-4.394772E-2,3.431304E-2,1.7863478E-1,1.2161471E-3,5.8200234E-3,-1.1403263E-3,-4.539937E-3,6.234869E-5,-9.6835196E-4,-2.1785272E-2,-1.12787355E-2,-4.2683957E-3,1.0629194E-2,-1.4594532E-2,-3.8659498E-3,-9.417223E-3,2.9737721E-3,1.1175648E-2,2.7969438E-3,-1.5231842E-2,-2.6065544E-3,-1.3172728E-2,8.321269E-3,9.714372E-3,3.0613312E-2],"categories":[],"categories_nodes":[],"categories_segments":[],"categories_sizes":[],"default_left":[0,0,0,0,0,0,0,0,0,0,0,0,0,0,0,0,0,0,0,0,0,0,0,0,0,0,0,0,0,0,0,0,0,0,0,0,0,0,0,0,0,0,0,0,0,0,0,0,0],"id":27,"left_children":[1,3,5,7,9,11,13,15,17,-1,-1,19,21,23,25,27,29,31,33,35,37,39,41,-1,43,45,47,-1,-1,-1,-1,-1,-1,-1,-1,-1,-1,-1,-1,-1,-1,-1,-1,-1,-1,-1,-1,-1,-1],"loss_changes":[8.8821507E-1,2.620148E-1,1.0392715E0,1.1611074E-1,2.8383851E-2,8.483898E-1,7.7516454E-1,9.372084E-3,4.4137836E-2,0E0,0E0,7.162985E-1,5.567281E-1,2.2243418E-1,8.503362E-1,1.9180803E-3,8.0222264E-5,7.887299E-5,2.5099993E-2,1.2583749E0,5.83145E-1,5.7802755E-1,3.115372E-1,0E0,1.2199347E-1,7.8229606E-1,7.2872925E-1,0E0,0E0,0E0,0E0,0E0,0E0,0E0,0E0,0E0,0E0,0E0,0E0,0E0,0E0,0E0,0E0,0E0,0E0,0E0,0E0,0E0,0E0],"parents":[2147483647,0,0,1,1,2,2,3,3,4,4,5,5,6,6,7,7,8,8,11,11,12,12,13,13,14,14,15,15,16,16,17,17,18,18,19,19,20,20,21,21,22,22,24,24,25,25,26,26],"right_children":[2,4,6,8,10,12,14,16,18,-1,-1,20,22,24,26,28,30,32,34,36,38,40,42,-1,44,46,48,-1,-1,-1,-1,-1,-1,-1,-1,-1,-1,-1,-1,-1,-1,-1,-1,-1,-1,-1,-1,-1,-1],"split_conditions":[-9.597524E-1,6E-1,2.87E1,-7.2E-1,6.357813E-1,3.649733E-1,-7.647059E-1,-1.7795406E-1,-2.27E0,-3.9872646E-2,-1.3442703E-2,7.36E1,2.2E1,7.486631E-2,-5.0746463E-2,-7.419786E-1,-2E0,-1.75E0,-2.2706065E-1,-2.2192514E-1,2.1925135E-1,5.233957E-1,1.147E2,1.7533226E-2,8.49E1,2.24E1,3.501E2,1.2161471E-3,5.8200234E-3,-1.1403263E-3,-4.539937E-3,6.234869E-5,-9.6835196E-4,-2.1785272E-2,-1.12787355E-2,-4.2683957E-3,1.0629194E-2,-1.4594532E-2,-3.8659498E-3,-9.417223E-3,2.9737721E-3,1.1175648E-2,2.7969438E-3,-1.5231842E-2,-2.6065544E-3,-1.3172728E-2,8.321269E-3,9.714372E-3,3.0613312E-2],"split_indices":[2,149,34,179,10,6,6,10,118,0,0,62,82,14,26,6,0,0,8,6,6,6,197,0,54,84,186,0,0,0,0,0,0,0,0,0,0,0,0,0,0,0,0,0,0,0,0,0,0],"split_type":[0,0,0,0,0,0,0,0,0,0,0,0,0,0,0,0,0,0,0,0,0,0,0,0,0,0,0,0,0,0,0,0,0,0,0,0,0,0,0,0,0,0,0,0,0,0,0,0,0],"sum_hessian":[1.139E3,3.1E1,1.108E3,2.5E1,6E0,8.74E2,2.34E2,6E0,1.9E1,4E0,2E0,5.33E2,3.41E2,6.8E1,1.66E2,4E0,2E0,2E0,1.7E1,3.25E2,2.08E2,1.56E2,1.85E2,4E0,6.4E1,9.4E1,7.2E1,3E0,1E0,1E0,1E0,1E0,1E0,7E0,1E1,2.53E2,7.2E1,8.8E1,1.2E2,6.1E1,9.5E1,7.4E1,1.11E2,8E0,5.6E1,2.1E1,7.3E1,4.5E1,2.7E1],"tree_param":{"num_deleted":"0","num_feature":"209","num_nodes":"49","size_leaf_vector":"1"}}]},"name":"gbtree"},"learner_model_param":{"base_score":"2.1508375E-2","boost_from_average":"1","num_class":"0","num_feature":"209","num_target":"1"},"objective":{"name":"reg:squarederror","reg_loss_param":{"scale_pos_weight":"1"}}},"version":[2,1,3]}